{"learner":{"attributes":{},"feature_names":[],"feature_types":[],"gradient_booster":{"model":{"gbtree_model_param":{"num_trees":"40","size_leaf_vector":"0"},"tree_info":[0,0,0,0,0,0,0,0,0,0,0,0,0,0,0,0,0,0,0,0,0,0,0,0,0,0,0,0,0,0,0,0,0,0,0,0,0,0,0,0],"trees":[{"base_weights":[4.5966323E-2,1.9282158E-1,-4.7027706E-3,2.1069379E-1,1.0578216E-1,3.3062343E-2,-5.769414E-2,2.1877337E-1,3.6376055E-2,1.6928358E-1,5.5609193E-2,5.000221E-2,-7.3778024E-3,-4.4049893E-2,-1.1162243E-1],"categories":[],"categories_nodes":[],"categories_segments":[],"categories_sizes":[],"default_left":[true,true,true,true,true,true,true,false,false,false,false,false,false,false,false],"id":0,"left_children":[1,3,5,7,9,11,13,-1,-1,-1,-1,-1,-1,-1,-1],"loss_changes":[1.5664259E1,8.1772995E-1,3.135826E0,6.21603E-1,2.9007542E-1,6.2719035E-1,4.7483182E-1,0E0,0E0,0E0,0E0,0E0,0E0,0E0,0E0],"parents":[2147483647,0,0,1,1,2,2,3,3,4,4,5,5,6,6],"right_children":[2,4,6,8,10,12,14,-1,-1,-1,-1,-1,-1,-1,-1],"split_conditions":[1.25E1,5E-1,2.15E1,5E-1,1.505E2,5E-1,5E-1,2.1877337E-2,3.6376056E-3,1.6928358E-2,5.560919E-3,5.000221E-3,-7.3778024E-4,-4.4049895E-3,-1.1162243E-2],"split_indices":[0,35,0,56,1,57,56,0,0,0,0,0,0,0,0],"split_type":[0,0,0,0,0,0,0,0,0,0,0,0,0,0,0],"sum_hessian":[2.104E3,5.39E2,1.565E3,4.46E2,9.3E1,9.14E2,6.51E2,4.26E2,2E1,4E1,5.3E1,6.44E2,2.7E2,5.21E2,1.3E2],"tree_param":{"num_deleted":"0","num_feature":"69","num_nodes":"15","size_leaf_vector":"0"}},{"base_weights":[4.1387122E-2,1.736283E-1,-4.2397147E-3,1.9632274E-1,1.0985525E-1,2.976076E-2,-5.19486E-2,2.0204216E-1,-7.2697535E-2,1.304197E-1,1.598835E-3,4.500973E-2,-6.6427384E-3,-7.544692E-2,-2.161352E-2],"categories":[],"categories_nodes":[],"categories_segments":[],"categories_sizes":[],"default_left":[true,true,true,true,true,true,true,false,false,false,false,false,false,false,false],"id":1,"left_children":[1,3,5,7,9,11,13,-1,-1,-1,-1,-1,-1,-1,-1],"loss_changes":[1.2701772E1,7.599716E-1,2.5417933E0,6.2553024E-1,3.20369E-1,5.0823E-1,4.6313024E-1,0E0,0E0,0E0,0E0,0E0,0E0,0E0,0E0],"parents":[2147483647,0,0,1,1,2,2,3,3,4,4,5,5,6,6],"right_children":[2,4,6,8,10,12,14,-1,-1,-1,-1,-1,-1,-1,-1],"split_conditions":[1.25E1,1.9166667E0,2.15E1,5E-1,4.5E0,5E-1,4.5E0,2.0204216E-2,-7.2697536E-3,1.304197E-2,1.5988351E-4,4.500973E-3,-6.6427386E-4,-7.544692E-3,-2.161352E-3],"split_indices":[0,3,0,12,20,57,43,0,0,0,0,0,0,0,0],"split_type":[0,0,0,0,0,0,0,0,0,0,0,0,0,0,0],"sum_hessian":[2.104E3,5.39E2,1.565E3,3.96E2,1.43E2,9.14E2,6.51E2,3.88E2,8E0,1.2E2,2.3E1,6.44E2,2.7E2,3.66E2,2.85E2],"tree_param":{"num_deleted":"0","num_feature":"69","num_nodes":"15","size_leaf_vector":"0"}},{"base_weights":[3.7258025E-2,1.5631385E-1,-3.8194968E-3,2.251047E-1,1.3633472E-1,3.1038765E-2,-4.178667E-2,2.3755996E-1,-1.088781E-1,1.4223966E-1,-4.54906E-2,4.7068033E-2,-5.92786E-3,-2.7661381E-2,-1.0422881E-1],"categories":[],"categories_nodes":[],"categories_segments":[],"categories_sizes":[],"default_left":[true,true,true,true,true,true,true,false,false,false,false,false,false,false,false],"id":2,"left_children":[1,3,5,7,9,11,13,-1,-1,-1,-1,-1,-1,-1,-1],"loss_changes":[1.0295137E1,7.114773E-1,2.0738504E0,5.250459E-1,4.584856E-1,4.8439068E-1,6.586268E-1,0E0,0E0,0E0,0E0,0E0,0E0,0E0,0E0],"parents":[2147483647,0,0,1,1,2,2,3,3,4,4,5,5,6,6],"right_children":[2,4,6,8,10,12,14,-1,-1,-1,-1,-1,-1,-1,-1],"split_conditions":[1.25E1,1.145E2,3.025E2,5E-1,3.5E0,5E-1,5E-1,2.3755996E-2,-1.088781E-2,1.4223966E-2,-4.54906E-3,4.7068032E-3,-5.92786E-4,-2.7661382E-3,-1.0422881E-2],"split_indices":[0,1,1,12,25,57,56,0,0,0,0,0,0,0,0],"split_type":[0,0,0,0,0,0,0,0,0,0,0,0,0,0,0],"sum_hessian":[2.104E3,5.39E2,1.565E3,1.19E2,4.2E2,8.16E2,7.49E2,1.15E2,4E0,4.07E2,1.3E1,5.69E2,2.47E2,6.12E2,1.37E2],"tree_param":{"num_deleted":"0","num_feature":"69","num_nodes":"15","size_leaf_vector":"0"}},{"base_weights":[3.353862E-2,1.3672993E-1,-4.961357E-3,1.690093E-1,9.4478056E-2,1.56342E-2,-5.8046963E-2,1.7751196E-1,-5.2302126E-3,1.3143882E-1,5.4622192E-2,2.9511016E-2,-3.6485847E-2,-4.345284E-2,-1.1659903E-1],"categories":[],"categories_nodes":[],"categories_segments":[],"categories_sizes":[],"default_left":[true,true,true,true,true,true,true,false,false,false,false,false,false,false,false],"id":3,"left_children":[1,3,5,7,9,11,13,-1,-1,-1,-1,-1,-1,-1,-1],"loss_changes":[8.363555E0,7.641611E-1,1.6780721E0,4.7945404E-1,3.6109638E-1,8.010026E-1,3.615209E-1,0E0,0E0,0E0,0E0,0E0,0E0,0E0,0E0],"parents":[2147483647,0,0,1,1,2,2,3,3,4,4,5,5,6,6],"right_children":[2,4,6,8,10,12,14,-1,-1,-1,-1,-1,-1,-1,-1],"split_conditions":[1.895E2,1.505E2,8.5E0,5E-1,1.5E0,2.6833334E0,5E-1,1.7751196E-2,-5.2302127E-4,1.3143882E-2,5.4622195E-3,2.9511016E-3,-3.6485847E-3,-4.3452843E-3,-1.1659903E-2],"split_indices":[1,1,20,57,25,3,56,0,0,0,0,0,0,0,0],"split_type":[0,0,0,0,0,0,0,0,0,0,0,0,0,0,0],"sum_hessian":[2.104E3,5.71E2,1.533E3,3.22E2,2.49E2,1.105E3,4.28E2,3.07E2,1.5E1,1.28E2,1.21E2,8.73E2,2.32E2,3.44E2,8.4E1],"tree_param":{"num_deleted":"0","num_feature":"69","num_nodes":"15","size_leaf_vector":"0"}},{"base_weights":[3.0193849E-2,1.15082145E-1,-7.977008E-3,1.5216169E-1,7.855111E-2,1.05730165E-2,-5.2279565E-2,1.5981838E-1,-4.7398712E-3,3.530945E-2,9.962333E-2,2.3621742E-2,-3.3393428E-2,-3.9120138E-2,-1.0507632E-1],"categories":[],"categories_nodes":[],"categories_segments":[],"categories_sizes":[],"default_left":[true,true,true,true,true,true,true,false,false,false,false,false,false,false,false],"id":4,"left_children":[1,3,5,7,9,11,13,-1,-1,-1,-1,-1,-1,-1,-1],"loss_changes":[6.8216624E0,8.72571E-1,1.1946478E0,3.88793E-1,2.980888E-1,5.888375E-1,2.9394794E-1,0E0,0E0,0E0,0E0,0E0,0E0,0E0,0E0],"parents":[2147483647,0,0,1,1,2,2,3,3,4,4,5,5,6,6],"right_children":[2,4,6,8,10,12,14,-1,-1,-1,-1,-1,-1,-1,-1],"split_conditions":[1.35E1,1.505E2,8.5E0,5E-1,5E-1,2.6833334E0,5E-1,1.5981838E-2,-4.7398714E-4,3.530945E-3,9.962333E-3,2.3621742E-3,-3.3393428E-3,-3.912014E-3,-1.0507632E-2],"split_indices":[0,1,20,57,68,3,56,0,0,0,0,0,0,0,0],"split_type":[0,0,0,0,0,0,0,0,0,0,0,0,0,0,0],"sum_hessian":[2.104E3,6.52E2,1.452E3,3.22E2,3.3E2,1.024E3,4.28E2,3.07E2,1.5E1,1.09E2,2.21E2,7.9E2,2.34E2,3.44E2,8.4E1],"tree_param":{"num_deleted":"0","num_feature":"69","num_nodes":"15","size_leaf_vector":"0"}},{"base_weights":[2.7180921E-2,1.1472335E-1,-3.0234798E-3,1.2938945E-1,4.376093E-2,2.3787314E-2,-3.222534E-2,1.36154E-1,-1.431793E-2,5.7162657E-2,-1.0745297E-1,4.2002797E-2,-2.020959E-3,-5.467531E-2,-3.4869649E-3],"categories":[],"categories_nodes":[],"categories_segments":[],"categories_sizes":[],"default_left":[true,true,true,true,true,true,true,false,false,false,false,false,false,false,false],"id":5,"left_children":[1,3,5,7,9,11,13,-1,-1,-1,-1,-1,-1,-1,-1],"loss_changes":[5.5663176E0,5.563383E-1,1.2268271E0,4.364853E-1,1.9663589E-1,3.841649E-1,4.8369122E-1,0E0,0E0,0E0,0E0,0E0,0E0,0E0,0E0],"parents":[2147483647,0,0,1,1,2,2,3,3,4,4,5,5,6,6],"right_children":[2,4,6,8,10,12,14,-1,-1,-1,-1,-1,-1,-1,-1],"split_conditions":[1.25E1,5E-1,3.025E2,5E-1,1.5E0,5E-1,4.5E0,1.36154E-2,-1.431793E-3,5.7162656E-3,-1.0745297E-2,4.2002797E-3,-2.0209591E-4,-5.4675313E-3,-3.4869649E-4],"split_indices":[0,35,1,56,59,48,43,0,0,0,0,0,0,0,0],"split_type":[0,0,0,0,0,0,0,0,0,0,0,0,0,0,0],"sum_hessian":[2.104E3,5.39E2,1.565E3,4.46E2,9.3E1,8.16E2,7.49E2,4.26E2,2E1,8.6E1,7E0,4.78E2,3.38E2,4.2E2,3.29E2],"tree_param":{"num_deleted":"0","num_feature":"69","num_nodes":"15","size_leaf_vector":"0"}},{"base_weights":[2.4465369E-2,1.007481E-1,-3.9949873E-3,1.104762E-1,3.4016466E-3,1.6705109E-2,-3.4870625E-2,1.1844157E-1,1.1930785E-2,-2.3584822E-2,1.5814865E-1,3.566637E-2,-1.2568615E-2,-1.7487641E-2,-6.396777E-2],"categories":[],"categories_nodes":[],"categories_segments":[],"categories_sizes":[],"default_left":[true,true,true,true,true,true,true,false,false,false,false,false,false,false,false],"id":6,"left_children":[1,3,5,7,9,11,13,-1,-1,-1,-1,-1,-1,-1,-1],"loss_changes":[4.5704284E0,5.41306E-1,9.8100585E-1,4.0676117E-1,2.2506188E-1,5.105546E-1,3.1045127E-1,0E0,0E0,0E0,0E0,0E0,0E0,0E0,0E0],"parents":[2147483647,0,0,1,1,2,2,3,3,4,4,5,5,6,6],"right_children":[2,4,6,8,10,12,14,-1,-1,-1,-1,-1,-1,-1,-1],"split_conditions":[1.895E2,5E-1,7.5E0,5E-1,5E-1,2.2792208E0,1.05E1,1.1844157E-2,1.1930786E-3,-2.3584822E-3,1.5814865E-2,3.566637E-3,-1.2568616E-3,-1.7487642E-3,-6.3967775E-3],"split_indices":[1,57,20,46,14,3,20,0,0,0,0,0,0,0,0],"split_type":[0,0,0,0,0,0,0,0,0,0,0,0,0,0,0],"sum_hessian":[2.104E3,5.71E2,1.533E3,5.19E2,5.2E1,9.18E2,6.15E2,4.8E2,3.9E1,4.5E1,7E0,5.57E2,3.61E2,3.86E2,2.29E2],"tree_param":{"num_deleted":"0","num_feature":"69","num_nodes":"15","size_leaf_vector":"0"}},{"base_weights":[2.202865E-2,9.07196E-2,-3.599287E-3,1.4571798E-1,7.5950235E-2,5.781444E-3,-6.025444E-2,1.5694152E-1,-1.4381194E-1,8.5264154E-2,2.4858902E-3,3.0172002E-2,-2.404813E-2,-6.538486E-2,1.713784E-1],"categories":[],"categories_nodes":[],"categories_segments":[],"categories_sizes":[],"default_left":[true,true,true,true,true,true,true,false,false,false,false,false,false,false,false],"id":7,"left_children":[1,3,5,7,9,11,13,-1,-1,-1,-1,-1,-1,-1,-1],"loss_changes":[3.705984E0,4.535632E-1,8.156183E-1,4.1251636E-1,3.0974913E-1,9.5892197E-1,2.70271E-1,0E0,0E0,0E0,0E0,0E0,0E0,0E0,0E0],"parents":[2147483647,0,0,1,1,2,2,3,3,4,4,5,5,6,6],"right_children":[2,4,6,8,10,12,14,-1,-1,-1,-1,-1,-1,-1,-1],"split_conditions":[1.895E2,1.145E2,5E-1,5E-1,5E-1,5E-1,3.5E0,1.5694153E-2,-1.43811945E-2,8.526416E-3,2.4858903E-4,3.0172002E-3,-2.404813E-3,-6.5384856E-3,1.713784E-2],"split_indices":[1,1,56,12,57,57,36,0,0,0,0,0,0,0,0],"split_type":[0,0,0,0,0,0,0,0,0,0,0,0,0,0,0],"sum_hessian":[2.104E3,5.71E2,1.533E3,1.19E2,4.52E2,1.316E3,2.17E2,1.15E2,4E0,4.01E2,5.1E1,7.24E2,5.92E2,2.13E2,4E0],"tree_param":{"num_deleted":"0","num_feature":"69","num_nodes":"15","size_leaf_vector":"0"}},{"base_weights":[1.98359E-2,8.43543E-2,-2.424487E-3,1.0148337E-1,3.6544595E-2,1.5747884E-2,-3.0400708E-2,1.1020112E-1,-1.29419025E-2,7.281953E-2,-7.41721E-4,6.7035677E-3,6.7164116E-2,-1.8584736E-2,-6.839207E-2],"categories":[],"categories_nodes":[],"categories_segments":[],"categories_sizes":[],"default_left":[true,true,true,true,true,true,true,false,false,false,false,false,false,false,false],"id":8,"left_children":[1,3,5,7,9,11,13,-1,-1,-1,-1,-1,-1,-1,-1],"loss_changes":[3.0234146E0,4.385171E-1,7.9662424E-1,3.9744568E-1,1.9482245E-1,4.4132325E-1,2.7570325E-1,0E0,0E0,0E0,0E0,0E0,0E0,0E0,0E0],"parents":[2147483647,0,0,1,1,2,2,3,3,4,4,5,5,6,6],"right_children":[2,4,6,8,10,12,14,-1,-1,-1,-1,-1,-1,-1,-1],"split_conditions":[1.25E1,1.9166667E0,7.5E0,5E-1,1.535E2,5E-1,2.5E0,1.1020112E-2,-1.2941903E-3,7.281953E-3,-7.41721E-5,6.703568E-4,6.7164116E-3,-1.8584736E-3,-6.839207E-3],"split_indices":[0,3,20,46,1,14,41,0,0,0,0,0,0,0,0],"split_type":[0,0,0,0,0,0,0,0,0,0,0,0,0,0,0],"sum_hessian":[2.104E3,5.39E2,1.565E3,3.96E2,1.43E2,9.49E2,6.16E2,3.68E2,2.8E1,7.2E1,7.1E1,8.08E2,1.41E2,4.71E2,1.45E2],"tree_param":{"num_deleted":"0","num_feature":"69","num_nodes":"15","size_leaf_vector":"0"}},{"base_weights":[1.7859725E-2,6.917071E-2,-5.2124932E-3,7.7750914E-2,-2.0190837E-2,3.638536E-3,-5.2292697E-2,8.261522E-2,-6.647185E-2,-3.835249E-2,9.8113544E-2,1.1939397E-2,-5.0851922E-2,-1.09668046E-1,-3.3633772E-2],"categories":[],"categories_nodes":[],"categories_segments":[],"categories_sizes":[],"default_left":[true,true,true,true,true,true,true,false,false,false,false,false,false,false,false],"id":9,"left_children":[1,3,5,7,9,11,13,-1,-1,-1,-1,-1,-1,-1,-1],"loss_changes":[2.492382E0,5.0225115E-1,6.056674E-1,4.2361188E-1,1.2838186E-1,5.5424404E-1,2.4254084E-1,0E0,0E0,0E0,0E0,0E0,0E0,0E0,0E0],"parents":[2147483647,0,0,1,1,2,2,3,3,4,4,5,5,6,6],"right_children":[2,4,6,8,10,12,14,-1,-1,-1,-1,-1,-1,-1,-1],"split_conditions":[1.35E1,5E-1,1.05E1,2.5E0,5E-1,5E-1,2.5E0,8.261522E-3,-6.6471854E-3,-3.835249E-3,9.811355E-3,1.1939397E-3,-5.085192E-3,-1.0966805E-2,-3.3633772E-3],"split_indices":[0,57,20,45,14,56,53,0,0,0,0,0,0,0,0],"split_type":[0,0,0,0,0,0,0,0,0,0,0,0,0,0,0],"sum_hessian":[2.104E3,6.52E2,1.452E3,5.95E2,5.7E1,1.223E3,2.29E2,5.76E2,1.9E1,5E1,7E0,1.062E3,1.61E2,5.5E1,1.74E2],"tree_param":{"num_deleted":"0","num_feature":"69","num_nodes":"15","size_leaf_vector":"0"}},{"base_weights":[1.6068708E-2,6.7531615E-2,-2.7647214E-3,1.1322914E-1,5.505693E-2,1.5704328E-2,-2.2288978E-2,1.23395205E-1,-1.4526944E-1,7.715538E-2,2.9276317E-2,4.4912707E-2,9.5975946E-4,-3.5591464E-2,1.1415377E-2],"categories":[],"categories_nodes":[],"categories_segments":[],"categories_sizes":[],"default_left":[true,true,true,true,true,true,true,false,false,false,false,false,false,false,false],"id":10,"left_children":[1,3,5,7,9,11,13,-1,-1,-1,-1,-1,-1,-1,-1],"loss_changes":[2.040401E0,3.1528115E-1,5.563867E-1,3.332752E-1,2.5126278E-1,3.414742E-1,3.3667016E-1,0E0,0E0,0E0,0E0,0E0,0E0,0E0,0E0],"parents":[2147483647,0,0,1,1,2,2,3,3,4,4,5,5,6,6],"right_children":[2,4,6,8,10,12,14,-1,-1,-1,-1,-1,-1,-1,-1],"split_conditions":[1.885E2,1.145E2,3.025E2,5E-1,1.5E0,5E-1,5.5E0,1.233952E-2,-1.4526944E-2,7.715538E-3,2.9276318E-3,4.491271E-3,9.597595E-5,-3.5591465E-3,1.1415378E-3],"split_indices":[1,1,1,12,25,41,43,0,0,0,0,0,0,0,0],"split_type":[0,0,0,0,0,0,0,0,0,0,0,0,0,0,0],"sum_hessian":[2.104E3,5.63E2,1.541E3,1.19E2,4.44E2,7.92E2,7.49E2,1.15E2,4E0,2.38E2,2.06E2,2.65E2,5.27E2,5.37E2,2.12E2],"tree_param":{"num_deleted":"0","num_feature":"69","num_nodes":"15","size_leaf_vector":"0"}},{"base_weights":[1.4466885E-2,6.0351726E-2,-2.6521478E-3,7.6509066E-2,2.530847E-2,1.4295467E-2,-2.2811433E-2,8.9374274E-2,-1.1011447E-2,3.475073E-2,-1.0011405E-1,2.287714E-2,-7.036951E-2,-1.3593931E-2,-7.385445E-2],"categories":[],"categories_nodes":[],"categories_segments":[],"categories_sizes":[],"default_left":[true,true,true,true,true,true,true,false,false,false,false,false,false,false,false],"id":11,"left_children":[1,3,5,7,9,11,13,-1,-1,-1,-1,-1,-1,-1,-1],"loss_changes":[1.653646E0,3.2193327E-1,5.2441996E-1,4.412384E-1,2.1901654E-1,6.0756683E-1,3.2880884E-1,0E0,0E0,0E0,0E0,0E0,0E0,0E0,0E0],"parents":[2147483647,0,0,1,1,2,2,3,3,4,4,5,5,6,6],"right_children":[2,4,6,8,10,12,14,-1,-1,-1,-1,-1,-1,-1,-1],"split_conditions":[1.895E2,5E-1,1.5E0,2.1833334E0,5E-1,1.05E1,5E-1,8.937428E-3,-1.1011447E-3,3.475073E-3,-1.0011405E-2,2.287714E-3,-7.0369514E-3,-1.3593931E-3,-7.385445E-3],"split_indices":[1,48,15,3,56,20,56,0,0,0,0,0,0,0,0],"split_type":[0,0,0,0,0,0,0,0,0,0,0,0,0,0,0],"sum_hessian":[2.104E3,5.71E2,1.533E3,3.9E2,1.81E2,8.33E2,7E2,3.4E2,5E1,1.69E2,1.2E1,7.57E2,7.6E1,5.94E2,1.06E2],"tree_param":{"num_deleted":"0","num_feature":"69","num_nodes":"15","size_leaf_vector":"0"}},{"base_weights":[1.3014413E-2,4.0193137E-2,-1.1107406E-2,6.0613964E-2,1.4424366E-2,-2.3030872E-2,3.2509208E-2,8.8646725E-2,3.924123E-2,4.405598E-2,-5.5726697E-3,-3.541424E-2,1.8258814E-2,7.094823E-2,-4.0220357E-3],"categories":[],"categories_nodes":[],"categories_segments":[],"categories_sizes":[],"default_left":[true,true,true,true,true,true,true,false,false,false,false,false,false,false,false],"id":12,"left_children":[1,3,5,7,9,11,13,-1,-1,-1,-1,-1,-1,-1,-1],"loss_changes":[1.3804849E0,5.2008295E-1,5.8113706E-1,3.27245E-1,2.6037252E-1,4.490615E-1,3.3729944E-1,0E0,0E0,0E0,0E0,0E0,0E0,0E0,0E0],"parents":[2147483647,0,0,1,1,2,2,3,3,4,4,5,5,6,6],"right_children":[2,4,6,8,10,12,14,-1,-1,-1,-1,-1,-1,-1,-1],"split_conditions":[2.475E2,1.8452381E0,5E-1,6.5E0,5E-1,1.5E0,3.555E2,8.864673E-3,3.924123E-3,4.405598E-3,-5.57267E-4,-3.5414242E-3,1.8258814E-3,7.094823E-3,-4.022036E-4],"split_indices":[1,3,14,2,15,36,1,0,0,0,0,0,0,0,0],"split_type":[0,0,0,0,0,0,0,0,0,0,0,0,0,0,0],"sum_hessian":[2.104E3,9.89E2,1.115E3,5.51E2,4.38E2,8.76E2,2.39E2,2.37E2,3.14E2,1.76E2,2.62E2,6.74E2,2.02E2,1.16E2,1.23E2],"tree_param":{"num_deleted":"0","num_feature":"69","num_nodes":"15","size_leaf_vector":"0"}},{"base_weights":[1.1723229E-2,2.9083177E-2,-1.9100979E-2,3.8319018E-2,-5.5508006E-2,-3.0552013E-2,3.0440196E-2,7.434867E-2,2.663335E-2,-1.15032075E-2,-1.0421964E-1,-2.445247E-2,-9.923177E-2,7.385768E-2,-1.104175E-2],"categories":[],"categories_nodes":[],"categories_segments":[],"categories_sizes":[],"default_left":[true,true,true,true,true,true,true,false,false,false,false,false,false,false,false],"id":13,"left_children":[1,3,5,7,9,11,13,-1,-1,-1,-1,-1,-1,-1,-1],"loss_changes":[1.126955E0,1.0544984E0,4.315089E-1,5.0957227E-1,2.838927E-1,2.560442E-1,2.583645E-1,0E0,0E0,0E0,0E0,0E0,0E0,0E0,0E0],"parents":[2147483647,0,0,1,1,2,2,3,3,4,4,5,5,6,6],"right_children":[2,4,6,8,10,12,14,-1,-1,-1,-1,-1,-1,-1,-1],"split_conditions":[5E-1,5E-1,5E-1,1.505E2,2.585E2,3.65E1,1.05E1,7.4348673E-3,2.663335E-3,-1.1503207E-3,-1.0421964E-2,-2.445247E-3,-9.923178E-3,7.385768E-3,-1.104175E-3],"split_indices":[57,56,14,1,1,0,2,0,0,0,0,0,0,0,0],"split_type":[0,0,0,0,0,0,0,0,0,0,0,0,0,0,0],"sum_hessian":[2.104E3,1.346E3,7.58E2,1.214E3,1.32E2,6.16E2,1.42E2,2.96E2,9.18E2,7E1,6.2E1,5.67E2,4.9E1,6.9E1,7.3E1],"tree_param":{"num_deleted":"0","num_feature":"69","num_nodes":"15","size_leaf_vector":"0"}},{"base_weights":[1.0547323E-2,3.3004947E-2,-9.384212E-3,4.1781507E-2,-1.3127785E-2,-1.9377876E-2,2.71734E-2,3.4923255E-2,1.1261013E-1,-8.8329636E-2,9.60064E-3,-3.0581051E-2,1.796952E-2,8.672404E-2,7.282727E-3],"categories":[],"categories_nodes":[],"categories_segments":[],"categories_sizes":[],"default_left":[true,true,true,true,true,true,true,false,false,false,false,false,false,false,false],"id":14,"left_children":[1,3,5,7,9,11,13,-1,-1,-1,-1,-1,-1,-1,-1],"loss_changes":[9.4253904E-1,4.0138626E-1,4.08251E-1,4.0022016E-1,2.7261394E-1,3.674946E-1,2.8364897E-1,0E0,0E0,0E0,0E0,0E0,0E0,0E0,0E0],"parents":[2147483647,0,0,1,1,2,2,3,3,4,4,5,5,6,6],"right_children":[2,4,6,8,10,12,14,-1,-1,-1,-1,-1,-1,-1,-1],"split_conditions":[2.475E2,5E-1,5E-1,5E-1,5E-1,1.5E0,6.5E0,3.4923255E-3,1.1261013E-2,-8.832964E-3,9.6006406E-4,-3.0581052E-3,1.7969521E-3,8.672404E-3,7.282727E-4],"split_indices":[1,57,14,18,53,36,20,0,0,0,0,0,0,0,0],"split_type":[0,0,0,0,0,0,0,0,0,0,0,0,0,0,0],"sum_hessian":[2.104E3,9.89E2,1.115E3,8.31E2,1.58E2,8.76E2,2.39E2,7.59E2,7.2E1,3.6E1,1.22E2,6.74E2,2.02E2,5.9E1,1.8E2],"tree_param":{"num_deleted":"0","num_feature":"69","num_nodes":"15","size_leaf_vector":"0"}},{"base_weights":[9.499725E-3,5.5336468E-2,1.1908256E-3,6.158796E-2,-5.4013133E-2,7.025797E-3,-3.7087675E-2,6.493656E-2,-1.5298535E-1,-8.952736E-2,1.5340047E-1,2.2136731E-2,-1.5028131E-2,-4.1263692E-2,1.6409689E-1],"categories":[],"categories_nodes":[],"categories_segments":[],"categories_sizes":[],"default_left":[true,true,true,true,true,true,true,false,false,false,false,false,false,false,false],"id":15,"left_children":[1,3,5,7,9,11,13,-1,-1,-1,-1,-1,-1,-1,-1],"loss_changes":[8.016294E-1,2.2412872E-1,3.985007E-1,2.2980177E-1,1.4632395E-1,5.1621217E-1,2.050465E-1,0E0,0E0,0E0,0E0,0E0,0E0,0E0,0E0],"parents":[2147483647,0,0,1,1,2,2,3,3,4,4,5,5,6,6],"right_children":[2,4,6,8,10,12,14,-1,-1,-1,-1,-1,-1,-1,-1],"split_conditions":[1.505E2,5E-1,5E-1,2.5E0,2.5E0,5E-1,3.5E0,6.4936564E-3,-1.5298535E-2,-8.952736E-3,1.5340047E-2,2.2136732E-3,-1.5028132E-3,-4.1263695E-3,1.640969E-2],"split_indices":[1,8,56,15,48,57,36,0,0,0,0,0,0,0,0],"split_type":[0,0,0,0,0,0,0,0,0,0,0,0,0,0,0],"sum_hessian":[2.104E3,3.22E2,1.782E3,3.05E2,1.7E1,1.547E3,2.35E2,3.01E2,4E0,1.5E1,2E0,9.18E2,6.29E2,2.31E2,4E0],"tree_param":{"num_deleted":"0","num_feature":"69","num_nodes":"15","size_leaf_vector":"0"}},{"base_weights":[8.5547855E-3,2.3631122E-2,-1.3212637E-2,3.1650532E-2,-2.2739673E-2,-2.4617498E-3,-4.309685E-2,2.52276E-2,8.695036E-2,-3.0098591E-2,6.8768516E-2,1.2449281E-3,-1.3728362E-1,-5.716262E-2,3.8842026E-2],"categories":[],"categories_nodes":[],"categories_segments":[],"categories_sizes":[],"default_left":[true,true,true,true,true,true,true,false,false,false,false,false,false,false,false],"id":16,"left_children":[1,3,5,7,9,11,13,-1,-1,-1,-1,-1,-1,-1,-1],"loss_changes":[6.9111633E-1,4.6332175E-1,2.768388E-1,3.746599E-1,1.2597565E-1,3.1750664E-1,2.649979E-1,0E0,0E0,0E0,0E0,0E0,0E0,0E0,0E0],"parents":[2147483647,0,0,1,1,2,2,3,3,4,4,5,5,6,6],"right_children":[2,4,6,8,10,12,14,-1,-1,-1,-1,-1,-1,-1,-1],"split_conditions":[2.1909091E0,1.25E1,1.5E0,5E-1,6.5E0,5E-1,5E-1,2.52276E-3,8.695036E-3,-3.0098592E-3,6.876852E-3,1.2449281E-4,-1.37283625E-2,-5.716262E-3,3.8842026E-3],"split_indices":[3,2,48,18,68,60,8,0,0,0,0,0,0,0,0],"split_type":[0,0,0,0,0,0,0,0,0,0,0,0,0,0,0],"sum_hessian":[2.104E3,1.243E3,8.61E2,1.06E3,1.83E2,6.34E2,2.27E2,9.51E2,1.09E2,1.7E2,1.3E1,6.18E2,1.6E1,1.94E2,3.3E1],"tree_param":{"num_deleted":"0","num_feature":"69","num_nodes":"15","size_leaf_vector":"0"}},{"base_weights":[7.699136E-3,4.716882E-2,5.446737E-4,5.3562853E-2,-4.7334105E-2,6.380736E-3,-3.4133192E-2,5.6658763E-2,-1.4228508E-1,-1.1997354E-1,4.4566635E-2,1.9947896E-2,-1.1471803E-2,6.504385E-2,-4.752683E-2],"categories":[],"categories_nodes":[],"categories_segments":[],"categories_sizes":[],"default_left":[true,true,true,true,true,true,true,false,false,false,false,false,false,false,false],"id":17,"left_children":[1,3,5,7,9,11,13,-1,-1,-1,-1,-1,-1,-1,-1],"loss_changes":[5.943935E-1,1.9770974E-1,3.6106527E-1,1.9177884E-1,1.455348E-1,3.7008086E-1,3.4447494E-1,0E0,0E0,0E0,0E0,0E0,0E0,0E0,0E0],"parents":[2147483647,0,0,1,1,2,2,3,3,4,4,5,5,6,6],"right_children":[2,4,6,8,10,12,14,-1,-1,-1,-1,-1,-1,-1,-1],"split_conditions":[1.505E2,5E-1,2.5E0,2.5E0,1.6333333E0,5E-1,4.5E0,5.6658764E-3,-1.4228508E-2,-1.1997354E-2,4.4566635E-3,1.9947896E-3,-1.1471803E-3,6.5043853E-3,-4.752683E-3],"split_indices":[1,46,41,15,3,48,20,0,0,0,0,0,0,0,0],"split_type":[0,0,0,0,0,0,0,0,0,0,0,0,0,0,0],"sum_hessian":[2.104E3,3.22E2,1.782E3,3.02E2,2E1,1.526E3,2.56E2,2.98E2,4E0,1.1E1,9E0,8.67E2,6.59E2,3E1,2.26E2],"tree_param":{"num_deleted":"0","num_feature":"69","num_nodes":"15","size_leaf_vector":"0"}},{"base_weights":[6.922802E-3,1.9577611E-2,-1.2233786E-2,3.5599332E-2,2.0719173E-3,4.5699864E-3,-2.7013266E-2,4.030767E-2,-1.032027E-1,-8.606269E-3,5.9712313E-2,1.8947214E-2,-5.4678734E-2,-3.8836647E-2,9.019787E-3],"categories":[],"categories_nodes":[],"categories_segments":[],"categories_sizes":[],"default_left":[true,true,true,true,true,true,true,false,false,false,false,false,false,false,false],"id":18,"left_children":[1,3,5,7,9,11,13,-1,-1,-1,-1,-1,-1,-1,-1],"loss_changes":[5.105398E-1,3.555639E-1,2.0824161E-1,4.367947E-1,3.7411925E-1,3.3580613E-1,1.9036081E-1,0E0,0E0,0E0,0E0,0E0,0E0,0E0,0E0],"parents":[2147483647,0,0,1,1,2,2,3,3,4,4,5,5,6,6],"right_children":[2,4,6,8,10,12,14,-1,-1,-1,-1,-1,-1,-1,-1],"split_conditions":[6.5E0,1.8819444E0,1.5E0,5E-1,5E-1,1.05E1,5.5E0,4.0307674E-3,-1.032027E-2,-8.606269E-4,5.9712315E-3,1.8947214E-3,-5.4678735E-3,-3.8836647E-3,9.0197875E-4],"split_indices":[20,3,15,33,21,20,43,0,0,0,0,0,0,0,0],"split_type":[0,0,0,0,0,0,0,0,0,0,0,0,0,0,0],"sum_hessian":[2.104E3,1.267E3,8.37E2,6.61E2,6.06E2,3.92E2,4.45E2,6.4E2,2.1E1,5.12E2,9.4E1,3.16E2,7.6E1,3.35E2,1.1E2],"tree_param":{"num_deleted":"0","num_feature":"69","num_nodes":"15","size_leaf_vector":"0"}},{"base_weights":[6.2268497E-3,1.1541844E-2,-3.3617858E-2,2.4171961E-2,-1.2304636E-2,-4.250565E-2,6.447906E-2,2.9678673E-2,-2.4517557E-2,-2.2823242E-2,3.2888286E-2,-4.669444E-2,1.5365312E-1,1.6371182E-1,-4.0615425E-2],"categories":[],"categories_nodes":[],"categories_segments":[],"categories_sizes":[],"default_left":[true,true,true,true,true,true,true,false,false,false,false,false,false,false,false],"id":19,"left_children":[1,3,5,7,9,11,13,-1,-1,-1,-1,-1,-1,-1,-1],"loss_changes":[4.4617313E-1,5.5989695E-1,2.1896338E-1,3.2649243E-1,3.0688673E-1,1.9451484E-1,2.2565435E-1,0E0,0E0,0E0,0E0,0E0,0E0,0E0,0E0],"parents":[2147483647,0,0,1,1,2,2,3,3,4,4,5,5,6,6],"right_children":[2,4,6,8,10,12,14,-1,-1,-1,-1,-1,-1,-1,-1],"split_conditions":[5E-1,5E-1,5E-1,2.5E0,5E-1,3.5E0,2.65E1,2.9678673E-3,-2.4517558E-3,-2.2823242E-3,3.2888285E-3,-4.669444E-3,1.5365312E-2,1.6371181E-2,-4.0615425E-3],"split_indices":[56,57,46,62,14,36,0,0,0,0,0,0,0,0,0],"split_type":[0,0,0,0,0,0,0,0,0,0,0,0,0,0,0],"sum_hessian":[2.104E3,1.857E3,2.47E2,1.214E3,6.43E2,2.27E2,2E1,1.091E3,1.23E2,5.22E2,1.21E2,2.23E2,4E0,1E1,1E1],"tree_param":{"num_deleted":"0","num_feature":"69","num_nodes":"15","size_leaf_vector":"0"}},{"base_weights":[5.6158053E-3,1.07163405E-2,-3.030405E-2,2.3751952E-2,-8.159745E-3,-3.6553204E-2,1.3082996E-1,3.438983E-2,-9.370756E-3,-4.4171927E-3,-8.979498E-2,3.982806E-2,-4.899895E-2,2.6632044E-1,3.471684E-2],"categories":[],"categories_nodes":[],"categories_segments":[],"categories_sizes":[],"default_left":[true,true,true,true,true,true,true,false,false,false,false,false,false,false,false],"id":20,"left_children":[1,3,5,7,9,11,13,-1,-1,-1,-1,-1,-1,-1,-1],"loss_changes":[3.859828E-1,4.539308E-1,2.6860353E-1,3.847419E-1,2.2996855E-1,2.4245882E-1,1.2097831E-1,0E0,0E0,0E0,0E0,0E0,0E0,0E0,0E0],"parents":[2147483647,0,0,1,1,2,2,3,3,4,4,5,5,6,6],"right_children":[2,4,6,8,10,12,14,-1,-1,-1,-1,-1,-1,-1,-1],"split_conditions":[2.5E0,5E-1,2.5E0,3.5E0,5E-1,4.5E0,2.5E0,3.438983E-3,-9.3707565E-4,-4.4171928E-4,-8.979498E-3,3.982806E-3,-4.899895E-3,2.6632044E-2,3.4716842E-3],"split_indices":[41,48,59,25,54,20,45,0,0,0,0,0,0,0,0],"split_type":[0,0,0,0,0,0,0,0,0,0,0,0,0,0,0],"sum_hessian":[2.104E3,1.843E3,2.61E2,1.09E3,7.53E2,2.52E2,9E0,8.25E2,2.65E2,7.21E2,3.2E1,3.5E1,2.17E2,3E0,6E0],"tree_param":{"num_deleted":"0","num_feature":"69","num_nodes":"15","size_leaf_vector":"0"}},{"base_weights":[5.0648004E-3,9.700938E-3,-2.9689271E-2,2.0555887E-2,-1.07935695E-2,-3.786486E-2,6.0488027E-2,2.5377339E-2,-2.2069773E-2,-2.01901E-2,2.9576749E-2,-4.172861E-2,1.4280403E-1,1.8214008E-1,-1.3348005E-2],"categories":[],"categories_nodes":[],"categories_segments":[],"categories_sizes":[],"default_left":[true,true,true,true,true,true,true,false,false,false,false,false,false,false,false],"id":21,"left_children":[1,3,5,7,9,11,13,-1,-1,-1,-1,-1,-1,-1,-1],"loss_changes":[3.394555E-1,4.1356528E-1,1.8512896E-1,2.5026393E-1,2.4489272E-1,1.6511649E-1,1.9105959E-1,0E0,0E0,0E0,0E0,0E0,0E0,0E0,0E0],"parents":[2147483647,0,0,1,1,2,2,3,3,4,4,5,5,6,6],"right_children":[2,4,6,8,10,12,14,-1,-1,-1,-1,-1,-1,-1,-1],"split_conditions":[5E-1,5E-1,5E-1,2.5E0,5E-1,3.5E0,3.335E2,2.5377339E-3,-2.2069772E-3,-2.01901E-3,2.957675E-3,-4.172861E-3,1.4280403E-2,1.8214008E-2,-1.3348005E-3],"split_indices":[56,57,46,62,14,36,1,0,0,0,0,0,0,0,0],"split_type":[0,0,0,0,0,0,0,0,0,0,0,0,0,0,0],"sum_hessian":[2.104E3,1.857E3,2.47E2,1.214E3,6.43E2,2.27E2,2E1,1.091E3,1.23E2,5.22E2,1.21E2,2.23E2,4E0,7E0,1.3E1],"tree_param":{"num_deleted":"0","num_feature":"69","num_nodes":"15","size_leaf_vector":"0"}},{"base_weights":[4.571747E-3,1.3877183E-2,-1.0810249E-2,1.8815037E-2,-3.8178638E-2,-9.088181E-3,-1.4491151E-1,1.2208003E-2,5.3619657E-2,1.3544781E-2,-6.2224634E-2,1.6383847E-2,-1.866331E-2,-2.1567653E-1,9.209906E-2],"categories":[],"categories_nodes":[],"categories_segments":[],"categories_sizes":[],"default_left":[true,true,true,true,true,true,true,false,false,false,false,false,false,false,false],"id":22,"left_children":[1,3,5,7,9,11,13,-1,-1,-1,-1,-1,-1,-1,-1],"loss_changes":[3.0145165E-1,3.3796006E-1,1.8204254E-1,2.750618E-1,1.4262933E-1,1.9176567E-1,1.8758419E-1,0E0,0E0,0E0,0E0,0E0,0E0,0E0,0E0],"parents":[2147483647,0,0,1,1,2,2,3,3,4,4,5,5,6,6],"right_children":[2,4,6,8,10,12,14,-1,-1,-1,-1,-1,-1,-1,-1],"split_conditions":[1.5E0,2.5E0,5E-1,1.5E0,7.5E0,2.425E2,3E1,1.2208003E-3,5.361966E-3,1.3544782E-3,-6.2224637E-3,1.6383848E-3,-1.866331E-3,-2.1567654E-2,9.209907E-3],"split_indices":[15,41,23,36,2,1,0,0,0,0,0,0,0,0,0],"split_type":[0,0,0,0,0,0,0,0,0,0,0,0,0,0,0],"sum_hessian":[2.104E3,1.311E3,7.93E2,1.198E3,1.13E2,7.84E2,9E0,1.008E3,1.9E2,3.6E1,7.7E1,2.14E2,5.7E2,7E0,2E0],"tree_param":{"num_deleted":"0","num_feature":"69","num_nodes":"15","size_leaf_vector":"0"}},{"base_weights":[4.1094E-3,3.1290013E-2,-8.168183E-4,2.4757734E-2,1.2901616E-1,2.0647459E-3,-4.1127637E-2,3.4792732E-2,-2.8175281E-2,1.6774221E-1,-6.78236E-2,-8.160962E-3,1.9536542E-2,6.319343E-2,-5.6781575E-2],"categories":[],"categories_nodes":[],"categories_segments":[],"categories_sizes":[],"default_left":[true,true,true,true,true,true,true,false,false,false,false,false,false,false,false],"id":23,"left_children":[1,3,5,7,9,11,13,-1,-1,-1,-1,-1,-1,-1,-1],"loss_changes":[2.8188005E-1,2.0300081E-1,2.0719501E-1,1.6245987E-1,1.6383341E-1,2.976308E-1,1.9791946E-1,0E0,0E0,0E0,0E0,0E0,0E0,0E0,0E0],"parents":[2147483647,0,0,1,1,2,2,3,3,4,4,5,5,6,6],"right_children":[2,4,6,8,10,12,14,-1,-1,-1,-1,-1,-1,-1,-1],"split_conditions":[1.505E2,1.485E2,1.45E1,5E-1,5E-1,3.5E0,5E-1,3.4792733E-3,-2.817528E-3,1.677422E-2,-6.78236E-3,-8.160962E-4,1.9536542E-3,6.3193436E-3,-5.678158E-3],"split_indices":[1,1,2,61,56,43,62,0,0,0,0,0,0,0,0],"split_type":[0,0,0,0,0,0,0,0,0,0,0,0,0,0,0],"sum_hessian":[2.104E3,3.22E2,1.782E3,3.03E2,1.9E1,1.664E3,1.18E2,2.55E2,4.8E1,1.6E1,3E0,1.05E3,6.14E2,1.5E1,1.03E2],"tree_param":{"num_deleted":"0","num_feature":"69","num_nodes":"15","size_leaf_vector":"0"}},{"base_weights":[3.704365E-3,7.740621E-3,-2.6549939E-2,1.1924235E-2,-3.6131814E-2,-3.3966538E-2,5.52374E-2,2.48853E-2,-8.688671E-4,-7.117211E-2,2.4622891E-2,-3.7471835E-2,1.2986419E-1,1.3852741E-1,-3.3074196E-2],"categories":[],"categories_nodes":[],"categories_segments":[],"categories_sizes":[],"default_left":[true,true,true,true,true,true,true,false,false,false,false,false,false,false,false],"id":24,"left_children":[1,3,5,7,9,11,13,-1,-1,-1,-1,-1,-1,-1,-1],"loss_changes":[2.572557E-1,3.414581E-1,1.5230899E-1,2.8140497E-1,3.466282E-1,1.3580114E-1,1.5904664E-1,0E0,0E0,0E0,0E0,0E0,0E0,0E0,0E0],"parents":[2147483647,0,0,1,1,2,2,3,3,4,4,5,5,6,6],"right_children":[2,4,6,8,10,12,14,-1,-1,-1,-1,-1,-1,-1,-1],"split_conditions":[5E-1,5E-1,5E-1,5.5E0,5E-1,3.5E0,2.65E1,2.48853E-3,-8.6886714E-5,-7.1172114E-3,2.462289E-3,-3.7471836E-3,1.2986419E-2,1.3852741E-2,-3.3074196E-3],"split_indices":[56,46,46,20,8,36,0,0,0,0,0,0,0,0,0],"split_type":[0,0,0,0,0,0,0,0,0,0,0,0,0,0,0],"sum_hessian":[2.104E3,1.857E3,2.47E2,1.696E3,1.61E2,2.27E2,2E1,8.42E2,8.54E2,1.02E2,5.9E1,2.23E2,4E0,1E1,1E1],"tree_param":{"num_deleted":"0","num_feature":"69","num_nodes":"15","size_leaf_vector":"0"}},{"base_weights":[3.342249E-3,1.1954242E-2,-9.337072E-3,2.0468364E-2,-3.6431506E-2,-1.0482778E-2,2.3617324E-1,-2.0821491E-1,2.1524757E-2,-8.0987245E-2,-1.1090834E-2,7.056467E-2,-1.2824977E-2,2.8095725E-1,5.0910622E-2],"categories":[],"categories_nodes":[],"categories_segments":[],"categories_sizes":[],"default_left":[true,true,true,true,true,true,true,false,false,false,false,false,false,false,false],"id":25,"left_children":[1,3,5,7,9,11,13,-1,-1,-1,-1,-1,-1,-1,-1],"loss_changes":[2.2996546E-1,5.173462E-1,2.4212852E-1,2.6224753E-1,2.1136738E-1,1.6206998E-1,1.8883511E-2,0E0,0E0,0E0,0E0,0E0,0E0,0E0,0E0],"parents":[2147483647,0,0,1,1,2,2,3,3,4,4,5,5,6,6],"right_children":[2,4,6,8,10,12,14,-1,-1,-1,-1,-1,-1,-1,-1],"split_conditions":[5E-1,4.5E0,1.5E0,5E-1,5E-1,4.5E0,4.5E1,-2.0821491E-2,2.1524758E-3,-8.098724E-3,-1.1090834E-3,7.0564672E-3,-1.2824977E-3,2.8095726E-2,5.0910623E-3],"split_indices":[48,25,9,43,68,2,0,0,0,0,0,0,0,0,0],"split_type":[0,0,0,0,0,0,0,0,0,0,0,0,0,0,0],"sum_hessian":[2.104E3,1.253E3,8.51E2,1.066E3,1.87E2,8.48E2,3E0,4E0,1.062E3,6.7E1,1.2E2,2.3E1,8.25E2,2E0,1E0],"tree_param":{"num_deleted":"0","num_feature":"69","num_nodes":"15","size_leaf_vector":"0"}},{"base_weights":[3.0132795E-3,6.726893E-3,-2.313526E-2,1.642227E-2,-7.3107486E-3,-2.9018449E-2,1.2802298E-1,2.4210704E-2,-1.3163827E-2,-3.9949515E-3,-7.963483E-2,3.3706654E-2,-3.9243612E-2,2.084772E-1,5.8733164E-3],"categories":[],"categories_nodes":[],"categories_segments":[],"categories_sizes":[],"default_left":[true,true,true,true,true,true,true,false,false,false,false,false,false,false,false],"id":26,"left_children":[1,3,5,7,9,11,13,-1,-1,-1,-1,-1,-1,-1,-1],"loss_changes":[2.0456286E-1,2.510889E-1,2.367097E-1,2.5171718E-1,1.805001E-1,1.6359046E-1,9.7050086E-2,0E0,0E0,0E0,0E0,0E0,0E0,0E0,0E0],"parents":[2147483647,0,0,1,1,2,2,3,3,4,4,5,5,6,6],"right_children":[2,4,6,8,10,12,14,-1,-1,-1,-1,-1,-1,-1,-1],"split_conditions":[2.5E0,5E-1,2.5E0,5E-1,5E-1,4.5E0,5E-1,2.4210706E-3,-1.3163828E-3,-3.9949515E-4,-7.963483E-3,3.3706655E-3,-3.9243614E-3,2.0847721E-2,5.8733165E-4],"split_indices":[41,48,59,61,54,20,21,0,0,0,0,0,0,0,0],"split_type":[0,0,0,0,0,0,0,0,0,0,0,0,0,0,0],"sum_hessian":[2.104E3,1.843E3,2.61E2,1.09E3,7.53E2,2.52E2,9E0,8.63E2,2.27E2,7.21E2,3.2E1,3.5E1,2.17E2,5E0,4E0],"tree_param":{"num_deleted":"0","num_feature":"69","num_nodes":"15","size_leaf_vector":"0"}},{"base_weights":[2.7184146E-3,3.6467393E-3,-9.424177E-2,1.9509159E-3,5.634379E-2,-1.3500957E-1,1.0258181E-1,3.2788452E-3,-8.633289E-2,7.239547E-2,-1.507555E-1,-1.6658393E-1,-2.5914297E-2,1.4452761E-1,-1.1627808E-2],"categories":[],"categories_nodes":[],"categories_segments":[],"categories_sizes":[],"default_left":[true,true,true,true,true,true,true,false,false,false,false,false,false,false,false],"id":27,"left_children":[1,3,5,7,9,11,13,-1,-1,-1,-1,-1,-1,-1,-1],"loss_changes":[1.8981583E-1,1.8630525E-1,1.743308E-1,2.3733155E-1,2.2699296E-1,5.4241538E-2,2.0843E-2,0E0,0E0,0E0,0E0,0E0,0E0,0E0,0E0],"parents":[2147483647,0,0,1,1,2,2,3,3,4,4,5,5,6,6],"right_children":[2,4,6,8,10,12,14,-1,-1,-1,-1,-1,-1,-1,-1],"split_conditions":[5.5E0,1.5E0,4.5E0,5E-1,2.5E0,1.5E0,5.03125E0,3.2788454E-4,-8.633289E-3,7.2395476E-3,-1.50755495E-2,-1.6658394E-2,-2.5914297E-3,1.4452762E-2,-1.1627808E-3],"split_indices":[41,21,45,60,57,59,3,0,0,0,0,0,0,0,0],"split_type":[0,0,0,0,0,0,0,0,0,0,0,0,0,0,0],"sum_hessian":[2.104E3,2.085E3,1.9E1,2.021E3,6.4E1,1.6E1,3E0,1.992E3,2.9E1,6E1,4E0,1.2E1,4E0,2E0,1E0],"tree_param":{"num_deleted":"0","num_feature":"69","num_nodes":"15","size_leaf_vector":"0"}},{"base_weights":[2.4360737E-3,4.726948E-3,-3.583623E-2,-2.6616702E-4,2.83263E-2,5.794578E-2,-4.991965E-2,6.6569797E-3,-2.931625E-2,4.4308964E-2,-5.7332728E-2,-6.332557E-2,1.3704115E-1,-9.787112E-2,-1.0201746E-2],"categories":[],"categories_nodes":[],"categories_segments":[],"categories_sizes":[],"default_left":[true,true,true,true,true,true,true,false,false,false,false,false,false,false,false],"id":28,"left_children":[1,3,5,7,9,11,13,-1,-1,-1,-1,-1,-1,-1,-1],"loss_changes":[1.8472958E-1,2.3414429E-1,1.6006447E-1,3.3022976E-1,4.7760397E-1,1.6215025E-1,1.9707283E-1,0E0,0E0,0E0,0E0,0E0,0E0,0E0,0E0],"parents":[2147483647,0,0,1,1,2,2,3,3,4,4,5,5,6,6],"right_children":[2,4,6,8,10,12,14,-1,-1,-1,-1,-1,-1,-1,-1],"split_conditions":[1.45E1,1.5E0,5E-1,2.6961539E0,1.5E0,5E-1,2.5E0,6.6569797E-4,-2.9316251E-3,4.4308966E-3,-5.733273E-3,-6.332557E-3,1.37041155E-2,-9.787112E-3,-1.0201746E-3],"split_indices":[2,36,62,3,59,17,68,0,0,0,0,0,0,0,0],"split_type":[0,0,0,0,0,0,0,0,0,0,0,0,0,0,0],"sum_hessian":[2.104E3,1.986E3,1.18E2,1.64E3,3.46E2,1.5E1,1.03E2,1.325E3,3.15E2,2.92E2,5.4E1,6E0,9E0,4.6E1,5.7E1],"tree_param":{"num_deleted":"0","num_feature":"69","num_nodes":"15","size_leaf_vector":"0"}},{"base_weights":[2.1891273E-3,3.945266E-2,-6.3548156E-5,4.87157E-2,-1.8334039E-1,8.882366E-4,-8.1334926E-2,6.3590094E-2,-6.4197026E-2,-2.0993191E-1,-3.8487136E-2,-3.6022675E-3,1.9314492E-2,-1.8253934E-1,-3.2364216E-3],"categories":[],"categories_nodes":[],"categories_segments":[],"categories_sizes":[],"default_left":[true,true,true,true,true,true,true,false,false,false,false,false,false,false,false],"id":29,"left_children":[1,3,5,7,9,11,13,-1,-1,-1,-1,-1,-1,-1,-1],"loss_changes":[1.7670177E-1,2.5658044E-1,1.5369503E-1,1.9890526E-1,1.1179656E-2,1.6257717E-1,1.8119922E-1,0E0,0E0,0E0,0E0,0E0,0E0,0E0,0E0],"parents":[2147483647,0,0,1,1,2,2,3,3,4,4,5,5,6,6],"right_children":[2,4,6,8,10,12,14,-1,-1,-1,-1,-1,-1,-1,-1],"split_conditions":[1.145E2,5E-1,5E-1,5E-1,5E-1,1.5E0,2.5E0,6.3590095E-3,-6.419703E-3,-2.0993192E-2,-3.8487136E-3,-3.6022675E-4,1.9314493E-3,-1.8253936E-2,-3.2364216E-4],"split_indices":[1,12,23,21,62,36,25,0,0,0,0,0,0,0,0],"split_type":[0,0,0,0,0,0,0,0,0,0,0,0,0,0,0],"sum_hessian":[2.104E3,1.19E2,1.985E3,1.15E2,4E0,1.963E3,2.2E1,1.02E2,1.3E1,3E0,1E0,1.579E3,3.84E2,9E0,1.3E1],"tree_param":{"num_deleted":"0","num_feature":"69","num_nodes":"15","size_leaf_vector":"0"}},{"base_weights":[1.9503174E-3,8.796529E-3,-9.364771E-3,2.6364924E-2,-3.1441536E-3,-7.7249873E-3,-1.1558023E-1,3.50504E-2,-3.7559576E-2,6.0975407E-3,-3.0067973E-2,-1.0275121E-2,6.140451E-2,-1.539933E-1,-2.5578588E-4],"categories":[],"categories_nodes":[],"categories_segments":[],"categories_sizes":[],"default_left":[true,true,true,true,true,true,true,false,false,false,false,false,false,false,false],"id":30,"left_children":[1,3,5,7,9,11,13,-1,-1,-1,-1,-1,-1,-1,-1],"loss_changes":[1.6314724E-1,2.7531248E-1,1.3739839E-1,2.9613551E-1,1.9476192E-1,1.3866559E-1,5.3120196E-2,0E0,0E0,0E0,0E0,0E0,0E0,0E0,0E0],"parents":[2147483647,0,0,1,1,2,2,3,3,4,4,5,5,6,6],"right_children":[2,4,6,8,10,12,14,-1,-1,-1,-1,-1,-1,-1,-1],"split_conditions":[1.5E0,5E-1,9.5E0,5E-1,5E-1,1.5E0,1.5E0,3.50504E-3,-3.7559576E-3,6.0975406E-4,-3.0067973E-3,-1.0275121E-3,6.1404514E-3,-1.5399329E-2,-2.5578589E-5],"split_indices":[15,41,25,61,40,21,36,0,0,0,0,0,0,0,0],"split_type":[0,0,0,0,0,0,0,0,0,0,0,0,0,0,0],"sum_hessian":[2.104E3,1.311E3,7.93E2,5.3E2,7.81E2,7.82E2,1.1E1,4.67E2,6.3E1,5.82E2,1.99E2,7.55E2,2.7E1,8E0,3E0],"tree_param":{"num_deleted":"0","num_feature":"69","num_nodes":"15","size_leaf_vector":"0"}},{"base_weights":[1.749132E-3,5.7136077E-3,-1.754805E-2,-1.8680108E-1,6.4843656E-3,-2.9640878E-2,3.4638036E-2,-2.0362553E-1,-4.292716E-2,7.4733994E-3,-1.0061295E-1,-6.356515E-2,-1.516975E-2,1.1643672E-1,2.8617776E-3],"categories":[],"categories_nodes":[],"categories_segments":[],"categories_sizes":[],"default_left":[true,true,true,true,true,true,true,false,false,false,false,false,false,false,false],"id":31,"left_children":[1,3,5,7,9,11,13,-1,-1,-1,-1,-1,-1,-1,-1],"loss_changes":[1.6113952E-1,2.6043496E-1,2.275835E-1,8.203134E-3,1.8516369E-1,1.4238513E-1,1.7641619E-1,0E0,0E0,0E0,0E0,0E0,0E0,0E0,0E0],"parents":[2147483647,0,0,1,1,2,2,3,3,4,4,5,5,6,6],"right_children":[2,4,6,8,10,12,14,-1,-1,-1,-1,-1,-1,-1,-1],"split_conditions":[1.5E0,5E-1,5E-1,5E-1,9.5E0,1.5E0,5E-1,-2.0362554E-2,-4.2927163E-3,7.4734E-4,-1.0061296E-2,-6.356515E-3,-1.516975E-3,1.1643672E-2,2.8617776E-4],"split_indices":[48,43,8,9,25,53,68,0,0,0,0,0,0,0,0],"split_type":[0,0,0,0,0,0,0,0,0,0,0,0,0,0,0],"sum_hessian":[2.104E3,1.746E3,3.58E2,6E0,1.74E3,2.91E2,6.7E1,5E0,1E0,1.725E3,1.5E1,8.6E1,2.05E2,1.8E1,4.9E1],"tree_param":{"num_deleted":"0","num_feature":"69","num_nodes":"15","size_leaf_vector":"0"}},{"base_weights":[1.5600153E-3,4.6231654E-3,-2.1395197E-2,8.092997E-3,-3.1752933E-2,-2.819338E-2,5.3432476E-2,1.1677179E-2,-2.126354E-2,-6.0685273E-2,1.8443467E-2,-3.1363837E-2,1.194818E-1,8.928439E-2,-1.21259235E-1],"categories":[],"categories_nodes":[],"categories_segments":[],"categories_sizes":[],"default_left":[true,true,true,true,true,true,true,false,false,false,false,false,false,false,false],"id":32,"left_children":[1,3,5,7,9,11,13,-1,-1,-1,-1,-1,-1,-1,-1],"loss_changes":[1.4811254E-1,2.3477179E-1,1.2766212E-1,1.788052E-1,2.3639175E-1,1.10496536E-1,1.4235021E-1,0E0,0E0,0E0,0E0,0E0,0E0,0E0,0E0],"parents":[2147483647,0,0,1,1,2,2,3,3,4,4,5,5,6,6],"right_children":[2,4,6,8,10,12,14,-1,-1,-1,-1,-1,-1,-1,-1],"split_conditions":[5E-1,5E-1,5E-1,4.215E2,5E-1,3.5E0,3.5E0,1.1677179E-3,-2.126354E-3,-6.0685272E-3,1.8443468E-3,-3.1363838E-3,1.194818E-2,8.92844E-3,-1.2125923E-2],"split_indices":[56,46,46,1,8,36,15,0,0,0,0,0,0,0,0],"split_type":[0,0,0,0,0,0,0,0,0,0,0,0,0,0,0],"sum_hessian":[2.104E3,1.857E3,2.47E2,1.696E3,1.61E2,2.27E2,2E1,1.512E3,1.84E2,1.02E2,5.9E1,2.23E2,4E0,1.7E1,3E0],"tree_param":{"num_deleted":"0","num_feature":"69","num_nodes":"15","size_leaf_vector":"0"}},{"base_weights":[1.4042231E-3,1.6555744E-3,-2.6371944E-1,-1.4698915E-3,2.483991E-2,1.8542104E-3,-2.6834456E-2,7.966249E-2,4.7423407E-3],"categories":[],"categories_nodes":[],"categories_segments":[],"categories_sizes":[],"default_left":[true,true,false,true,true,false,false,false,false],"id":33,"left_children":[1,3,-1,5,7,-1,-1,-1,-1],"loss_changes":[1.4071207E-1,1.5249623E-1,0E0,1.5645297E-1,2.7507234E-1,0E0,0E0,0E0,0E0],"parents":[2147483647,0,0,1,1,3,3,4,4],"right_children":[2,4,-1,6,8,-1,-1,-1,-1],"split_conditions":[5E-1,5E-1,-2.6371945E-2,5E-1,5E-1,1.8542104E-4,-2.6834456E-3,7.966249E-3,4.7423408E-4],"split_indices":[47,18,0,56,41,0,0,0,0],"split_type":[0,0,0,0,0,0,0,0,0],"sum_hessian":[2.104E3,2.103E3,1E0,1.854E3,2.49E2,1.64E3,2.14E2,6.6E1,1.83E2],"tree_param":{"num_deleted":"0","num_feature":"69","num_nodes":"9","size_leaf_vector":"0"}},{"base_weights":[1.254089E-3,1.7173649E-3,-1.3784166E-1,3.7025947E-3,-3.1345304E-2,3.11943E-2,-1.7121337E-1,-7.685674E-4,2.4981841E-2,5.3284355E-2,-4.4063855E-2,-1.855552E-1,-4.97521E-2],"categories":[],"categories_nodes":[],"categories_segments":[],"categories_sizes":[],"default_left":[true,true,true,true,true,false,true,false,false,false,false,false,false],"id":34,"left_children":[1,3,5,7,9,-1,11,-1,-1,-1,-1,-1,-1],"loss_changes":[1.3588232E-1,1.378881E-1,4.4828013E-2,1.884974E-1,1.3043553E-1,0E0,1.2201071E-3,0E0,0E0,0E0,0E0,0E0,0E0],"parents":[2147483647,0,0,1,1,2,2,3,3,4,4,6,6],"right_children":[2,4,6,8,10,-1,12,-1,-1,-1,-1,-1,-1],"split_conditions":[5E-1,1.45E1,1.45E1,1.5E0,5E-1,3.11943E-3,2.9E1,-7.685674E-5,2.498184E-3,5.3284355E-3,-4.4063856E-3,-1.855552E-2,-4.9752104E-3],"split_indices":[64,2,0,36,62,0,0,0,0,0,0,0,0],"split_type":[0,0,0,0,0,0,0,0,0,0,0,0,0],"sum_hessian":[2.104E3,2.098E3,6E0,1.98E3,1.18E2,1E0,5E0,1.637E3,3.43E2,1.5E1,1.03E2,4E0,1E0],"tree_param":{"num_deleted":"0","num_feature":"69","num_nodes":"13","size_leaf_vector":"0"}},{"base_weights":[1.1205572E-3,1.8968947E-3,-7.990747E-2,4.7444185E-4,4.6116933E-2,-1.1638281E-1,9.508959E-2,1.6412481E-3,-7.705621E-2,-5.369959E-2,7.713588E-2,-1.5374361E-1,-2.2264076E-2,1.636108E-1,1.7712256E-2],"categories":[],"categories_nodes":[],"categories_segments":[],"categories_sizes":[],"default_left":[true,true,true,true,true,true,true,false,false,false,false,false,false,false,false],"id":35,"left_children":[1,3,5,7,9,11,13,-1,-1,-1,-1,-1,-1,-1,-1],"loss_changes":[1.325668E-1,1.3118944E-1,1.3872834E-1,1.8304315E-1,2.0539543E-1,5.6355E-2,1.831004E-2,0E0,0E0,0E0,0E0,0E0,0E0,0E0,0E0],"parents":[2147483647,0,0,1,1,2,2,3,3,4,4,5,5,6,6],"right_children":[2,4,6,8,10,12,14,-1,-1,-1,-1,-1,-1,-1,-1],"split_conditions":[5.5E0,1.5E0,4.5E0,5E-1,2.63E2,5E-1,6.05E1,1.6412481E-4,-7.705621E-3,-5.369959E-3,7.7135884E-3,-1.5374362E-2,-2.2264076E-3,1.636108E-2,1.7712256E-3],"split_indices":[41,21,45,60,1,61,0,0,0,0,0,0,0,0,0],"split_type":[0,0,0,0,0,0,0,0,0,0,0,0,0,0,0],"sum_hessian":[2.104E3,2.085E3,1.9E1,2.021E3,6.4E1,1.6E1,3E0,1.992E3,2.9E1,1.5E1,4.9E1,1.1E1,5E0,1E0,2E0],"tree_param":{"num_deleted":"0","num_feature":"69","num_nodes":"15","size_leaf_vector":"0"}},{"base_weights":[1.0062694E-3,3.218419E-2,-8.780997E-4,4.0641896E-2,-1.7047143E-1,-1.9527273E-5,-7.415454E-2,4.5345273E-2,-2.5012314E-1,-1.9410852E-1,-3.7961543E-2,2.3175389E-4,-2.4664223E-1,-1.6646357E-1,-2.9227734E-3],"categories":[],"categories_nodes":[],"categories_segments":[],"categories_sizes":[],"default_left":[true,true,true,true,true,true,true,false,false,false,false,false,false,false,false],"id":36,"left_children":[1,3,5,7,9,11,13,-1,-1,-1,-1,-1,-1,-1,-1],"loss_changes":[1.2369852E-1,2.1260849E-1,1.24944024E-1,1.6998085E-1,8.292064E-3,1.21769466E-1,1.5074618E-1,0E0,0E0,0E0,0E0,0E0,0E0,0E0,0E0],"parents":[2147483647,0,0,1,1,2,2,3,3,4,4,5,5,6,6],"right_children":[2,4,6,8,10,12,14,-1,-1,-1,-1,-1,-1,-1,-1],"split_conditions":[1.145E2,5E-1,5E-1,1.5E0,5E-1,5E-1,2.5E0,4.534527E-3,-2.5012314E-2,-1.9410852E-2,-3.7961544E-3,2.317539E-5,-2.4664223E-2,-1.6646357E-2,-2.9227734E-4],"split_indices":[1,12,23,58,62,47,25,0,0,0,0,0,0,0,0],"split_type":[0,0,0,0,0,0,0,0,0,0,0,0,0,0,0],"sum_hessian":[2.104E3,1.19E2,1.985E3,1.15E2,4E0,1.963E3,2.2E1,1.14E2,1E0,3E0,1E0,1.962E3,1E0,9E0,1.3E1],"tree_param":{"num_deleted":"0","num_feature":"69","num_nodes":"15","size_leaf_vector":"0"}},{"base_weights":[8.651259E-4,4.237301E-3,-1.5547284E-2,-1.6982354E-1,4.93471E-3,-2.5730738E-2,2.84103E-2,-1.8548542E-1,-3.7926108E-2,9.412988E-3,-1.3750499E-2,-5.675434E-2,-1.25036305E-2,1.01373404E-1,1.16117E-4],"categories":[],"categories_nodes":[],"categories_segments":[],"categories_sizes":[],"default_left":[true,true,true,true,true,true,true,false,false,false,false,false,false,false,false],"id":37,"left_children":[1,3,5,7,9,11,13,-1,-1,-1,-1,-1,-1,-1,-1],"loss_changes":[1.1656821E-1,2.1290906E-1,1.614338E-1,7.4255913E-3,1.4581206E-1,1.1911331E-1,1.4036956E-1,0E0,0E0,0E0,0E0,0E0,0E0,0E0,0E0],"parents":[2147483647,0,0,1,1,2,2,3,3,4,4,5,5,6,6],"right_children":[2,4,6,8,10,12,14,-1,-1,-1,-1,-1,-1,-1,-1],"split_conditions":[1.5E0,5E-1,5E-1,5E-1,5E-1,1.5E0,5E-1,-1.8548543E-2,-3.7926107E-3,9.4129884E-4,-1.3750499E-3,-5.675434E-3,-1.2503631E-3,1.0137341E-2,1.16117E-5],"split_indices":[48,43,8,9,61,53,68,0,0,0,0,0,0,0,0],"split_type":[0,0,0,0,0,0,0,0,0,0,0,0,0,0,0],"sum_hessian":[2.104E3,1.746E3,3.58E2,6E0,1.74E3,2.91E2,6.7E1,5E0,1E0,1.404E3,3.36E2,8.6E1,2.05E2,1.8E1,4.9E1],"tree_param":{"num_deleted":"0","num_feature":"69","num_nodes":"15","size_leaf_vector":"0"}},{"base_weights":[7.6933706E-4,3.5717422E-3,-1.8957397E-2,5.5135903E-3,-5.052206E-2,-2.4477229E-2,1.225901E-1,1.2561943E-3,2.5247226E-2,6.302339E-2,-7.527722E-2,-4.1139286E-2,6.688129E-3,2.3514453E-1,4.0760417E-2],"categories":[],"categories_nodes":[],"categories_segments":[],"categories_sizes":[],"default_left":[true,true,true,true,true,true,true,false,false,false,false,false,false,false,false],"id":38,"left_children":[1,3,5,7,9,11,13,-1,-1,-1,-1,-1,-1,-1,-1],"loss_changes":[1.1643694E-1,1.939759E-1,2.077061E-1,1.4959705E-1,1.8463768E-1,1.3165273E-1,8.2518354E-2,0E0,0E0,0E0,0E0,0E0,0E0,0E0,0E0],"parents":[2147483647,0,0,1,1,2,2,3,3,4,4,5,5,6,6],"right_children":[2,4,6,8,10,12,14,-1,-1,-1,-1,-1,-1,-1,-1],"split_conditions":[2.5E0,5E-1,2.5E0,1.5E0,6.5E0,5E-1,2.5E0,1.2561944E-4,2.5247226E-3,6.302339E-3,-7.5277216E-3,-4.113929E-3,6.6881295E-4,2.3514453E-2,4.0760417E-3],"split_indices":[41,33,59,36,2,21,45,0,0,0,0,0,0,0,0],"split_type":[0,0,0,0,0,0,0,0,0,0,0,0,0,0,0],"sum_hessian":[2.104E3,1.843E3,2.61E2,1.78E3,6.3E1,2.52E2,9E0,1.465E3,3.15E2,1.1E1,5.2E1,1.64E2,8.8E1,3E0,6E0],"tree_param":{"num_deleted":"0","num_feature":"69","num_nodes":"15","size_leaf_vector":"0"}},{"base_weights":[7.04536E-4,1.1327545E-3,-1.278005E-1,-1.5949899E-3,2.1313531E-2,2.9007465E-2,-1.5876973E-1,1.3116909E-3,-2.3705384E-2,7.10224E-2,3.0971856E-3],"categories":[],"categories_nodes":[],"categories_segments":[],"categories_sizes":[],"default_left":[true,true,true,true,true,false,false,false,false,false,false],"id":39,"left_children":[1,3,5,7,9,-1,-1,-1,-1,-1,-1],"loss_changes":[1.15979195E-1,1.15579754E-1,3.8599066E-2,1.1892663E-1,2.2615853E-1,0E0,0E0,0E0,0E0,0E0,0E0],"parents":[2147483647,0,0,1,1,2,2,3,3,4,4],"right_children":[2,4,6,8,10,-1,-1,-1,-1,-1,-1],"split_conditions":[5E-1,5E-1,1.45E1,5E-1,5E-1,2.9007464E-3,-1.5876973E-2,1.3116909E-4,-2.3705384E-3,7.10224E-3,3.0971857E-4],"split_indices":[64,18,0,56,41,0,0,0,0,0,0],"split_type":[0,0,0,0,0,0,0,0,0,0,0],"sum_hessian":[2.104E3,2.098E3,6E0,1.849E3,2.49E2,1E0,5E0,1.635E3,2.14E2,6.6E1,1.83E2],"tree_param":{"num_deleted":"0","num_feature":"69","num_nodes":"11","size_leaf_vector":"0"}}]},"name":"gbtree"},"learner_model_param":{"base_score":"5E-1","num_class":"0","num_feature":"69"},"objective":{"name":"reg:squarederror","reg_loss_param":{"scale_pos_weight":"1"}}},"version":[1,4,1]}