{"learner":{"attributes":{},"feature_names":[],"feature_types":[],"gradient_booster":{"model":{"gbtree_model_param":{"num_trees":"40","size_leaf_vector":"0"},"tree_info":[0,0,0,0,0,0,0,0,0,0,0,0,0,0,0,0,0,0,0,0,0,0,0,0,0,0,0,0,0,0,0,0,0,0,0,0,0,0,0,0],"trees":[{"base_weights":[1.3841794E-1,1.7676678E-1,8.93521E-2,1.9044867E-1,1.6571572E-2,1.8611936E-2,1.0345919E-1,1.9945696E-1,4.348608E-2,4.1595403E-2,-8.904761E-2,3.9021835E-2,-8.809054E-2,1.6391242E-1,7.011638E-2],"categories":[],"categories_nodes":[],"categories_segments":[],"categories_sizes":[],"default_left":[true,true,true,true,true,true,true,false,false,false,false,false,false,false,false],"id":0,"left_children":[1,3,5,7,9,11,13,-1,-1,-1,-1,-1,-1,-1,-1],"loss_changes":[5.374012E-1,3.5629463E-1,1.2880433E-1,1.9123268E-1,4.0705927E-2,5.3526547E-2,2.0821607E-1,0E0,0E0,0E0,0E0,0E0,0E0,0E0,0E0],"parents":[2147483647,0,0,1,1,2,2,3,3,4,4,5,5,6,6],"right_children":[2,4,6,8,10,12,14,-1,-1,-1,-1,-1,-1,-1,-1],"split_conditions":[5.5E0,1.5E0,2.16E2,5E-1,1.5E0,5E-1,8.5E0,1.9945696E-2,4.348608E-3,4.1595404E-3,-8.904762E-3,3.9021836E-3,-8.809054E-3,1.6391242E-2,7.011638E-3],"split_indices":[20,35,1,9,53,67,2,0,0,0,0,0,0,0,0],"split_type":[0,0,0,0,0,0,0,0,0,0,0,0,0,0,0],"sum_hessian":[2.93E2,1.63E2,1.3E2,1.5E2,1.3E1,2.2E1,1.08E2,1.41E2,9E0,1.1E1,2E0,1.9E1,3E0,3.7E1,7.1E1],"tree_param":{"num_deleted":"0","num_feature":"69","num_nodes":"15","size_leaf_vector":"0"}},{"base_weights":[1.2470557E-1,1.5920931E-1,8.0558084E-2,1.7156471E-1,1.4575447E-2,1.0019151E-1,3.338724E-2,-7.976886E-2,1.7547368E-1,3.7782464E-2,-8.311111E-2,2.080871E-2,1.2337785E-1,-1.615225E-3,7.6257765E-2],"categories":[],"categories_nodes":[],"categories_segments":[],"categories_sizes":[],"default_left":[true,true,true,true,true,true,true,false,false,false,false,false,false,false,false],"id":1,"left_children":[1,3,5,7,9,11,13,-1,-1,-1,-1,-1,-1,-1,-1],"loss_changes":[4.350109E-1,2.9056883E-1,1.1797732E-1,1.623478E-1,3.4878332E-2,1.6676754E-1,6.0146138E-2,0E0,0E0,0E0,0E0,0E0,0E0,0E0,0E0],"parents":[2147483647,0,0,1,1,2,2,3,3,4,4,5,5,6,6],"right_children":[2,4,6,8,10,12,14,-1,-1,-1,-1,-1,-1,-1,-1],"split_conditions":[5.5E0,1.5E0,1.05E1,4.5E0,1.5E0,2.16E2,5E-1,-7.976886E-3,1.7547367E-2,3.7782465E-3,-8.311111E-3,2.080871E-3,1.2337785E-2,-1.615225E-4,7.625777E-3],"split_indices":[20,35,2,2,53,1,61,0,0,0,0,0,0,0,0],"split_type":[0,0,0,0,0,0,0,0,0,0,0,0,0,0,0],"sum_hessian":[2.93E2,1.63E2,1.3E2,1.5E2,1.3E1,9.1E1,3.9E1,2E0,1.48E2,1.1E1,2E0,2.1E1,7E1,2.2E1,1.7E1],"tree_param":{"num_deleted":"0","num_feature":"69","num_nodes":"15","size_leaf_vector":"0"}},{"base_weights":[1.1232658E-1,1.433191E-1,7.266931E-2,1.5447162E-1,1.279415E-2,9.032907E-2,3.0235134E-2,1.6258745E-1,2.3779675E-2,3.43191E-2,-7.757036E-2,1.8822435E-2,1.1121382E-1,3.9918724E-2,-1.0250208E-1],"categories":[],"categories_nodes":[],"categories_segments":[],"categories_sizes":[],"default_left":[true,true,true,true,true,true,true,false,false,false,false,false,false,false,false],"id":2,"left_children":[1,3,5,7,9,11,13,-1,-1,-1,-1,-1,-1,-1,-1],"loss_changes":[3.5093427E-1,2.3675537E-1,9.543735E-2,1.5629554E-1,2.989342E-2,1.3529932E-1,5.550667E-2,0E0,0E0,0E0,0E0,0E0,0E0,0E0,0E0],"parents":[2147483647,0,0,1,1,2,2,3,3,4,4,5,5,6,6],"right_children":[2,4,6,8,10,12,14,-1,-1,-1,-1,-1,-1,-1,-1],"split_conditions":[5.5E0,1.5E0,1.05E1,5E-1,1.5E0,2.16E2,1.5E0,1.6258745E-2,2.3779676E-3,3.43191E-3,-7.7570355E-3,1.8822436E-3,1.1121382E-2,3.9918725E-3,-1.0250208E-2],"split_indices":[20,35,2,9,53,1,51,0,0,0,0,0,0,0,0],"split_type":[0,0,0,0,0,0,0,0,0,0,0,0,0,0,0],"sum_hessian":[2.93E2,1.63E2,1.3E2,1.5E2,1.3E1,9.1E1,3.9E1,1.41E2,9E0,1.1E1,2E0,2.1E1,7E1,3.7E1,2E0],"tree_param":{"num_deleted":"0","num_feature":"69","num_nodes":"15","size_leaf_vector":"0"}},{"base_weights":[1.0116555E-1,1.1839332E-1,4.1029762E-2,1.3579907E-1,7.065129E-2,7.298699E-2,1.5637298E-3,1.4798024E-1,5.363002E-2,4.816158E-2,1.5344545E-1,2.7916031E-2,1.3039786E-1,-4.440836E-2,5.356118E-2],"categories":[],"categories_nodes":[],"categories_segments":[],"categories_sizes":[],"default_left":[true,true,true,true,true,true,true,false,false,false,false,false,false,false,false],"id":3,"left_children":[1,3,5,7,9,11,13,-1,-1,-1,-1,-1,-1,-1,-1],"loss_changes":[2.9972816E-1,1.7987037E-1,8.4387936E-2,1.5821576E-1,1.09916866E-1,9.209965E-2,7.648194E-2,0E0,0E0,0E0,0E0,0E0,0E0,0E0,0E0],"parents":[2147483647,0,0,1,1,2,2,3,3,4,4,5,5,6,6],"right_children":[2,4,6,8,10,12,14,-1,-1,-1,-1,-1,-1,-1,-1],"split_conditions":[5E-1,5E-1,5E-1,7.5E0,4.5E0,5E-1,5E-1,1.4798025E-2,5.363002E-3,4.816158E-3,1.5344545E-2,2.791603E-3,1.3039785E-2,-4.440836E-3,5.356118E-3],"split_indices":[57,7,35,20,43,15,62,0,0,0,0,0,0,0,0],"split_type":[0,0,0,0,0,0,0,0,0,0,0,0,0,0,0],"sum_hessian":[2.93E2,2.27E2,6.6E1,1.65E2,6.2E1,3.6E1,3E1,1.43E2,2.2E1,5E1,1.2E1,2.1E1,1.5E1,1.6E1,1.4E1],"tree_param":{"num_deleted":"0","num_feature":"69","num_nodes":"15","size_leaf_vector":"0"}},{"base_weights":[9.124309E-2,1.1782644E-1,5.7266664E-2,1.2768987E-1,3.0260917E-3,-4.6122238E-2,6.347509E-2,1.3495749E-1,1.1720726E-2,2.2493288E-2,-7.585139E-2,-5.9800047E-2,-3.3925374E-3,8.076299E-2,1.3355012E-2],"categories":[],"categories_nodes":[],"categories_segments":[],"categories_sizes":[],"default_left":[true,true,true,true,true,true,true,false,false,false,false,false,false,false,false],"id":4,"left_children":[1,3,5,7,9,11,13,-1,-1,-1,-1,-1,-1,-1,-1],"loss_changes":[2.587955E-1,1.8531513E-1,8.701417E-2,1.2568402E-1,2.3203474E-2,4.472716E-3,1.0636383E-1,0E0,0E0,0E0,0E0,0E0,0E0,0E0,0E0],"parents":[2147483647,0,0,1,1,2,2,3,3,4,4,5,5,6,6],"right_children":[2,4,6,8,10,12,14,-1,-1,-1,-1,-1,-1,-1,-1],"split_conditions":[5.5E0,1.5E0,5E-1,5E-1,1.5E0,3.1E0,1.5E0,1.349575E-2,1.1720726E-3,2.249329E-3,-7.585139E-3,-5.980005E-3,-3.3925375E-4,8.076299E-3,1.3355012E-3],"split_indices":[20,35,43,9,53,3,41,0,0,0,0,0,0,0,0],"split_type":[0,0,0,0,0,0,0,0,0,0,0,0,0,0,0],"sum_hessian":[2.93E2,1.63E2,1.3E2,1.5E2,1.3E1,7E0,1.23E2,1.41E2,9E0,1.1E1,2E0,5E0,2E0,9.1E1,3.2E1],"tree_param":{"num_deleted":"0","num_feature":"69","num_nodes":"15","size_leaf_vector":"0"}},{"base_weights":[8.216104E-2,9.515869E-2,2.1263089E-2,-3.0896401E-2,1.0072527E-1,3.620138E-2,-3.9065063E-2,-6.3334435E-2,2.0696128E-2,1.0706102E-1,1.9307316E-3,-2.6515038E-3,5.9323516E-2,9.158203E-2,-6.1287977E-2],"categories":[],"categories_nodes":[],"categories_segments":[],"categories_sizes":[],"default_left":[true,true,true,true,true,true,true,false,false,false,false,false,false,false,false],"id":5,"left_children":[1,3,5,7,9,11,13,-1,-1,-1,-1,-1,-1,-1,-1],"loss_changes":[2.3068643E-1,1.7292237E-1,4.917779E-2,1.971994E-2,1.4501095E-1,3.878685E-2,3.7549824E-2,0E0,0E0,0E0,0E0,0E0,0E0,0E0,0E0],"parents":[2147483647,0,0,1,1,2,2,3,3,4,4,5,5,6,6],"right_children":[2,4,6,8,10,12,14,-1,-1,-1,-1,-1,-1,-1,-1],"split_conditions":[7.5E0,5E-1,6.5E0,5E-1,1.5E0,8.5E0,1.9454545E0,-6.333444E-3,2.0696127E-3,1.07061025E-2,1.9307317E-4,-2.651504E-4,5.9323516E-3,9.158203E-3,-6.128798E-3],"split_indices":[20,43,68,62,35,20,3,0,0,0,0,0,0,0,0],"split_type":[0,0,0,0,0,0,0,0,0,0,0,0,0,0,0],"sum_hessian":[2.93E2,2.41E2,5.2E1,1E1,2.31E2,4.2E1,1E1,6E0,4E0,2.17E2,1.4E1,1.6E1,2.6E1,1E0,9E0],"tree_param":{"num_deleted":"0","num_feature":"69","num_nodes":"15","size_leaf_vector":"0"}},{"base_weights":[7.399707E-2,8.8228E-2,2.4464982E-2,1.03883274E-1,4.5577172E-2,-1.0312362E-2,5.294154E-2,1.1962682E-1,5.8892258E-2,2.5283048E-2,1.21686645E-1,1.9569902E-2,-1.1556154E-1,1.02047086E-1,1.0495939E-3],"categories":[],"categories_nodes":[],"categories_segments":[],"categories_sizes":[],"default_left":[true,true,true,true,true,true,true,false,false,false,false,false,false,false,false],"id":6,"left_children":[1,3,5,7,9,11,13,-1,-1,-1,-1,-1,-1,-1,-1],"loss_changes":[2.050786E-1,1.4750314E-1,6.689867E-2,1.1053574E-1,9.4231606E-2,9.975912E-2,9.417565E-2,0E0,0E0,0E0,0E0,0E0,0E0,0E0,0E0],"parents":[2147483647,0,0,1,1,2,2,3,3,4,4,5,5,6,6],"right_children":[2,4,6,8,10,12,14,-1,-1,-1,-1,-1,-1,-1,-1],"split_conditions":[5E-1,5E-1,5E-1,2.5E0,4.5E0,2.5852273E0,8.5E0,1.1962682E-2,5.8892258E-3,2.528305E-3,1.21686645E-2,1.9569902E-3,-1.1556154E-2,1.0204709E-2,1.0495939E-4],"split_indices":[57,7,62,42,43,3,2,0,0,0,0,0,0,0,0],"split_type":[0,0,0,0,0,0,0,0,0,0,0,0,0,0,0],"sum_hessian":[2.93E2,2.27E2,6.6E1,1.65E2,6.2E1,3E1,3.6E1,1.21E2,4.4E1,5E1,1.2E1,2.4E1,6E0,1.8E1,1.8E1],"tree_param":{"num_deleted":"0","num_feature":"69","num_nodes":"15","size_leaf_vector":"0"}},{"base_weights":[6.671048E-2,8.811234E-2,3.940806E-2,9.614644E-2,-4.834882E-3,-1.5161905E-2,5.0561287E-2,1.0277659E-1,-7.6162787E-3,2.6543813E-2,-5.109711E-2,2.7048974E-3,-1.00705445E-1,9.534077E-2,2.6225427E-2],"categories":[],"categories_nodes":[],"categories_segments":[],"categories_sizes":[],"default_left":[true,true,true,true,true,true,true,false,false,false,false,false,false,false,false],"id":7,"left_children":[1,3,5,7,9,11,13,-1,-1,-1,-1,-1,-1,-1,-1],"loss_changes":[1.6831851E-1,1.2293136E-1,8.049725E-2,1.0466504E-1,2.1679388E-2,3.5425358E-2,1.16282105E-1,0E0,0E0,0E0,0E0,0E0,0E0,0E0,0E0],"parents":[2147483647,0,0,1,1,2,2,3,3,4,4,5,5,6,6],"right_children":[2,4,6,8,10,12,14,-1,-1,-1,-1,-1,-1,-1,-1],"split_conditions":[5.5E0,1.5E0,2.16E2,5E-1,5E-1,5E-1,8.5E0,1.0277659E-2,-7.6162786E-4,2.6543813E-3,-5.109711E-3,2.7048975E-4,-1.0070545E-2,9.534078E-3,2.6225427E-3],"split_indices":[20,35,1,9,59,67,2,0,0,0,0,0,0,0,0],"split_type":[0,0,0,0,0,0,0,0,0,0,0,0,0,0,0],"sum_hessian":[2.93E2,1.63E2,1.3E2,1.5E2,1.3E1,2.2E1,1.08E2,1.41E2,9E0,8E0,5E0,1.9E1,3E0,3.7E1,7.1E1],"tree_param":{"num_deleted":"0","num_feature":"69","num_nodes":"15","size_leaf_vector":"0"}},{"base_weights":[6.007147E-2,7.237727E-2,1.729841E-2,8.659912E-2,3.3755008E-2,4.6292964E-2,-1.7866004E-2,2.2177431E-1,8.1892475E-2,2.382242E-2,1.7430508E-1,5.075781E-3,1.0007328E-1,5.381218E-2,-4.1014314E-2],"categories":[],"categories_nodes":[],"categories_segments":[],"categories_sizes":[],"default_left":[true,true,true,true,true,true,true,false,false,false,false,false,false,false,false],"id":8,"left_children":[1,3,5,7,9,11,13,-1,-1,-1,-1,-1,-1,-1,-1],"loss_changes":[1.5349686E-1,1.22312665E-1,6.91387E-2,8.745098E-2,8.3797276E-2,8.150894E-2,5.364316E-2,0E0,0E0,0E0,0E0,0E0,0E0,0E0,0E0],"parents":[2147483647,0,0,1,1,2,2,3,3,4,4,5,5,6,6],"right_children":[2,4,6,8,10,12,14,-1,-1,-1,-1,-1,-1,-1,-1],"split_conditions":[5E-1,5E-1,5E-1,1.31E2,1.5E0,5E-1,4.5E0,2.2177432E-2,8.189248E-3,2.382242E-3,1.7430509E-2,5.0757814E-4,1.0007328E-2,5.381218E-3,-4.1014315E-3],"split_indices":[57,7,35,1,17,15,20,0,0,0,0,0,0,0,0],"split_type":[0,0,0,0,0,0,0,0,0,0,0,0,0,0,0],"sum_hessian":[2.93E2,2.27E2,6.6E1,1.65E2,6.2E1,3.6E1,3E1,4E0,1.61E2,5.9E1,3E0,2.1E1,1.5E1,7E0,2.3E1],"tree_param":{"num_deleted":"0","num_feature":"69","num_nodes":"15","size_leaf_vector":"0"}},{"base_weights":[5.4275118E-2,6.435178E-2,7.2406447E-3,-4.072136E-2,6.905632E-2,-7.4160933E-3,4.859985E-2,-6.60427E-2,2.8727888E-3,8.638075E-2,3.7503973E-2,3.4130507E-3,-1.0573165E-1,9.026925E-2,-4.445892E-2],"categories":[],"categories_nodes":[],"categories_segments":[],"categories_sizes":[],"default_left":[true,true,true,true,true,true,true,false,false,false,false,false,false,false,false],"id":9,"left_children":[1,3,5,7,9,11,13,-1,-1,-1,-1,-1,-1,-1,-1],"loss_changes":[1.3887548E-1,1.22437716E-1,3.2488544E-2,1.2332212E-2,1.23577595E-1,4.29478E-2,5.830112E-2,0E0,0E0,0E0,0E0,0E0,0E0,0E0,0E0],"parents":[2147483647,0,0,1,1,2,2,3,3,4,4,5,5,6,6],"right_children":[2,4,6,8,10,12,14,-1,-1,-1,-1,-1,-1,-1,-1],"split_conditions":[7.5E0,5E-1,5E-1,5E-1,2.5E0,1.5E0,5E-1,-6.60427E-3,2.8727888E-4,8.638076E-3,3.7503974E-3,3.4130507E-4,-1.05731655E-2,9.026925E-3,-4.445892E-3],"split_indices":[20,43,61,62,25,51,66,0,0,0,0,0,0,0,0],"split_type":[0,0,0,0,0,0,0,0,0,0,0,0,0,0,0],"sum_hessian":[2.93E2,2.41E2,5.2E1,1E1,2.31E2,3.9E1,1.3E1,6E0,4E0,1.48E2,8.3E1,3.6E1,3E0,9E0,4E0],"tree_param":{"num_deleted":"0","num_feature":"69","num_nodes":"15","size_leaf_vector":"0"}},{"base_weights":[4.8849035E-2,5.954334E-2,1.1727383E-2,7.2334565E-2,2.4894347E-2,3.7212316E-2,-1.9068418E-2,1.9712187E-1,6.803659E-2,7.286853E-3,9.205495E-2,-8.656938E-4,8.724381E-2,4.1545283E-2,-3.8478468E-2],"categories":[],"categories_nodes":[],"categories_segments":[],"categories_sizes":[],"default_left":[true,true,true,true,true,true,true,false,false,false,false,false,false,false,false],"id":10,"left_children":[1,3,5,7,9,11,13,-1,-1,-1,-1,-1,-1,-1,-1],"loss_changes":[1.16016865E-1,9.92496E-2,5.329312E-2,7.561958E-2,7.382859E-2,7.056422E-2,3.807056E-2,0E0,0E0,0E0,0E0,0E0,0E0,0E0,0E0],"parents":[2147483647,0,0,1,1,2,2,3,3,4,4,5,5,6,6],"right_children":[2,4,6,8,10,12,14,-1,-1,-1,-1,-1,-1,-1,-1],"split_conditions":[5E-1,5E-1,5E-1,1.31E2,4.5E0,5E-1,4.5E0,1.9712187E-2,6.8036593E-3,7.2868535E-4,9.205495E-3,-8.656938E-5,8.724381E-3,4.1545285E-3,-3.8478468E-3],"split_indices":[57,7,35,1,43,15,20,0,0,0,0,0,0,0,0],"split_type":[0,0,0,0,0,0,0,0,0,0,0,0,0,0,0],"sum_hessian":[2.93E2,2.27E2,6.6E1,1.65E2,6.2E1,3.6E1,3E1,4E0,1.61E2,5E1,1.2E1,2.1E1,1.5E1,7E0,2.3E1],"tree_param":{"num_deleted":"0","num_feature":"69","num_nodes":"15","size_leaf_vector":"0"}},{"base_weights":[4.411855E-2,5.2938282E-2,3.0148923E-3,-4.012603E-2,5.7122633E-2,-1.0637042E-2,4.180507E-2,-5.280188E-2,4.3316245E-2,8.036159E-2,3.7944537E-2,-3.08599E-2,3.373812E-2,7.896186E-2,-4.0869515E-2],"categories":[],"categories_nodes":[],"categories_segments":[],"categories_sizes":[],"default_left":[true,true,true,true,true,true,true,false,false,false,false,false,false,false,false],"id":11,"left_children":[1,3,5,7,9,11,13,-1,-1,-1,-1,-1,-1,-1,-1],"loss_changes":[1.06422246E-1,9.65302E-2,2.8511412E-2,1.3921898E-2,1.00348234E-1,3.693686E-2,4.6234038E-2,0E0,0E0,0E0,0E0,0E0,0E0,0E0,0E0],"parents":[2147483647,0,0,1,1,2,2,3,3,4,4,5,5,6,6],"right_children":[2,4,6,8,10,12,14,-1,-1,-1,-1,-1,-1,-1,-1],"split_conditions":[7.5E0,5E-1,5E-1,5E-1,1.5E0,1.5E0,5E-1,-5.2801883E-3,4.3316246E-3,8.036159E-3,3.7944538E-3,-3.0859902E-3,3.3738122E-3,7.896186E-3,-4.0869517E-3],"split_indices":[20,43,61,12,45,36,66,0,0,0,0,0,0,0,0],"split_type":[0,0,0,0,0,0,0,0,0,0,0,0,0,0,0],"sum_hessian":[2.93E2,2.41E2,5.2E1,1E1,2.31E2,3.9E1,1.3E1,9E0,1E0,1.03E2,1.28E2,2.7E1,1.2E1,9E0,4E0],"tree_param":{"num_deleted":"0","num_feature":"69","num_nodes":"15","size_leaf_vector":"0"}},{"base_weights":[3.975766E-2,5.3728506E-2,1.8163059E-2,3.552818E-2,9.961079E-2,9.117876E-2,-2.669236E-3,3.9891485E-2,-1.1079805E-1,2.6217315E-2,1.2742443E-1,-3.877227E-2,1.09814644E-1,-5.9477307E-2,1.1952691E-2],"categories":[],"categories_nodes":[],"categories_segments":[],"categories_sizes":[],"default_left":[true,true,true,true,true,true,true,false,false,false,false,false,false,false,false],"id":12,"left_children":[1,3,5,7,9,11,13,-1,-1,-1,-1,-1,-1,-1,-1],"loss_changes":[8.772242E-2,1.4510399E-1,1.7821029E-1,8.678207E-2,9.87263E-2,6.7223325E-2,7.713011E-2,0E0,0E0,0E0,0E0,0E0,0E0,0E0,0E0],"parents":[2147483647,0,0,1,1,2,2,3,3,4,4,5,5,6,6],"right_children":[2,4,6,8,10,12,14,-1,-1,-1,-1,-1,-1,-1,-1],"split_conditions":[2.5E0,5E-1,1.45E1,5E-1,1.7083333E0,5.5E0,2.31E2,3.9891484E-3,-1.1079806E-2,2.6217315E-3,1.2742444E-2,-3.877227E-3,1.0981465E-2,-5.947731E-3,1.195269E-3],"split_indices":[25,6,0,60,3,2,1,0,0,0,0,0,0,0,0],"split_type":[0,0,0,0,0,0,0,0,0,0,0,0,0,0,0],"sum_hessian":[2.93E2,1.77E2,1.16E2,1.28E2,4.9E1,2.5E1,9.1E1,1.25E2,3E0,1.4E1,3.5E1,3E0,2.2E1,1.8E1,7.3E1],"tree_param":{"num_deleted":"0","num_feature":"69","num_nodes":"15","size_leaf_vector":"0"}},{"base_weights":[3.5818033E-2,4.3460503E-2,2.4641742E-4,2.0303776E-2,6.0186807E-2,1.11716045E-2,-4.2483535E-2,6.1715696E-2,-9.221081E-3,6.903343E-2,-4.9835704E-2,-2.2415163E-2,3.1905066E-2,4.4540346E-2,-6.67711E-2],"categories":[],"categories_nodes":[],"categories_segments":[],"categories_sizes":[],"default_left":[true,true,true,true,true,true,true,false,false,false,false,false,false,false,false],"id":13,"left_children":[1,3,5,7,9,11,13,-1,-1,-1,-1,-1,-1,-1,-1],"loss_changes":[7.991466E-2,9.251097E-2,2.5216743E-2,1.2650523E-1,1.3970613E-1,3.065906E-2,2.6223589E-2,0E0,0E0,0E0,0E0,0E0,0E0,0E0,0E0],"parents":[2147483647,0,0,1,1,2,2,3,3,4,4,5,5,6,6],"right_children":[2,4,6,8,10,12,14,-1,-1,-1,-1,-1,-1,-1,-1],"split_conditions":[7.5E0,5E-1,6.5E0,1.6904762E0,1.15E1,8.5E0,2.5E0,6.1715697E-3,-9.2210807E-4,6.903343E-3,-4.9835704E-3,-2.2415163E-3,3.1905067E-3,4.454035E-3,-6.6771097E-3],"split_indices":[20,62,68,3,2,20,43,0,0,0,0,0,0,0,0],"split_type":[0,0,0,0,0,0,0,0,0,0,0,0,0,0,0],"sum_hessian":[2.93E2,2.41E2,5.2E1,1.02E2,1.39E2,4.2E1,1E1,4.2E1,6E1,1.29E2,1E1,1.6E1,2.6E1,2E0,8E0],"tree_param":{"num_deleted":"0","num_feature":"69","num_nodes":"15","size_leaf_vector":"0"}},{"base_weights":[3.2256268E-2,2.977601E-2,1.4634599E-1,4.4382937E-2,1.0794083E-2,1.7012247E-1,1.3731778E-2,5.1459998E-2,-3.461295E-2,-3.4474194E-2,2.060719E-2],"categories":[],"categories_nodes":[],"categories_segments":[],"categories_sizes":[],"default_left":[true,true,true,true,true,false,false,false,false,false,false],"id":14,"left_children":[1,3,5,7,9,-1,-1,-1,-1,-1,-1],"loss_changes":[7.883617E-2,7.965127E-2,1.6582519E-2,9.290776E-2,5.7126667E-2,0E0,0E0,0E0,0E0,0E0,0E0],"parents":[2147483647,0,0,1,1,2,2,3,3,4,4],"right_children":[2,4,6,8,10,-1,-1,-1,-1,-1,-1],"split_conditions":[1.5E0,5.5E0,3.35E1,1.5E0,2.16E2,1.7012248E-2,1.3731777E-3,5.146E-3,-3.461295E-3,-3.4474195E-3,2.060719E-3],"split_indices":[61,20,0,35,1,0,0,0,0,0,0],"split_type":[0,0,0,0,0,0,0,0,0,0,0],"sum_hessian":[2.93E2,2.88E2,5E0,1.62E2,1.26E2,4E0,1E0,1.49E2,1.3E1,2.2E1,1.04E2],"tree_param":{"num_deleted":"0","num_feature":"69","num_nodes":"11","size_leaf_vector":"0"}},{"base_weights":[2.909418E-2,-4.705279E-2,3.2220222E-2,-5.8065563E-2,3.704387E-2,5.420001E-2,1.6401935E-2,-6.9763154E-2,2.9455185E-2,8.9475416E-2,2.9588467E-2,-4.644531E-2,2.5329266E-2],"categories":[],"categories_nodes":[],"categories_segments":[],"categories_sizes":[],"default_left":[true,true,true,true,false,true,true,false,false,false,false,false,false],"id":15,"left_children":[1,3,5,7,-1,9,11,-1,-1,-1,-1,-1,-1],"loss_changes":[7.149938E-2,1.3264623E-2,9.750518E-2,1.331649E-2,0E0,9.979805E-2,9.431207E-2,0E0,0E0,0E0,0E0,0E0,0E0],"parents":[2147483647,0,0,1,1,2,2,3,3,5,5,6,6],"right_children":[2,4,6,8,-1,10,12,-1,-1,-1,-1,-1,-1],"split_conditions":[5E-1,5E-1,1.5E0,2.5E0,3.704387E-3,1.935E2,2.015E2,-6.9763153E-3,2.9455186E-3,8.947542E-3,2.9588467E-3,-4.6445313E-3,2.5329266E-3],"split_indices":[43,12,45,41,0,1,1,0,0,0,0,0,0],"split_type":[0,0,0,0,0,0,0,0,0,0,0,0,0],"sum_hessian":[2.93E2,1.1E1,2.82E2,1E1,1E0,1.17E2,1.65E2,9E0,1E0,4.7E1,7E1,2E1,1.45E2],"tree_param":{"num_deleted":"0","num_feature":"69","num_nodes":"13","size_leaf_vector":"0"}},{"base_weights":[2.621698E-2,2.8531775E-2,-7.276556E-2,2.6223186E-2,1.3266489E-1,-1.0545999E-2,-8.137782E-2,-4.237472E-2,2.9153155E-2,1.5448637E-1,1.1778742E-2],"categories":[],"categories_nodes":[],"categories_segments":[],"categories_sizes":[],"default_left":[true,true,true,true,true,false,false,false,false,false,false],"id":16,"left_children":[1,3,5,7,9,-1,-1,-1,-1,-1,-1],"loss_changes":[6.9438666E-2,6.5756455E-2,2.8927475E-3,5.8115453E-2,1.4007829E-2,0E0,0E0,0E0,0E0,0E0,0E0],"parents":[2147483647,0,0,1,1,2,2,3,3,4,4],"right_children":[2,4,6,8,10,-1,-1,-1,-1,-1,-1],"split_conditions":[5E-1,1.5E0,5E-1,5E-1,3.35E1,-1.0545999E-3,-8.137782E-3,-4.237472E-3,2.9153156E-3,1.5448637E-2,1.1778743E-3],"split_indices":[16,61,17,43,0,0,0,0,0,0,0],"split_type":[0,0,0,0,0,0,0,0,0,0,0],"sum_hessian":[2.93E2,2.87E2,6E0,2.82E2,5E0,1E0,5E0,1.1E1,2.71E2,4E0,1E0],"tree_param":{"num_deleted":"0","num_feature":"69","num_nodes":"11","size_leaf_vector":"0"}},{"base_weights":[2.3616064E-2,3.5568558E-2,5.2300864E-3,1.9171923E-2,7.71605E-2,6.800388E-2,-1.2567182E-2,2.290946E-2,-1.0335348E-1,-2.380401E-3,9.7105235E-2,4.3794002E-2,1.902097E-1,1.02546E-2,-4.5267995E-2],"categories":[],"categories_nodes":[],"categories_segments":[],"categories_sizes":[],"default_left":[true,true,true,true,true,true,true,false,false,false,false,false,false,false,false],"id":17,"left_children":[1,3,5,7,9,11,13,-1,-1,-1,-1,-1,-1,-1,-1],"loss_changes":[6.442289E-2,1.19910985E-1,1.3156725E-1,6.1442457E-2,7.955223E-2,6.8593234E-2,6.912296E-2,0E0,0E0,0E0,0E0,0E0,0E0,0E0,0E0],"parents":[2147483647,0,0,1,1,2,2,3,3,4,4,5,5,6,6],"right_children":[2,4,6,8,10,12,14,-1,-1,-1,-1,-1,-1,-1,-1],"split_conditions":[2.5E0,5E-1,1.45E1,5E-1,1.6339285E0,5E-1,5E-1,2.2909462E-3,-1.0335348E-2,-2.380401E-4,9.710523E-3,4.3794005E-3,1.902097E-2,1.0254601E-3,-4.5267995E-3],"split_indices":[25,6,0,60,3,21,35,0,0,0,0,0,0,0,0],"split_type":[0,0,0,0,0,0,0,0,0,0,0,0,0,0,0],"sum_hessian":[2.93E2,1.77E2,1.16E2,1.28E2,4.9E1,2.5E1,9.1E1,1.25E2,3E0,1E1,3.9E1,2.2E1,3E0,5.4E1,3.7E1],"tree_param":{"num_deleted":"0","num_feature":"69","num_nodes":"15","size_leaf_vector":"0"}},{"base_weights":[2.1326993E-2,1.9216133E-2,1.194456E-1,3.5416882E-2,6.1160517E-3,1.3906388E-1,1.0677099E-2,-4.015652E-2,4.280217E-2,-2.783667E-3,7.277625E-2],"categories":[],"categories_nodes":[],"categories_segments":[],"categories_sizes":[],"default_left":[true,true,true,true,true,false,false,false,false,false,false],"id":18,"left_children":[1,3,5,7,9,-1,-1,-1,-1,-1,-1],"loss_changes":[5.8596432E-2,6.1118186E-2,1.1318311E-2,7.371774E-2,9.571697E-2,0E0,0E0,0E0,0E0,0E0,0E0],"parents":[2147483647,0,0,1,1,2,2,3,3,4,4],"right_children":[2,4,6,8,10,-1,-1,-1,-1,-1,-1],"split_conditions":[1.5E0,1.5E0,3.35E1,5E-1,5E-1,1.3906389E-2,1.06771E-3,-4.015652E-3,4.280217E-3,-2.783667E-4,7.277625E-3],"split_indices":[61,45,0,43,33,0,0,0,0,0,0],"split_type":[0,0,0,0,0,0,0,0,0,0,0],"sum_hessian":[2.93E2,2.88E2,5E0,1.28E2,1.6E2,4E0,1E0,1.1E1,1.17E2,1.42E2,1.8E1],"tree_param":{"num_deleted":"0","num_feature":"69","num_nodes":"11","size_leaf_vector":"0"}},{"base_weights":[1.926993E-2,2.1279024E-2,-6.614275E-2,1.5547112E-2,5.747643E-2,-1.0392249E-2,-7.370246E-2,2.1912664E-2,-3.7839215E-2,-3.9700698E-2,7.293485E-2,-2.1459728E-2,-7.985906E-2],"categories":[],"categories_nodes":[],"categories_segments":[],"categories_sizes":[],"default_left":[true,true,true,true,true,false,true,false,false,false,false,false,false],"id":19,"left_children":[1,3,5,7,9,-1,11,-1,-1,-1,-1,-1,-1],"loss_changes":[5.1858455E-2,5.886075E-2,2.1842662E-3,8.578752E-2,6.1481565E-2,0E0,2.1607429E-4,0E0,0E0,0E0,0E0,0E0,0E0],"parents":[2147483647,0,0,1,1,2,2,3,3,4,4,6,6],"right_children":[2,4,6,8,10,-1,12,-1,-1,-1,-1,-1,-1],"split_conditions":[5E-1,4.5E0,5E-1,1.05E1,2.215E2,-1.0392249E-3,5E-1,2.1912665E-3,-3.7839215E-3,-3.97007E-3,7.293485E-3,-2.1459728E-3,-7.985907E-3],"split_indices":[16,43,17,2,1,0,9,0,0,0,0,0,0],"split_type":[0,0,0,0,0,0,0,0,0,0,0,0,0],"sum_hessian":[2.93E2,2.87E2,6E0,2.49E2,3.8E1,1E0,5E0,2.23E2,2.6E1,5E0,3.3E1,1E0,4E0],"tree_param":{"num_deleted":"0","num_feature":"69","num_nodes":"13","size_leaf_vector":"0"}},{"base_weights":[1.7310847E-2,2.0907473E-2,-3.0440886E-2,3.0925687E-2,-2.926951E-3,-4.0402442E-2,8.439514E-2,5.96168E-3,5.09345E-2,-5.407206E-2,1.4443601E-2,-6.593807E-2,-8.273011E-3],"categories":[],"categories_nodes":[],"categories_segments":[],"categories_sizes":[],"default_left":[true,true,true,true,true,true,false,false,false,false,false,false,false],"id":20,"left_children":[1,3,5,7,9,11,-1,-1,-1,-1,-1,-1,-1],"loss_changes":[5.1129512E-2,6.5515794E-2,2.7432628E-2,9.609987E-2,7.363133E-2,1.58634E-2,0E0,0E0,0E0,0E0,0E0,0E0,0E0],"parents":[2147483647,0,0,1,1,2,2,3,3,4,4,5,5],"right_children":[2,4,6,8,10,12,-1,-1,-1,-1,-1,-1,-1],"split_conditions":[1.5E0,2.5E0,2.5E0,5E-1,5E-1,1.5E0,8.439514E-3,5.96168E-4,5.09345E-3,-5.4072062E-3,1.4443601E-3,-6.593807E-3,-8.273011E-4],"split_indices":[35,42,48,62,36,15,0,0,0,0,0,0,0],"split_type":[0,0,0,0,0,0,0,0,0,0,0,0,0],"sum_hessian":[2.93E2,2.73E2,2E1,1.92E2,8.1E1,1.9E1,1E0,8.6E1,1.06E2,2E1,6.1E1,1E1,9E0],"tree_param":{"num_deleted":"0","num_feature":"69","num_nodes":"13","size_leaf_vector":"0"}},{"base_weights":[1.5589104E-2,2.2568982E-2,-8.395992E-3,3.304344E-2,-5.388623E-3,9.4725356E-2,-1.470989E-2,4.214445E-2,-4.9134856E-3,-1.3666908E-2,1.20132804E-1,1.3814247E-1,-1.7762989E-2,-2.6242478E-2,5.8682874E-2],"categories":[],"categories_nodes":[],"categories_segments":[],"categories_sizes":[],"default_left":[true,true,true,true,true,true,true,false,false,false,false,false,false,false,false],"id":21,"left_children":[1,3,5,7,9,11,13,-1,-1,-1,-1,-1,-1,-1,-1],"loss_changes":[4.9408935E-2,6.6945754E-2,4.5016937E-2,5.7551146E-2,6.710528E-2,2.1989502E-2,5.5710126E-2,0E0,0E0,0E0,0E0,0E0,0E0,0E0,0E0],"parents":[2147483647,0,0,1,1,2,2,3,3,4,4,5,5,6,6],"right_children":[2,4,6,8,10,12,14,-1,-1,-1,-1,-1,-1,-1,-1],"split_conditions":[5E-1,5E-1,5E-1,5E-1,1.5E0,2.6E1,5E-1,4.214445E-3,-4.9134856E-4,-1.3666908E-3,1.2013281E-2,1.3814247E-2,-1.7762989E-3,-2.624248E-3,5.8682873E-3],"split_indices":[57,7,53,51,17,0,18,0,0,0,0,0,0,0,0],"split_type":[0,0,0,0,0,0,0,0,0,0,0,0,0,0,0],"sum_hessian":[2.93E2,2.27E2,6.6E1,1.65E2,6.2E1,3E0,6.3E1,1.33E2,3.2E1,5.9E1,3E0,2E0,1E0,5.5E1,8E0],"tree_param":{"num_deleted":"0","num_feature":"69","num_nodes":"15","size_leaf_vector":"0"}},{"base_weights":[1.41310375E-2,1.2256149E-2,1.0208299E-1,2.6654188E-2,6.4370775E-4,1.21363506E-1,2.8401911E-3,2.9886851E-2,-1.1908001E-1,-7.300227E-3,6.039839E-2],"categories":[],"categories_nodes":[],"categories_segments":[],"categories_sizes":[],"default_left":[true,true,true,true,true,false,false,false,false,false,false],"id":22,"left_children":[1,3,5,7,9,-1,-1,-1,-1,-1,-1],"loss_changes":[4.722948E-2,4.83026E-2,1.1136025E-2,6.433209E-2,7.6865576E-2,0E0,0E0,0E0,0E0,0E0,0E0],"parents":[2147483647,0,0,1,1,2,2,3,3,4,4],"right_children":[2,4,6,8,10,-1,-1,-1,-1,-1,-1],"split_conditions":[1.5E0,1.5E0,3.35E1,5E-1,5E-1,1.213635E-2,2.8401913E-4,2.9886852E-3,-1.1908001E-2,-7.3002273E-4,6.039839E-3],"split_indices":[61,45,0,4,33,0,0,0,0,0,0],"split_type":[0,0,0,0,0,0,0,0,0,0,0],"sum_hessian":[2.93E2,2.88E2,5E0,1.28E2,1.6E2,4E0,1E0,1.26E2,2E0,1.42E2,1.8E1],"tree_param":{"num_deleted":"0","num_feature":"69","num_nodes":"11","size_leaf_vector":"0"}},{"base_weights":[1.2747904E-2,1.8093782E-2,-1.7234702E-2,1.6231183E-2,1.6603725E-1,-8.9296035E-2,5.9055667E-3,2.2389293E-2,-1.8389666E-2,-1.6677071E-1,-3.9396692E-2,1.8804606E-2,-7.52496E-2],"categories":[],"categories_nodes":[],"categories_segments":[],"categories_sizes":[],"default_left":[true,true,true,true,false,true,true,false,false,false,false,false,false],"id":23,"left_children":[1,3,5,7,-1,9,11,-1,-1,-1,-1,-1,-1],"loss_changes":[4.7435142E-2,6.6194795E-2,7.556568E-2,5.3285085E-2,0E0,3.595507E-2,3.8053866E-2,0E0,0E0,0E0,0E0,0E0,0E0],"parents":[2147483647,0,0,1,1,2,2,3,3,5,5,6,6],"right_children":[2,4,6,8,-1,10,12,-1,-1,-1,-1,-1,-1],"split_conditions":[2.775E0,2.7207792E0,5E-1,7.5E0,1.6603725E-2,2.89011E0,2.5E0,2.2389293E-3,-1.8389666E-3,-1.6677072E-2,-3.939669E-3,1.8804607E-3,-7.5249597E-3],"split_indices":[3,3,62,20,0,3,15,0,0,0,0,0,0],"split_type":[0,0,0,0,0,0,0,0,0,0,0,0,0],"sum_hessian":[2.93E2,2.49E2,4.4E1,2.47E2,2E0,1E1,3.4E1,2.1E2,3.7E1,3E0,7E0,3E1,4E0],"tree_param":{"num_deleted":"0","num_feature":"69","num_nodes":"13","size_leaf_vector":"0"}},{"base_weights":[1.1441627E-2,9.618098E-3,9.7368024E-2,7.813382E-3,9.343829E-2,1.0987741E-1,1.7410547E-2,-6.397461E-3,1.69683E-2,1.10678874E-1,3.617674E-3,1.2692446E-1,2.0844609E-2],"categories":[],"categories_nodes":[],"categories_segments":[],"categories_sizes":[],"default_left":[true,true,true,true,true,true,false,false,false,false,false,false,false],"id":24,"left_children":[1,3,5,7,9,11,-1,-1,-1,-1,-1,-1,-1],"loss_changes":[4.5130156E-2,4.298742E-2,4.0882863E-3,3.7056707E-2,8.89096E-3,4.943043E-3,0E0,0E0,0E0,0E0,0E0,0E0,0E0],"parents":[2147483647,0,0,1,1,2,2,3,3,4,4,5,5],"right_children":[2,4,6,8,10,12,-1,-1,-1,-1,-1,-1,-1],"split_conditions":[5E-1,1.5E0,3.0333333E0,5E-1,3.35E1,5E-1,1.7410547E-3,-6.3974614E-4,1.69683E-3,1.1067888E-2,3.6176742E-4,1.2692446E-2,2.0844608E-3],"split_indices":[55,61,3,62,0,21,0,0,0,0,0,0,0],"split_type":[0,0,0,0,0,0,0,0,0,0,0,0,0],"sum_hessian":[2.93E2,2.88E2,5E0,2.83E2,5E0,4E0,1E0,1.11E2,1.72E2,4E0,1E0,3E0,1E0],"tree_param":{"num_deleted":"0","num_feature":"69","num_nodes":"13","size_leaf_vector":"0"}},{"base_weights":[1.0396119E-2,2.0050347E-2,-4.380365E-3,5.499439E-3,5.7190683E-2,5.0158087E-2,-1.9745793E-2,1.1528477E-2,-6.7398965E-2,3.684199E-2,1.3490127E-1,2.8201258E-2,1.6387033E-1,-7.263342E-2,-5.8997003E-3],"categories":[],"categories_nodes":[],"categories_segments":[],"categories_sizes":[],"default_left":[true,true,true,true,true,true,true,false,false,false,false,false,false,false,false],"id":25,"left_children":[1,3,5,7,9,11,13,-1,-1,-1,-1,-1,-1,-1,-1],"loss_changes":[4.2028558E-2,9.588125E-2,9.9037185E-2,5.7473443E-2,7.409541E-2,6.0294434E-2,6.6941895E-2,0E0,0E0,0E0,0E0,0E0,0E0,0E0,0E0],"parents":[2147483647,0,0,1,1,2,2,3,3,4,4,5,5,6,6],"right_children":[2,4,6,8,10,12,14,-1,-1,-1,-1,-1,-1,-1,-1],"split_conditions":[2.5E0,5E-1,1.45E1,5E-1,4.5E0,5E-1,2.31E2,1.1528478E-3,-6.7398967E-3,3.684199E-3,1.3490127E-2,2.8201258E-3,1.6387034E-2,-7.2633424E-3,-5.8997003E-4],"split_indices":[25,6,0,67,68,21,1,0,0,0,0,0,0,0,0],"split_type":[0,0,0,0,0,0,0,0,0,0,0,0,0,0,0],"sum_hessian":[2.93E2,1.77E2,1.16E2,1.28E2,4.9E1,2.5E1,9.1E1,1.19E2,9E0,4E1,9E0,2.2E1,3E0,1.8E1,7.3E1],"tree_param":{"num_deleted":"0","num_feature":"69","num_nodes":"15","size_leaf_vector":"0"}},{"base_weights":[9.434525E-3,7.7466657E-3,8.916065E-2,5.2430066E-3,6.510255E-2,1.0025878E-1,1.6835004E-2,1.0881542E-2,-2.0686349E-2,1.03002585E-1,-3.6448188E-2,1.157105E-1,1.9225955E-2],"categories":[],"categories_nodes":[],"categories_segments":[],"categories_sizes":[],"default_left":[true,true,true,true,true,true,false,false,false,false,false,false,false],"id":26,"left_children":[1,3,5,7,9,11,-1,-1,-1,-1,-1,-1,-1],"loss_changes":[3.887184E-2,4.115894E-2,3.1282194E-3,4.08697E-2,4.9939584E-2,4.035838E-3,0E0,0E0,0E0,0E0,0E0,0E0,0E0],"parents":[2147483647,0,0,1,1,2,2,3,3,4,4,5,5],"right_children":[2,4,6,8,10,12,-1,-1,-1,-1,-1,-1,-1],"split_conditions":[5E-1,1.5E0,3.0333333E0,1.5E0,1.5E0,5E-1,1.6835005E-3,1.0881543E-3,-2.0686348E-3,1.0300259E-2,-3.644819E-3,1.157105E-2,1.9225955E-3],"split_indices":[55,6,3,41,17,21,0,0,0,0,0,0,0],"split_type":[0,0,0,0,0,0,0,0,0,0,0,0,0],"sum_hessian":[2.93E2,2.88E2,5E0,2.77E2,1.1E1,4E0,1E0,2.28E2,4.9E1,8E0,3E0,3E0,1E0],"tree_param":{"num_deleted":"0","num_feature":"69","num_nodes":"13","size_leaf_vector":"0"}},{"base_weights":[8.562007E-3,1.3362918E-2,-1.8299988E-2,7.845673E-3,5.86407E-2,-8.2989335E-2,2.5538069E-3,1.2266652E-2,-4.6707813E-2,3.5745036E-2,1.8135451E-1,-1.5459244E-1,-3.6814116E-2,1.4241402E-2,-7.042004E-2],"categories":[],"categories_nodes":[],"categories_segments":[],"categories_sizes":[],"default_left":[true,true,true,true,true,true,true,false,false,false,false,false,false,false,false],"id":27,"left_children":[1,3,5,7,9,11,13,-1,-1,-1,-1,-1,-1,-1,-1],"loss_changes":[3.8159385E-2,6.199208E-2,6.0917772E-2,5.4597225E-2,6.9377065E-2,3.0677997E-2,3.085399E-2,0E0,0E0,0E0,0E0,0E0,0E0,0E0,0E0],"parents":[2147483647,0,0,1,1,2,2,3,3,4,4,5,5,6,6],"right_children":[2,4,6,8,10,12,14,-1,-1,-1,-1,-1,-1,-1,-1],"split_conditions":[2.775E0,2.539394E0,5E-1,2.4142857E0,7.5E0,2.89011E0,2.5E0,1.2266652E-3,-4.6707815E-3,3.5745036E-3,1.813545E-2,-1.5459244E-2,-3.6814117E-3,1.4241402E-3,-7.0420043E-3],"split_indices":[3,3,62,3,68,3,15,0,0,0,0,0,0,0,0],"split_type":[0,0,0,0,0,0,0,0,0,0,0,0,0,0,0],"sum_hessian":[2.93E2,2.49E2,4.4E1,2.23E2,2.6E1,1E1,3.4E1,2.07E2,1.6E1,2.3E1,3E0,3E0,7E0,3E1,4E0],"tree_param":{"num_deleted":"0","num_feature":"69","num_nodes":"15","size_leaf_vector":"0"}},{"base_weights":[7.6837265E-3,1.2906135E-2,-1.4741977E-2,-7.842168E-3,2.6889905E-2,-2.6604274E-2,8.854455E-2,3.6445606E-2,-2.7265565E-2,3.3937205E-2,-6.0762893E-2,-5.4778226E-2,2.3729658E-2,1.252015E-1,-4.7370076E-2],"categories":[],"categories_nodes":[],"categories_segments":[],"categories_sizes":[],"default_left":[true,true,true,true,true,true,true,false,false,false,false,false,false,false,false],"id":28,"left_children":[1,3,5,7,9,11,13,-1,-1,-1,-1,-1,-1,-1,-1],"loss_changes":[3.4622423E-2,6.9554225E-2,7.096773E-2,8.443495E-2,9.039545E-2,7.362327E-2,3.582409E-2,0E0,0E0,0E0,0E0,0E0,0E0,0E0,0E0],"parents":[2147483647,0,0,1,1,2,2,3,3,4,4,5,5,6,6],"right_children":[2,4,6,8,10,12,14,-1,-1,-1,-1,-1,-1,-1,-1],"split_conditions":[1.05E1,5E-1,5E-1,1.6904762E0,2.5E0,1.5E0,3.05E1,3.6445607E-3,-2.7265565E-3,3.3937206E-3,-6.0762893E-3,-5.477823E-3,2.372966E-3,1.2520149E-2,-4.737008E-3],"split_indices":[2,62,33,3,15,39,0,0,0,0,0,0,0,0,0],"split_type":[0,0,0,0,0,0,0,0,0,0,0,0,0,0,0],"sum_hessian":[2.93E2,2.38E2,5.5E1,9.6E1,1.42E2,5E1,5E0,2.9E1,6.7E1,1.32E2,1E1,3.2E1,1.8E1,4E0,1E0],"tree_param":{"num_deleted":"0","num_feature":"69","num_nodes":"15","size_leaf_vector":"0"}},{"base_weights":[6.9252676E-3,5.334134E-3,8.241064E-2,3.7147354E-3,8.109666E-2,9.1286935E-2,1.9014597E-2,1.5945284E-2,-6.00076E-3,1.2084434E-1,3.101173E-2,1.0451004E-1,1.9197255E-2],"categories":[],"categories_nodes":[],"categories_segments":[],"categories_sizes":[],"default_left":[true,true,true,true,true,true,false,false,false,false,false,false,false],"id":29,"left_children":[1,3,5,7,9,11,-1,-1,-1,-1,-1,-1,-1],"loss_changes":[3.487195E-2,3.5156086E-2,1.6405471E-3,3.3842217E-2,8.196969E-3,2.759941E-3,0E0,0E0,0E0,0E0,0E0,0E0,0E0],"parents":[2147483647,0,0,1,1,2,2,3,3,4,4,5,5],"right_children":[2,4,6,8,10,12,-1,-1,-1,-1,-1,-1,-1],"split_conditions":[5E-1,1.5E0,5E-1,1.5E0,1.15E1,3.0333333E0,1.9014598E-3,1.5945284E-3,-6.00076E-4,1.2084435E-2,3.101173E-3,1.0451004E-2,1.9197256E-3],"split_indices":[55,61,21,45,2,3,0,0,0,0,0,0,0],"split_type":[0,0,0,0,0,0,0,0,0,0,0,0,0],"sum_hessian":[2.93E2,2.88E2,5E0,2.83E2,5E0,4E0,1E0,1.25E2,1.58E2,2E0,3E0,3E0,1E0],"tree_param":{"num_deleted":"0","num_feature":"69","num_nodes":"13","size_leaf_vector":"0"}},{"base_weights":[6.3363253E-3,-4.522247E-2,8.500175E-3,-5.5629857E-2,3.4629405E-2,1.8839527E-2,-6.3303555E-3,-6.501326E-2,1.9102097E-2,5.8443975E-3,5.0014645E-2,4.0326968E-2,-1.9447314E-2],"categories":[],"categories_nodes":[],"categories_segments":[],"categories_sizes":[],"default_left":[true,true,true,true,false,true,true,false,false,false,false,false,false],"id":30,"left_children":[1,3,5,7,-1,9,11,-1,-1,-1,-1,-1,-1],"loss_changes":[3.3184633E-2,1.18990205E-2,4.351394E-2,8.955535E-3,0E0,6.736352E-2,7.23885E-2,0E0,0E0,0E0,0E0,0E0,0E0],"parents":[2147483647,0,0,1,1,2,2,3,3,5,5,6,6],"right_children":[2,4,6,8,-1,10,12,-1,-1,-1,-1,-1,-1],"split_conditions":[5E-1,5E-1,2.5E0,2.5E0,3.4629405E-3,5E-1,1.45E1,-6.501326E-3,1.9102097E-3,5.844398E-4,5.0014644E-3,4.032697E-3,-1.9447313E-3],"split_indices":[43,12,25,41,0,6,0,0,0,0,0,0,0],"split_type":[0,0,0,0,0,0,0,0,0,0,0,0,0],"sum_hessian":[2.93E2,1.1E1,2.82E2,1E1,1E0,1.66E2,1.16E2,9E0,1E0,1.18E2,4.8E1,2.5E1,9.1E1],"tree_param":{"num_deleted":"0","num_feature":"69","num_nodes":"13","size_leaf_vector":"0"}},{"base_weights":[5.7249586E-3,8.657282E-3,-3.2807503E-2,1.6097208E-2,-8.959341E-3,-6.429951E-2,1.6326228E-2,6.6430965E-3,4.9928825E-2,9.5064685E-2,-1.5512684E-2,1.7771661E-2,-7.261974E-2,7.0943736E-2,-4.1556526E-2],"categories":[],"categories_nodes":[],"categories_segments":[],"categories_sizes":[],"default_left":[true,true,true,true,true,true,true,false,false,false,false,false,false,false,false],"id":31,"left_children":[1,3,5,7,9,11,13,-1,-1,-1,-1,-1,-1,-1,-1],"loss_changes":[3.350298E-2,3.6056407E-2,3.3543482E-2,6.1398964E-2,5.7374533E-2,1.0167643E-2,3.140088E-2,0E0,0E0,0E0,0E0,0E0,0E0,0E0,0E0],"parents":[2147483647,0,0,1,1,2,2,3,3,4,4,5,5,6,6],"right_children":[2,4,6,8,10,12,14,-1,-1,-1,-1,-1,-1,-1,-1],"split_conditions":[1.5E0,2.5E0,1.95E1,1.75E1,5E-1,1.35E1,5E0,6.6430966E-4,4.9928827E-3,9.506469E-3,-1.5512685E-3,1.7771662E-3,-7.2619743E-3,7.0943735E-3,-4.1556526E-3],"split_indices":[35,42,0,0,25,0,68,0,0,0,0,0,0,0,0],"split_type":[0,0,0,0,0,0,0,0,0,0,0,0,0,0,0],"sum_hessian":[2.93E2,2.73E2,2E1,1.92E2,8.1E1,1.2E1,8E0,1.51E2,4.1E1,4E0,7.7E1,1E0,1.1E1,4E0,4E0],"tree_param":{"num_deleted":"0","num_feature":"69","num_nodes":"15","size_leaf_vector":"0"}},{"base_weights":[5.1901094E-3,3.0107407E-3,5.615438E-2,1.4699728E-2,-6.599523E-3,9.733584E-2,-2.0966822E-2,1.7743096E-2,-1.18021585E-1,-6.104178E-2,1.8555279E-3,-1.5855134E-2,1.15770996E-1,-2.5413433E-4,-3.469057E-2],"categories":[],"categories_nodes":[],"categories_segments":[],"categories_sizes":[],"default_left":[true,true,true,true,true,true,true,false,false,false,false,false,false,false,false],"id":32,"left_children":[1,3,5,7,9,11,13,-1,-1,-1,-1,-1,-1,-1,-1],"loss_changes":[3.24855E-2,3.1887606E-2,4.0152386E-2,5.3795777E-2,7.1921945E-2,1.8529117E-2,1.4124622E-3,0E0,0E0,0E0,0E0,0E0,0E0,0E0,0E0],"parents":[2147483647,0,0,1,1,2,2,3,3,4,4,5,5,6,6],"right_children":[2,4,6,8,10,12,14,-1,-1,-1,-1,-1,-1,-1,-1],"split_conditions":[1.5E0,1.5E0,5E-1,5E-1,2.015E2,1.7386364E0,1.5E0,1.7743096E-3,-1.1802158E-2,-6.1041783E-3,1.855528E-4,-1.5855134E-3,1.15771E-2,-2.5413434E-5,-3.4690571E-3],"split_indices":[6,45,35,4,1,3,17,0,0,0,0,0,0,0,0],"split_type":[0,0,0,0,0,0,0,0,0,0,0,0,0,0,0],"sum_hessian":[2.93E2,2.82E2,1.1E1,1.27E2,1.55E2,7E0,4E0,1.25E2,2E0,2E1,1.35E2,1E0,6E0,2E0,2E0],"tree_param":{"num_deleted":"0","num_feature":"69","num_nodes":"15","size_leaf_vector":"0"}},{"base_weights":[4.6389583E-3,3.17375E-3,7.4439995E-2,1.6969199E-3,7.2548084E-2,8.16887E-2,1.9098222E-2,4.2972746E-3,-3.2842625E-2,8.62989E-2,1.8970072E-3,9.21433E-2,1.993516E-2],"categories":[],"categories_nodes":[],"categories_segments":[],"categories_sizes":[],"default_left":[true,true,true,true,true,true,false,false,false,false,false,false,false],"id":33,"left_children":[1,3,5,7,9,11,-1,-1,-1,-1,-1,-1,-1],"loss_changes":[2.9832022E-2,2.9486125E-2,8.4682927E-4,2.564861E-2,5.665347E-3,1.39115E-3,0E0,0E0,0E0,0E0,0E0,0E0,0E0],"parents":[2147483647,0,0,1,1,2,2,3,3,4,4,5,5],"right_children":[2,4,6,8,10,12,-1,-1,-1,-1,-1,-1,-1],"split_conditions":[5E-1,1.5E0,3.0333333E0,1.5E0,3.35E1,5E-1,1.9098222E-3,4.2972746E-4,-3.2842625E-3,8.62989E-3,1.8970073E-4,9.2143295E-3,1.9935162E-3],"split_indices":[55,61,3,35,0,21,0,0,0,0,0,0,0],"split_type":[0,0,0,0,0,0,0,0,0,0,0,0,0],"sum_hessian":[2.93E2,2.88E2,5E0,2.83E2,5E0,4E0,1E0,2.64E2,1.9E1,4E0,1E0,3E0,1E0],"tree_param":{"num_deleted":"0","num_feature":"69","num_nodes":"13","size_leaf_vector":"0"}},{"base_weights":[4.239951E-3,8.378654E-3,-1.8847067E-2,3.5500207E-3,4.8128106E-2,-7.527034E-2,-5.7555095E-4,7.3796096E-3,-4.351495E-2,2.7229678E-2,1.6148666E-1,-1.4266446E-1,-3.2164488E-2,-6.8853637E-3,1.0697904E-1],"categories":[],"categories_nodes":[],"categories_segments":[],"categories_sizes":[],"default_left":[true,true,true,true,true,true,true,false,false,false,false,false,false,false,false],"id":34,"left_children":[1,3,5,7,9,11,13,-1,-1,-1,-1,-1,-1,-1,-1],"loss_changes":[2.8249705E-2,4.7813028E-2,4.6348922E-2,4.069477E-2,5.9566192E-2,2.7367163E-2,2.4489315E-2,0E0,0E0,0E0,0E0,0E0,0E0,0E0,0E0],"parents":[2147483647,0,0,1,1,2,2,3,3,4,4,5,5,6,6],"right_children":[2,4,6,8,10,12,14,-1,-1,-1,-1,-1,-1,-1,-1],"split_conditions":[2.775E0,2.539394E0,5E-1,2.4142857E0,7.5E0,2.89011E0,5E-1,7.37961E-4,-4.351495E-3,2.7229679E-3,1.6148666E-2,-1.4266446E-2,-3.216449E-3,-6.885364E-4,1.0697904E-2],"split_indices":[3,3,62,3,68,3,5,0,0,0,0,0,0,0,0],"split_type":[0,0,0,0,0,0,0,0,0,0,0,0,0,0,0],"sum_hessian":[2.93E2,2.49E2,4.4E1,2.23E2,2.6E1,1E1,3.4E1,2.07E2,1.6E1,2.3E1,3E0,3E0,7E0,3.3E1,1E0],"tree_param":{"num_deleted":"0","num_feature":"69","num_nodes":"15","size_leaf_vector":"0"}},{"base_weights":[3.8424314E-3,-4.2299546E-2,5.7854042E-3,-5.5463795E-2,1.5681127E-2,8.432612E-2,4.06947E-3,-6.52584E-2,1.6343832E-2,-7.573098E-3,3.109479E-2,1.01459585E-1,-6.7061186E-4,1.2242701E-2,-8.153736E-3],"categories":[],"categories_nodes":[],"categories_segments":[],"categories_sizes":[],"default_left":[true,true,true,true,true,true,true,false,false,false,false,false,false,false,false],"id":35,"left_children":[1,3,5,7,9,11,13,-1,-1,-1,-1,-1,-1,-1,-1],"loss_changes":[2.6602589E-2,1.0028999E-2,3.7796944E-2,8.099845E-3,1.3107822E-3,8.80577E-3,2.787288E-2,0E0,0E0,0E0,0E0,0E0,0E0,0E0,0E0],"parents":[2147483647,0,0,1,1,2,2,3,3,4,4,5,5,6,6],"right_children":[2,4,6,8,10,12,14,-1,-1,-1,-1,-1,-1,-1,-1],"split_conditions":[5E-1,1.5E0,1.31E2,2.5E0,1.4E1,5E-1,5E-1,-6.52584E-3,1.6343832E-3,-7.573098E-4,3.109479E-3,1.01459585E-2,-6.7061184E-5,1.2242701E-3,-8.1537355E-4],"split_indices":[43,15,1,41,0,7,59,0,0,0,0,0,0,0,0],"split_type":[0,0,0,0,0,0,0,0,0,0,0,0,0,0,0],"sum_hessian":[2.93E2,1.1E1,2.82E2,9E0,2E0,5E0,2.77E2,8E0,1E0,1E0,1E0,4E0,1E0,1.66E2,1.11E2],"tree_param":{"num_deleted":"0","num_feature":"69","num_nodes":"15","size_leaf_vector":"0"}},{"base_weights":[3.485225E-3,1.5204926E-3,4.9529728E-2,1.8278364E-2,-4.7204574E-3,8.0365025E-2,-3.2232113E-2,2.5028897E-2,-1.1117609E-1,-3.8580272E-2,4.9231965E-3,1.03324994E-1,3.417333E-6],"categories":[],"categories_nodes":[],"categories_segments":[],"categories_sizes":[],"default_left":[true,true,true,true,true,true,false,false,false,false,false,false,false],"id":36,"left_children":[1,3,5,7,9,11,-1,-1,-1,-1,-1,-1,-1],"loss_changes":[2.6521439E-2,2.9683847E-2,3.2844137E-2,7.007189E-2,6.778213E-2,1.6605549E-2,0E0,0E0,0E0,0E0,0E0,0E0,0E0],"parents":[2147483647,0,0,1,1,2,2,3,3,4,4,5,5],"right_children":[2,4,6,8,10,12,-1,-1,-1,-1,-1,-1,-1],"split_conditions":[1.5E0,1.35E1,1.5E0,5E-1,2.175E2,5E-1,-3.2232113E-3,2.5028898E-3,-1.1117609E-2,-3.8580273E-3,4.9231964E-4,1.03325E-2,3.4173328E-7],"split_indices":[6,0,17,60,1,35,0,0,0,0,0,0,0],"split_type":[0,0,0,0,0,0,0,0,0,0,0,0,0],"sum_hessian":[2.93E2,2.82E2,1.1E1,7.6E1,2.06E2,8E0,3E0,7.3E1,3E0,4.5E1,1.61E2,6E0,2E0],"tree_param":{"num_deleted":"0","num_feature":"69","num_nodes":"13","size_leaf_vector":"0"}},{"base_weights":[3.1201206E-3,4.5850687E-3,-5.7597768E-2,-2.3569143E-4,3.5369813E-2,-8.373231E-3,-6.440632E-2,9.514062E-3,-2.0326821E-2,-4.1152697E-2,4.7833495E-2,-8.009882E-2,-2.201421E-2],"categories":[],"categories_nodes":[],"categories_segments":[],"categories_sizes":[],"default_left":[true,true,true,true,true,false,true,false,false,false,false,false,false],"id":37,"left_children":[1,3,5,7,9,-1,11,-1,-1,-1,-1,-1,-1],"loss_changes":[2.6414968E-2,4.2749226E-2,1.8067453E-3,4.9164277E-2,3.9164815E-2,0E0,2.2281185E-3,0E0,0E0,0E0,0E0,0E0,0E0],"parents":[2147483647,0,0,1,1,2,2,3,3,4,4,6,6],"right_children":[2,4,6,8,10,-1,12,-1,-1,-1,-1,-1,-1],"split_conditions":[5E-1,4.5E0,5E-1,5E-1,2.215E2,-8.373231E-4,5E-1,9.514062E-4,-2.032682E-3,-4.11527E-3,4.7833496E-3,-8.009883E-3,-2.201421E-3],"split_indices":[16,43,9,35,1,0,7,0,0,0,0,0,0],"split_type":[0,0,0,0,0,0,0,0,0,0,0,0,0],"sum_hessian":[2.93E2,2.87E2,6E0,2.49E2,3.8E1,1E0,5E0,1.68E2,8.1E1,5E0,3.3E1,3E0,2E0],"tree_param":{"num_deleted":"0","num_feature":"69","num_nodes":"13","size_leaf_vector":"0"}},{"base_weights":[2.769127E-3,7.194612E-3,-1.616766E-2,-1.0071658E-2,1.8856386E-2,-2.7003359E-2,7.8630395E-2,2.9353604E-2,-2.7317042E-2,2.5218006E-2,-5.9775606E-2,-5.2172948E-2,1.8133469E-2,1.0900091E-1,-3.661108E-2],"categories":[],"categories_nodes":[],"categories_segments":[],"categories_sizes":[],"default_left":[true,true,true,true,true,true,true,false,false,false,false,false,false,false,false],"id":38,"left_children":[1,3,5,7,9,11,13,-1,-1,-1,-1,-1,-1,-1,-1],"loss_changes":[2.4754832E-2,4.8313834E-2,5.9646666E-2,6.675252E-2,7.303986E-2,5.888592E-2,2.4990294E-2,0E0,0E0,0E0,0E0,0E0,0E0,0E0,0E0],"parents":[2147483647,0,0,1,1,2,2,3,3,4,4,5,5,6,6],"right_children":[2,4,6,8,10,12,14,-1,-1,-1,-1,-1,-1,-1,-1],"split_conditions":[1.05E1,5E-1,5E-1,1.6904762E0,2.5E0,1.5E0,3.05E1,2.9353604E-3,-2.7317042E-3,2.5218006E-3,-5.9775608E-3,-5.2172947E-3,1.8133469E-3,1.090009E-2,-3.661108E-3],"split_indices":[2,62,33,3,15,39,0,0,0,0,0,0,0,0,0],"split_type":[0,0,0,0,0,0,0,0,0,0,0,0,0,0,0],"sum_hessian":[2.93E2,2.38E2,5.5E1,9.6E1,1.42E2,5E1,5E0,2.9E1,6.7E1,1.32E2,1E1,3.2E1,1.8E1,4E0,1E0],"tree_param":{"num_deleted":"0","num_feature":"69","num_nodes":"15","size_leaf_vector":"0"}},{"base_weights":[2.49419E-3,1.1900862E-3,6.489282E-2,-2.2772711E-3,2.4152823E-2,7.023618E-2,1.9088E-2,-2.1737454E-2,7.93546E-3,-1.6417941E-2,7.014356E-2,7.739362E-2,2.0803213E-2],"categories":[],"categories_nodes":[],"categories_segments":[],"categories_sizes":[],"default_left":[true,true,true,true,true,true,false,false,false,false,false,false,false],"id":39,"left_children":[1,3,5,7,9,11,-1,-1,-1,-1,-1,-1,-1],"loss_changes":[2.384681E-2,2.3065187E-2,1.2784451E-4,5.0255384E-2,7.205503E-2,1.5903078E-4,0E0,0E0,0E0,0E0,0E0,0E0,0E0],"parents":[2147483647,0,0,1,1,2,2,3,3,4,4,5,5],"right_children":[2,4,6,8,10,12,-1,-1,-1,-1,-1,-1,-1],"split_conditions":[5E-1,5E-1,5E-1,5E-1,3.5E0,3.0333333E0,1.9088E-3,-2.1737455E-3,7.93546E-4,-1.6417941E-3,7.014356E-3,7.7393623E-3,2.0803213E-3],"split_indices":[55,18,21,36,68,3,0,0,0,0,0,0,0],"split_type":[0,0,0,0,0,0,0,0,0,0,0,0,0],"sum_hessian":[2.93E2,2.88E2,5E0,2.51E2,3.7E1,4E0,1E0,8.6E1,1.65E2,2E1,1.7E1,3E0,1E0],"tree_param":{"num_deleted":"0","num_feature":"69","num_nodes":"13","size_leaf_vector":"0"}}]},"name":"gbtree"},"learner_model_param":{"base_score":"5E-1","num_class":"0","num_feature":"69"},"objective":{"name":"reg:squarederror","reg_loss_param":{"scale_pos_weight":"1"}}},"version":[1,4,1]}