{"learner":{"attributes":{},"feature_names":[],"feature_types":[],"gradient_booster":{"model":{"gbtree_model_param":{"num_trees":"40","size_leaf_vector":"0"},"tree_info":[0,0,0,0,0,0,0,0,0,0,0,0,0,0,0,0,0,0,0,0,0,0,0,0,0,0,0,0,0,0,0,0,0,0,0,0,0,0,0,0],"trees":[{"base_weights":[1.3109593E-1,1.696817E-1,7.5621784E-2,1.7999606E-1,2.9683206E-2,1.0631257E-1,3.3659965E-2,1.8529229E-1,-2.1245312E-2,5.9365865E-2,-8.904761E-2,2.627129E-2,1.29542E-1,-3.1959422E-2,7.439776E-2],"categories":[],"categories_nodes":[],"categories_segments":[],"categories_sizes":[],"default_left":[true,true,true,true,true,true,true,false,false,false,false,false,false,false,false],"id":0,"left_children":[1,3,5,7,9,11,13,-1,-1,-1,-1,-1,-1,-1,-1],"loss_changes":[6.143384E-1,2.4302435E-1,1.5353811E-1,1.7446756E-1,5.110159E-2,1.2674868E-1,1.4405671E-1,0E0,0E0,0E0,0E0,0E0,0E0,0E0,0E0],"parents":[2147483647,0,0,1,1,2,2,3,3,4,4,5,5,6,6],"right_children":[2,4,6,8,10,12,14,-1,-1,-1,-1,-1,-1,-1,-1],"split_conditions":[5.5E0,1.5E0,5E-1,1.5E0,1.5E0,2.165E2,5E-1,1.8529229E-2,-2.1245312E-3,5.9365868E-3,-8.904762E-3,2.627129E-3,1.29542E-2,-3.1959421E-3,7.439776E-3],"split_indices":[20,35,57,57,53,1,48,0,0,0,0,0,0,0,0],"split_type":[0,0,0,0,0,0,0,0,0,0,0,0,0,0,0],"sum_hessian":[2.92E2,1.71E2,1.21E2,1.59E2,1.2E1,6.9E1,5.2E1,1.55E2,4E0,1E1,2E0,1.6E1,5.3E1,2E1,3.2E1],"tree_param":{"num_deleted":"0","num_feature":"69","num_nodes":"15","size_leaf_vector":"0"}},{"base_weights":[1.1809986E-1,1.5279163E-1,6.822211E-2,1.6209897E-1,2.6486583E-2,9.590392E-2,3.037403E-2,-4.54062E-2,1.6635326E-1,5.3968992E-2,-8.311111E-2,2.3798691E-2,1.1682772E-1,6.9855824E-2,-2.843467E-2],"categories":[],"categories_nodes":[],"categories_segments":[],"categories_sizes":[],"default_left":[true,true,true,true,true,true,true,false,false,false,false,false,false,false,false],"id":1,"left_children":[1,3,5,7,9,11,13,-1,-1,-1,-1,-1,-1,-1,-1],"loss_changes":[4.9656773E-1,1.9790363E-1,1.2490684E-1,1.4879894E-1,4.364153E-2,1.02829695E-1,1.2504558E-1,0E0,0E0,0E0,0E0,0E0,0E0,0E0,0E0],"parents":[2147483647,0,0,1,1,2,2,3,3,4,4,5,5,6,6],"right_children":[2,4,6,8,10,12,14,-1,-1,-1,-1,-1,-1,-1,-1],"split_conditions":[5.5E0,1.5E0,5E-1,4.5E0,1.5E0,2.165E2,5E-1,-4.54062E-3,1.6635327E-2,5.3968993E-3,-8.311111E-3,2.379869E-3,1.1682772E-2,6.9855824E-3,-2.843467E-3],"split_indices":[20,35,57,2,53,1,35,0,0,0,0,0,0,0,0],"split_type":[0,0,0,0,0,0,0,0,0,0,0,0,0,0,0],"sum_hessian":[2.92E2,1.71E2,1.21E2,1.59E2,1.2E1,6.9E1,5.2E1,3E0,1.56E2,1E1,2E0,1.6E1,5.3E1,3.1E1,2.1E1],"tree_param":{"num_deleted":"0","num_feature":"69","num_nodes":"15","size_leaf_vector":"0"}},{"base_weights":[1.0638335E-1,1.28347E-1,4.0831074E-2,1.4701322E-1,8.6514436E-2,2.0507134E-2,1.0405093E-1,1.5425235E-1,4.1513808E-2,6.3911825E-2,1.482602E-1,3.457202E-2,-1.0715055E-1,1.4770772E-1,-3.8998276E-2],"categories":[],"categories_nodes":[],"categories_segments":[],"categories_sizes":[],"default_left":[true,true,true,true,true,true,true,false,false,false,false,false,false,false,false],"id":2,"left_children":[1,3,5,7,9,11,13,-1,-1,-1,-1,-1,-1,-1,-1],"loss_changes":[4.1661096E-1,1.5828848E-1,9.423195E-2,1.0815525E-1,8.82175E-2,1.0784288E-1,1.181716E-1,0E0,0E0,0E0,0E0,0E0,0E0,0E0,0E0],"parents":[2147483647,0,0,1,1,2,2,3,3,4,4,5,5,6,6],"right_children":[2,4,6,8,10,12,14,-1,-1,-1,-1,-1,-1,-1,-1],"split_conditions":[5E-1,5.5E0,5E-1,1.5E0,5E-1,3.5192308E0,2.7333333E0,1.5425235E-2,4.151381E-3,6.3911825E-3,1.4826021E-2,3.457202E-3,-1.0715055E-2,1.4770771E-2,-3.8998276E-3],"split_indices":[57,20,7,35,61,3,3,0,0,0,0,0,0,0,0],"split_type":[0,0,0,0,0,0,0,0,0,0,0,0,0,0,0],"sum_hessian":[2.92E2,2.18E2,7.4E1,1.49E2,6.9E1,5.7E1,1.7E1,1.39E2,1E1,5.2E1,1.7E1,5.2E1,5E0,1.3E1,4E0],"tree_param":{"num_deleted":"0","num_feature":"69","num_nodes":"15","size_leaf_vector":"0"}},{"base_weights":[9.589657E-2,1.1569855E-1,3.6796156E-2,-2.7170466E-2,1.198506E-1,1.83313E-2,9.424979E-2,-7.15144E-2,5.579291E-2,1.6457671E-1,1.0164659E-1,3.1180063E-2,-9.8221324E-2,1.3399203E-1,-3.5878412E-2],"categories":[],"categories_nodes":[],"categories_segments":[],"categories_sizes":[],"default_left":[true,true,true,true,true,true,true,false,false,false,false,false,false,false,false],"id":3,"left_children":[1,3,5,7,9,11,13,-1,-1,-1,-1,-1,-1,-1,-1],"loss_changes":[3.3864236E-1,1.3316679E-1,7.7837765E-2,2.974245E-2,1.5669465E-1,8.992085E-2,9.7895935E-2,0E0,0E0,0E0,0E0,0E0,0E0,0E0,0E0],"parents":[2147483647,0,0,1,1,2,2,3,3,4,4,5,5,6,6],"right_children":[2,4,6,8,10,12,14,-1,-1,-1,-1,-1,-1,-1,-1],"split_conditions":[5E-1,5E-1,5E-1,5E-1,1.945E2,3.5192308E0,2.7333333E0,-7.15144E-3,5.579291E-3,1.6457671E-2,1.0164659E-2,3.1180063E-3,-9.822133E-3,1.3399203E-2,-3.5878413E-3],"split_indices":[57,43,7,17,1,3,3,0,0,0,0,0,0,0,0],"split_type":[0,0,0,0,0,0,0,0,0,0,0,0,0,0,0],"sum_hessian":[2.92E2,2.18E2,7.4E1,6E0,2.12E2,5.7E1,1.7E1,4E0,2E0,5.9E1,1.53E2,5.2E1,5E0,1.3E1,4E0],"tree_param":{"num_deleted":"0","num_feature":"69","num_nodes":"15","size_leaf_vector":"0"}},{"base_weights":[8.6403005E-2,1.1278133E-1,4.8505675E-2,1.20455585E-1,9.653513E-3,5.3084157E-2,-9.983055E-2,1.2476848E-1,-3.8197864E-2,5.357448E-2,-5.0516695E-2,3.9339356E-2,9.846128E-2,-1.1351054E-1,-2.9395282E-2],"categories":[],"categories_nodes":[],"categories_segments":[],"categories_sizes":[],"default_left":[true,true,true,true,true,true,true,false,false,false,false,false,false,false,false],"id":4,"left_children":[1,3,5,7,9,11,13,-1,-1,-1,-1,-1,-1,-1,-1],"loss_changes":[2.874322E-1,1.349628E-1,8.815628E-2,1.14246845E-1,3.706194E-2,7.034686E-2,5.175434E-4,0E0,0E0,0E0,0E0,0E0,0E0,0E0,0E0],"parents":[2147483647,0,0,1,1,2,2,3,3,4,4,5,5,6,6],"right_children":[2,4,6,8,10,12,14,-1,-1,-1,-1,-1,-1,-1,-1],"split_conditions":[5.5E0,1.5E0,5E-1,1.5E0,5E-1,5E-1,2E1,1.2476848E-2,-3.8197865E-3,5.357448E-3,-5.0516697E-3,3.933936E-3,9.846128E-3,-1.13510545E-2,-2.9395283E-3],"split_indices":[20,35,64,57,59,6,0,0,0,0,0,0,0,0,0],"split_type":[0,0,0,0,0,0,0,0,0,0,0,0,0,0,0],"sum_hessian":[2.92E2,1.71E2,1.21E2,1.59E2,1.2E1,1.18E2,3E0,1.55E2,4E0,7E0,5E0,9.2E1,2.6E1,2E0,1E0],"tree_param":{"num_deleted":"0","num_feature":"69","num_nodes":"15","size_leaf_vector":"0"}},{"base_weights":[7.779156E-2,9.465205E-2,2.752168E-2,-3.0490786E-2,9.832035E-2,3.5586808E-2,-9.25075E-2,-7.0648976E-2,4.6603125E-2,1.3751553E-1,8.241106E-2,-4.1617677E-2,4.8925538E-2],"categories":[],"categories_nodes":[],"categories_segments":[],"categories_sizes":[],"default_left":[true,true,true,true,true,true,false,false,false,false,false,false,false],"id":5,"left_children":[1,3,5,7,9,11,-1,-1,-1,-1,-1,-1,-1],"loss_changes":[2.4573433E-1,1.0353243E-1,7.589587E-2,2.4964126E-2,1.214869E-1,7.5152665E-2,0E0,0E0,0E0,0E0,0E0,0E0,0E0],"parents":[2147483647,0,0,1,1,2,2,3,3,4,4,5,5],"right_children":[2,4,6,8,10,12,-1,-1,-1,-1,-1,-1,-1],"split_conditions":[5E-1,5E-1,5E-1,5E-1,1.945E2,5.5E0,-9.25075E-3,-7.0648976E-3,4.6603126E-3,1.3751553E-2,8.241106E-3,-4.1617677E-3,4.8925537E-3],"split_indices":[57,43,23,17,1,2,0,0,0,0,0,0,0],"split_type":[0,0,0,0,0,0,0,0,0,0,0,0,0],"sum_hessian":[2.92E2,2.18E2,7.4E1,6E0,2.12E2,7E1,4E0,4E0,2E0,5.9E1,1.53E2,1E1,6E1],"tree_param":{"num_deleted":"0","num_feature":"69","num_nodes":"13","size_leaf_vector":"0"}},{"base_weights":[7.005017E-2,9.240135E-2,3.796449E-2,9.9337615E-2,-7.585837E-5,4.2109005E-2,-9.482597E-2,9.000105E-2,1.7774169E-1,4.0716697E-2,-5.4453287E-2,3.7360877E-2,1.692775E-1],"categories":[],"categories_nodes":[],"categories_segments":[],"categories_sizes":[],"default_left":[true,true,true,true,true,true,false,false,false,false,false,false,false],"id":6,"left_children":[1,3,5,7,9,11,-1,-1,-1,-1,-1,-1,-1],"loss_changes":[2.0661795E-1,1.103363E-1,7.113598E-2,1.0112715E-1,3.1053685E-2,6.552932E-2,0E0,0E0,0E0,0E0,0E0,0E0,0E0],"parents":[2147483647,0,0,1,1,2,2,3,3,4,4,5,5],"right_children":[2,4,6,8,10,12,-1,-1,-1,-1,-1,-1,-1],"split_conditions":[5.5E0,1.5E0,5E-1,4.5E0,5E-1,1.5E0,-9.482597E-3,9.000105E-3,1.777417E-2,4.0716697E-3,-5.445329E-3,3.7360878E-3,1.692775E-2],"split_indices":[20,35,64,43,59,61,0,0,0,0,0,0,0],"split_type":[0,0,0,0,0,0,0,0,0,0,0,0,0],"sum_hessian":[2.92E2,1.71E2,1.21E2,1.59E2,1.2E1,1.18E2,3E0,1.44E2,1.5E1,7E0,5E0,1.15E2,3E0],"tree_param":{"num_deleted":"0","num_feature":"69","num_nodes":"13","size_leaf_vector":"0"}},{"base_weights":[6.317E-2,7.7753246E-2,1.9744666E-2,-3.2491595E-2,8.101127E-2,4.8997167E-2,-1.1622693E-2,-6.903874E-2,3.925085E-2,2.319471E-1,7.7012755E-2,1.11540176E-1,-4.4015255E-3,2.9808028E-2,-8.18166E-2],"categories":[],"categories_nodes":[],"categories_segments":[],"categories_sizes":[],"default_left":[true,true,true,true,true,true,true,false,false,false,false,false,false,false,false],"id":7,"left_children":[1,3,5,7,9,11,13,-1,-1,-1,-1,-1,-1,-1,-1],"loss_changes":[1.8401647E-1,8.129287E-2,6.938752E-2,2.1063702E-2,1.1068678E-1,1.3073982E-1,1.100416E-1,0E0,0E0,0E0,0E0,0E0,0E0,0E0,0E0],"parents":[2147483647,0,0,1,1,2,2,3,3,4,4,5,5,6,6],"right_children":[2,4,6,8,10,12,14,-1,-1,-1,-1,-1,-1,-1,-1],"split_conditions":[5E-1,5E-1,5E-1,5E-1,1.31E2,8.5E0,2.7571428E0,-6.903874E-3,3.925085E-3,2.319471E-2,7.7012754E-3,1.1154017E-2,-4.4015257E-4,2.980803E-3,-8.18166E-3],"split_indices":[57,43,35,17,1,2,3,0,0,0,0,0,0,0,0],"split_type":[0,0,0,0,0,0,0,0,0,0,0,0,0,0,0],"sum_hessian":[2.92E2,2.18E2,7.4E1,6E0,2.12E2,3.8E1,3.6E1,4E0,2E0,4E0,2.08E2,1.7E1,2.1E1,2.3E1,1.3E1],"tree_param":{"num_deleted":"0","num_feature":"69","num_nodes":"15","size_leaf_vector":"0"}},{"base_weights":[5.6967095E-2,7.606449E-2,2.9575959E-2,8.230205E-2,-6.5565845E-3,1.4879904E-2,6.426987E-2,5.336046E-2,1.0421928E-1,1.7374052E-2,-9.211672E-2,3.2427322E-2,-3.5357583E-2,2.1747716E-2,1.1051536E-1],"categories":[],"categories_nodes":[],"categories_segments":[],"categories_sizes":[],"default_left":[true,true,true,true,true,true,true,false,false,false,false,false,false,false,false],"id":8,"left_children":[1,3,5,7,9,11,13,-1,-1,-1,-1,-1,-1,-1,-1],"loss_changes":[1.5101844E-1,8.918041E-2,6.124705E-2,9.592998E-2,2.8218051E-2,7.784037E-2,6.838901E-2,0E0,0E0,0E0,0E0,0E0,0E0,0E0,0E0],"parents":[2147483647,0,0,1,1,2,2,3,3,4,4,5,5,6,6],"right_children":[2,4,6,8,10,12,14,-1,-1,-1,-1,-1,-1,-1,-1],"split_conditions":[5.5E0,1.5E0,1.5E0,5E-1,1.5E0,1.05E1,5E-1,5.3360458E-3,1.0421928E-2,1.7374052E-3,-9.2116725E-3,3.2427323E-3,-3.5357585E-3,2.1747716E-3,1.1051537E-2],"split_indices":[20,35,15,36,53,2,61,0,0,0,0,0,0,0,0],"split_type":[0,0,0,0,0,0,0,0,0,0,0,0,0,0,0],"sum_hessian":[2.92E2,1.71E2,1.21E2,1.59E2,1.2E1,8.6E1,3.5E1,7E1,8.9E1,1E1,2E0,6.4E1,2.2E1,1.9E1,1.6E1],"tree_param":{"num_deleted":"0","num_feature":"69","num_nodes":"15","size_leaf_vector":"0"}},{"base_weights":[5.1342797E-2,6.3789584E-2,1.4313607E-2,9.20627E-2,5.178145E-2,-2.156838E-3,6.658984E-2,-2.0672925E-2,1.1332249E-1,-4.697668E-2,5.7437137E-2,9.240463E-2,-1.9134765E-2,1.6915037E-1,1.213712E-3],"categories":[],"categories_nodes":[],"categories_segments":[],"categories_sizes":[],"default_left":[true,true,true,true,true,true,true,false,false,false,false,false,false,false,false],"id":9,"left_children":[1,3,5,7,9,11,13,-1,-1,-1,-1,-1,-1,-1,-1],"loss_changes":[1.3412899E-1,6.9584966E-2,6.471958E-2,1.5573388E-1,8.983123E-2,9.4884686E-2,1.2048487E-1,0E0,0E0,0E0,0E0,0E0,0E0,0E0,0E0],"parents":[2147483647,0,0,1,1,2,2,3,3,4,4,5,5,6,6],"right_children":[2,4,6,8,10,12,14,-1,-1,-1,-1,-1,-1,-1,-1],"split_conditions":[5E-1,1.945E2,1.5E0,5E-1,1.965E2,1.35E1,2.5E0,-2.0672926E-3,1.1332249E-2,-4.6976684E-3,5.7437136E-3,9.240462E-3,-1.9134766E-3,1.6915036E-2,1.213712E-4],"split_indices":[57,1,48,42,1,0,57,0,0,0,0,0,0,0,0],"split_type":[0,0,0,0,0,0,0,0,0,0,0,0,0,0,0],"sum_hessian":[2.92E2,2.18E2,7.4E1,6.3E1,1.55E2,5.7E1,1.7E1,1E1,5.3E1,8E0,1.47E2,8E0,4.9E1,6E0,1.1E1],"tree_param":{"num_deleted":"0","num_feature":"69","num_nodes":"15","size_leaf_vector":"0"}},{"base_weights":[4.6326842E-2,6.274654E-2,2.279803E-2,5.434392E-2,1.3161655E-1,1.872708E-2,1.3820925E-1,6.674194E-2,-2.7945485E-2,1.8152906E-1,2.7249876E-2,5.4352074E-3,5.9790306E-2],"categories":[],"categories_nodes":[],"categories_segments":[],"categories_sizes":[],"default_left":[true,true,true,true,true,true,false,false,false,false,false,false,false],"id":10,"left_children":[1,3,5,7,9,11,-1,-1,-1,-1,-1,-1,-1],"loss_changes":[1.1176598E-1,9.2381835E-2,5.47314E-2,1.6000023E-1,8.8819E-2,6.462608E-2,0E0,0E0,0E0,0E0,0E0,0E0,0E0],"parents":[2147483647,0,0,1,1,2,2,3,3,4,4,5,5],"right_children":[2,4,6,8,10,12,-1,-1,-1,-1,-1,-1,-1],"split_conditions":[5.5E0,4.5E0,1.5E0,2.405E2,1.15E1,1.5E0,1.3820926E-2,6.6741942E-3,-2.7945486E-3,1.8152906E-2,2.7249877E-3,5.435207E-4,5.979031E-3],"split_indices":[20,43,61,1,2,48,0,0,0,0,0,0,0],"split_type":[0,0,0,0,0,0,0,0,0,0,0,0,0],"sum_hessian":[2.92E2,1.71E2,1.21E2,1.54E2,1.7E1,1.18E2,3E0,1.34E2,2E1,1.1E1,6E0,9E1,2.8E1],"tree_param":{"num_deleted":"0","num_feature":"69","num_nodes":"13","size_leaf_vector":"0"}},{"base_weights":[4.1848097E-2,5.2674096E-2,9.678202E-3,6.287371E-2,2.3948457E-2,-5.7391934E-3,5.8818795E-2,1.9268297E-1,5.8339193E-2,-9.369606E-3,6.963581E-2,-1.180305E-2,1.699503E-1,9.26967E-2,-4.7803085E-2],"categories":[],"categories_nodes":[],"categories_segments":[],"categories_sizes":[],"default_left":[true,true,true,true,true,true,true,false,false,false,false,false,false,false,false],"id":11,"left_children":[1,3,5,7,9,11,13,-1,-1,-1,-1,-1,-1,-1,-1],"loss_changes":[1.0153371E-1,6.265926E-2,5.7159066E-2,8.352733E-2,9.046309E-2,6.379657E-2,6.9449455E-2,0E0,0E0,0E0,0E0,0E0,0E0,0E0,0E0],"parents":[2147483647,0,0,1,1,2,2,3,3,4,4,5,5,6,6],"right_children":[2,4,6,8,10,12,14,-1,-1,-1,-1,-1,-1,-1,-1],"split_conditions":[5E-1,5E-1,5E-1,1.31E2,1.9642857E0,5E-1,2.7333333E0,1.9268297E-2,5.8339196E-3,-9.369606E-4,6.963581E-3,-1.180305E-3,1.6995031E-2,9.26967E-3,-4.780309E-3],"split_indices":[57,7,7,1,3,5,3,0,0,0,0,0,0,0,0],"split_type":[0,0,0,0,0,0,0,0,0,0,0,0,0,0,0],"sum_hessian":[2.92E2,2.18E2,7.4E1,1.6E2,5.8E1,5.7E1,1.7E1,4E0,1.56E2,3.4E1,2.4E1,5.6E1,1E0,1.3E1,4E0],"tree_param":{"num_deleted":"0","num_feature":"69","num_nodes":"15","size_leaf_vector":"0"}},{"base_weights":[3.7838824E-2,4.3470435E-2,-1.4927231E-2,5.8177587E-2,1.822231E-2,4.4494327E-2,-4.854354E-2,-4.2982247E-2,6.287197E-2,5.606576E-2,-1.5488971E-3,-2.009537E-2,1.6255014E-1,-1.3362104E-1,-1.694814E-2],"categories":[],"categories_nodes":[],"categories_segments":[],"categories_sizes":[],"default_left":[true,true,true,true,true,true,true,false,false,false,false,false,false,false,false],"id":12,"left_children":[1,3,5,7,9,11,13,-1,-1,-1,-1,-1,-1,-1,-1],"loss_changes":[8.771613E-2,9.7341835E-2,6.008838E-2,8.2007825E-2,7.41597E-2,8.7143585E-2,4.880846E-2,0E0,0E0,0E0,0E0,0E0,0E0,0E0,0E0],"parents":[2147483647,0,0,1,1,2,2,3,3,4,4,5,5,6,6],"right_children":[2,4,6,8,10,12,14,-1,-1,-1,-1,-1,-1,-1,-1],"split_conditions":[6.5E0,2.5E0,2.375E2,5E-1,1.5E0,5E-1,1.5E0,-4.2982246E-3,6.287197E-3,5.6065763E-3,-1.5488971E-4,-2.009537E-3,1.6255014E-2,-1.3362104E-2,-1.694814E-3],"split_indices":[68,25,1,43,68,41,42,0,0,0,0,0,0,0,0],"split_type":[0,0,0,0,0,0,0,0,0,0,0,0,0,0,0],"sum_hessian":[2.92E2,2.64E2,2.8E1,1.66E2,9.8E1,1E1,1.8E1,7E0,1.59E2,3.3E1,6.5E1,7E0,3E0,4E0,1.4E1],"tree_param":{"num_deleted":"0","num_feature":"69","num_nodes":"15","size_leaf_vector":"0"}},{"base_weights":[3.407756E-2,6.062016E-2,2.3823904E-2,6.760976E-2,-9.0831995E-2,-1.0581942E-2,3.557546E-2,7.540882E-2,-6.1338287E-2,-1.0254715E-1,-2.7843267E-2,-4.2223744E-2,3.204804E-2,7.1983784E-2,1.3955002E-2],"categories":[],"categories_nodes":[],"categories_segments":[],"categories_sizes":[],"default_left":[true,true,true,true,true,true,true,false,false,false,false,false,false,false,false],"id":13,"left_children":[1,3,5,7,9,11,13,-1,-1,-1,-1,-1,-1,-1,-1],"loss_changes":[7.829824E-2,9.188688E-2,8.649711E-2,8.306798E-2,9.644404E-5,7.554211E-2,1.2415463E-1,0E0,0E0,0E0,0E0,0E0,0E0,0E0,0E0],"parents":[2147483647,0,0,1,1,2,2,3,3,4,4,5,5,6,6],"right_children":[2,4,6,8,10,12,14,-1,-1,-1,-1,-1,-1,-1,-1],"split_conditions":[1.35E1,5E-1,2.175E2,1.5E0,2.015E2,5E-1,2.405E2,7.5408816E-3,-6.133829E-3,-1.0254715E-2,-2.7843267E-3,-4.2223744E-3,3.204804E-3,7.1983784E-3,1.3955001E-3],"split_indices":[0,60,1,59,1,48,1,0,0,0,0,0,0,0,0],"split_type":[0,0,0,0,0,0,0,0,0,0,0,0,0,0,0],"sum_hessian":[2.92E2,8E1,2.12E2,7.7E1,3E0,5.4E1,1.58E2,7.3E1,4E0,2E0,1E0,3.1E1,2.3E1,5.8E1,1E2],"tree_param":{"num_deleted":"0","num_feature":"69","num_nodes":"15","size_leaf_vector":"0"}},{"base_weights":[3.0655952E-2,3.9773244E-2,3.624711E-3,4.9027536E-2,1.3845878E-2,-5.8607495E-4,1.5761143E-1,1.6620587E-1,4.4983465E-2,4.2209484E-2,-3.5775166E-2,1.6860861E-2,-4.5421716E-2],"categories":[],"categories_nodes":[],"categories_segments":[],"categories_sizes":[],"default_left":[true,true,true,true,true,true,false,false,false,false,false,false,false],"id":14,"left_children":[1,3,5,7,9,11,-1,-1,-1,-1,-1,-1,-1],"loss_changes":[7.206619E-2,5.1867902E-2,4.872275E-2,6.8817765E-2,8.4548526E-2,5.8651946E-2,0E0,0E0,0E0,0E0,0E0,0E0,0E0],"parents":[2147483647,0,0,1,1,2,2,3,3,4,4,5,5],"right_children":[2,4,6,8,10,12,-1,-1,-1,-1,-1,-1,-1],"split_conditions":[5E-1,5E-1,5E-1,1.31E2,5E-1,2.7571428E0,1.5761143E-2,1.6620588E-2,4.4983467E-3,4.2209486E-3,-3.5775166E-3,1.6860862E-3,-4.5421715E-3],"split_indices":[57,7,5,1,59,3,0,0,0,0,0,0,0],"split_type":[0,0,0,0,0,0,0,0,0,0,0,0,0],"sum_hessian":[2.92E2,2.18E2,7.4E1,1.6E2,5.8E1,7.3E1,1E0,4E0,1.56E2,3.7E1,2.1E1,5.3E1,2E1],"tree_param":{"num_deleted":"0","num_feature":"69","num_nodes":"13","size_leaf_vector":"0"}},{"base_weights":[2.7708665E-2,-4.477447E-2,3.0694796E-2,-5.9071552E-2,1.7807305E-2,1.5290941E-1,2.8386278E-2,-7.314781E-2,3.3807397E-2,3.4077704E-2,-7.3667467E-3,4.1032217E-2,8.990746E-3],"categories":[],"categories_nodes":[],"categories_segments":[],"categories_sizes":[],"default_left":[true,true,true,true,true,false,true,false,false,false,false,false,false],"id":15,"left_children":[1,3,5,7,9,-1,11,-1,-1,-1,-1,-1,-1],"loss_changes":[6.4792454E-2,1.178875E-2,7.522145E-2,1.5546817E-2,1.4798173E-3,0E0,6.7817464E-2,0E0,0E0,0E0,0E0,0E0,0E0],"parents":[2147483647,0,0,1,1,2,2,3,3,4,4,6,6],"right_children":[2,4,6,8,10,-1,12,-1,-1,-1,-1,-1,-1],"split_conditions":[5E-1,5E-1,1.31E2,5E-1,1.5E1,1.5290941E-2,5E-1,-7.314781E-3,3.3807398E-3,3.4077705E-3,-7.366747E-4,4.103222E-3,8.990746E-4],"split_indices":[43,17,1,12,0,0,59,0,0,0,0,0,0],"split_type":[0,0,0,0,0,0,0,0,0,0,0,0,0],"sum_hessian":[2.92E2,1.1E1,2.81E2,9E0,2E0,4E0,2.77E2,8E0,1E0,1E0,1E0,1.67E2,1.1E2],"tree_param":{"num_deleted":"0","num_feature":"69","num_nodes":"13","size_leaf_vector":"0"}},{"base_weights":[2.5002735E-2,2.9743245E-2,-1.917787E-2,4.2293757E-2,8.271738E-3,3.629397E-2,-5.0283786E-2,1.9355362E-2,6.0783155E-2,4.3752283E-2,-1.01314485E-2,-2.0480298E-2,1.40769E-1,-1.0493307E-1,-9.660612E-3],"categories":[],"categories_nodes":[],"categories_segments":[],"categories_sizes":[],"default_left":[true,true,true,true,true,true,true,false,false,false,false,false,false,false,false],"id":16,"left_children":[1,3,5,7,9,11,13,-1,-1,-1,-1,-1,-1,-1,-1],"loss_changes":[6.1935917E-2,7.106194E-2,5.1864564E-2,6.96511E-2,6.508583E-2,6.812942E-2,4.11668E-2,0E0,0E0,0E0,0E0,0E0,0E0,0E0,0E0],"parents":[2147483647,0,0,1,1,2,2,3,3,4,4,5,5,6,6],"right_children":[2,4,6,8,10,12,14,-1,-1,-1,-1,-1,-1,-1,-1],"split_conditions":[6.5E0,2.5E0,2.375E2,5E-1,1.5E0,5E-1,5E-1,1.9355363E-3,6.0783154E-3,4.375228E-3,-1.0131449E-3,-2.0480298E-3,1.4076901E-2,-1.0493307E-2,-9.660612E-4],"split_indices":[68,25,1,62,68,41,39,0,0,0,0,0,0,0,0],"split_type":[0,0,0,0,0,0,0,0,0,0,0,0,0,0,0],"sum_hessian":[2.92E2,2.64E2,2.8E1,1.66E2,9.8E1,1E1,1.8E1,7.5E1,9.1E1,3.3E1,6.5E1,7E0,3E0,7E0,1.1E1],"tree_param":{"num_deleted":"0","num_feature":"69","num_nodes":"15","size_leaf_vector":"0"}},{"base_weights":[2.2543238E-2,3.4090057E-2,6.0793343E-3,2.634068E-2,9.892691E-2,-2.6642323E-2,2.119916E-2,3.631806E-2,-3.9053928E-2,1.4439775E-1,6.8444824E-3,-4.153628E-2,6.2197138E-2,1.5677805E-1,8.760038E-3],"categories":[],"categories_nodes":[],"categories_segments":[],"categories_sizes":[],"default_left":[true,true,true,true,true,true,true,false,false,false,false,false,false,false,false],"id":17,"left_children":[1,3,5,7,9,11,13,-1,-1,-1,-1,-1,-1,-1,-1],"loss_changes":[5.5493727E-2,8.381477E-2,6.092377E-2,1.0255071E-1,7.437883E-2,5.4187104E-2,1.4029114E-1,0E0,0E0,0E0,0E0,0E0,0E0,0E0,0E0],"parents":[2147483647,0,0,1,1,2,2,3,3,4,4,5,5,6,6],"right_children":[2,4,6,8,10,12,14,-1,-1,-1,-1,-1,-1,-1,-1],"split_conditions":[5.5E0,4.5E0,2.315E2,2.405E2,1.15E1,5E-1,2.345E2,3.631806E-3,-3.905393E-3,1.4439776E-2,6.844482E-4,-4.153628E-3,6.219714E-3,1.5677806E-2,8.760038E-4],"split_indices":[20,43,1,1,2,61,1,0,0,0,0,0,0,0,0],"split_type":[0,0,0,0,0,0,0,0,0,0,0,0,0,0,0],"sum_hessian":[2.92E2,1.71E2,1.21E2,1.54E2,1.7E1,3.8E1,8.3E1,1.34E2,2E1,1.1E1,6E0,3.3E1,5E0,6E0,7.7E1],"tree_param":{"num_deleted":"0","num_feature":"69","num_nodes":"15","size_leaf_vector":"0"}},{"base_weights":[2.0403136E-2,3.0446537E-2,2.917249E-3,1.5678523E-2,7.637124E-2,2.0849934E-2,-4.665282E-2,2.968134E-2,-2.7978124E-2,1.1858217E-1,2.2483405E-2,1.4778803E-3,5.6773823E-2,-8.1093036E-2,3.8891323E-2],"categories":[],"categories_nodes":[],"categories_segments":[],"categories_sizes":[],"default_left":[true,true,true,true,true,true,true,false,false,false,false,false,false,false,false],"id":18,"left_children":[1,3,5,7,9,11,13,-1,-1,-1,-1,-1,-1,-1,-1],"loss_changes":[5.1367186E-2,1.24950886E-1,9.697655E-2,8.7637305E-2,9.969339E-2,5.5589657E-2,8.8592395E-2,0E0,0E0,0E0,0E0,0E0,0E0,0E0,0E0],"parents":[2147483647,0,0,1,1,2,2,3,3,4,4,5,5,6,6],"right_children":[2,4,6,8,10,12,14,-1,-1,-1,-1,-1,-1,-1,-1],"split_conditions":[5E-1,5E-1,2.7571428E0,5E-1,8.5E0,3.5E0,1.5E0,2.9681341E-3,-2.7978125E-3,1.18582165E-2,2.2483405E-3,1.4778803E-4,5.6773825E-3,-8.109304E-3,3.8891323E-3],"split_indices":[35,6,3,7,2,43,48,0,0,0,0,0,0,0,0],"split_type":[0,0,0,0,0,0,0,0,0,0,0,0,0,0,0],"sum_hessian":[2.92E2,1.85E2,1.07E2,1.41E2,4.4E1,7.9E1,2.8E1,1.07E2,3.4E1,2.4E1,2E1,5.2E1,2.7E1,2E1,8E0],"tree_param":{"num_deleted":"0","num_feature":"69","num_nodes":"15","size_leaf_vector":"0"}},{"base_weights":[1.8417034E-2,2.8704518E-2,1.775868E-3,4.457324E-2,3.7912032E-4,-1.1496055E-2,5.7195913E-2,2.7596895E-2,9.4550654E-2,1.0835937E-2,-6.705138E-2,-2.0620096E-3,-8.864902E-2,1.197746E-1,-1.6271377E-2],"categories":[],"categories_nodes":[],"categories_segments":[],"categories_sizes":[],"default_left":[true,true,true,true,true,true,true,false,false,false,false,false,false,false,false],"id":19,"left_children":[1,3,5,7,9,11,13,-1,-1,-1,-1,-1,-1,-1,-1],"loss_changes":[5.010938E-2,8.13404E-2,8.377248E-2,9.580904E-2,4.7263723E-2,6.678074E-2,1.0309361E-1,0E0,0E0,0E0,0E0,0E0,0E0,0E0,0E0],"parents":[2147483647,0,0,1,1,2,2,3,3,4,4,5,5,6,6],"right_children":[2,4,6,8,10,12,14,-1,-1,-1,-1,-1,-1,-1,-1],"split_conditions":[5E-1,5E-1,4.5E0,5E-1,5E-1,1.05E1,1.15E1,2.7596895E-3,9.455065E-3,1.0835937E-3,-6.7051384E-3,-2.0620097E-4,-8.864902E-3,1.197746E-2,-1.6271378E-3],"split_indices":[59,35,43,6,51,2,2,0,0,0,0,0,0,0,0],"split_type":[0,0,0,0,0,0,0,0,0,0,0,0,0,0,0],"sum_hessian":[2.92E2,1.8E2,1.12E2,1.15E2,6.5E1,9.1E1,2.1E1,8.7E1,2.8E1,5.7E1,8E0,8.2E1,9E0,1.1E1,1E1],"tree_param":{"num_deleted":"0","num_feature":"69","num_nodes":"15","size_leaf_vector":"0"}},{"base_weights":[1.6602185E-2,3.7111096E-2,8.725078E-3,4.333651E-2,-9.3562275E-2,-2.1371134E-2,1.8828018E-2,5.0177094E-2,-6.657146E-2,-4.879187E-2,1.493778E-2,6.061988E-2,6.641338E-3],"categories":[],"categories_nodes":[],"categories_segments":[],"categories_sizes":[],"default_left":[true,true,true,true,false,true,true,false,false,false,false,false,false],"id":20,"left_children":[1,3,5,7,-1,9,11,-1,-1,-1,-1,-1,-1],"loss_changes":[4.7010608E-2,6.9947846E-2,6.51672E-2,6.198348E-2,0E0,5.449216E-2,8.1086054E-2,0E0,0E0,0E0,0E0,0E0,0E0],"parents":[2147483647,0,0,1,1,2,2,3,3,5,5,6,6],"right_children":[2,4,6,8,-1,10,12,-1,-1,-1,-1,-1,-1],"split_conditions":[1.35E1,5E-1,2.16E2,1.5E0,-9.356228E-3,5E-1,4.5E0,5.0177095E-3,-6.657146E-3,-4.8791873E-3,1.493778E-3,6.061988E-3,6.641338E-4],"split_indices":[0,60,1,59,0,48,20,0,0,0,0,0,0],"split_type":[0,0,0,0,0,0,0,0,0,0,0,0,0],"sum_hessian":[2.92E2,8E1,2.12E2,7.7E1,3E0,5.3E1,1.59E2,7.3E1,4E0,3E1,2.3E1,3.5E1,1.24E2],"tree_param":{"num_deleted":"0","num_feature":"69","num_nodes":"13","size_leaf_vector":"0"}},{"base_weights":[1.4915853E-2,-5.87522E-2,1.6924344E-2,-6.315333E-3,-1.09610245E-1,2.2971412E-2,-1.20772375E-2,3.9411128E-2,-4.9936682E-2,3.163406E-3,3.8703814E-2,-2.9960004E-4,-8.438278E-2],"categories":[],"categories_nodes":[],"categories_segments":[],"categories_sizes":[],"default_left":[true,true,true,true,false,true,true,false,false,false,false,false,false],"id":21,"left_children":[1,3,5,7,-1,9,11,-1,-1,-1,-1,-1,-1],"loss_changes":[4.4347115E-2,2.0642467E-2,5.0434545E-2,1.194131E-2,0E0,7.373327E-2,4.2554144E-2,0E0,0E0,0E0,0E0,0E0,0E0],"parents":[2147483647,0,0,1,1,2,2,3,3,5,5,6,6],"right_children":[2,4,6,8,-1,10,12,-1,-1,-1,-1,-1,-1],"split_conditions":[5E-1,2E0,1.05E1,1.5E0,-1.0961025E-2,5E-1,5E-1,3.9411127E-3,-4.9936683E-3,3.163406E-4,3.8703815E-3,-2.9960005E-5,-8.438278E-3],"split_indices":[45,68,2,53,0,62,49,0,0,0,0,0,0],"split_type":[0,0,0,0,0,0,0,0,0,0,0,0,0],"sum_hessian":[2.92E2,7E0,2.85E2,4E0,3E0,2.36E2,4.9E1,2E0,2E0,1.05E2,1.31E2,4.3E1,6E0],"tree_param":{"num_deleted":"0","num_feature":"69","num_nodes":"13","size_leaf_vector":"0"}},{"base_weights":[1.3368668E-2,2.0145854E-2,-6.598962E-3,1.817368E-2,1.2160683E-1,-1.4250374E-2,6.976481E-2,3.3616398E-2,4.061628E-3,1.5991522E-1,3.3408105E-3,-2.799481E-2,3.3027746E-2,1.026679E-1,1.942052E-2],"categories":[],"categories_nodes":[],"categories_segments":[],"categories_sizes":[],"default_left":[true,true,true,true,true,true,true,false,false,false,false,false,false,false,false],"id":22,"left_children":[1,3,5,7,9,11,13,-1,-1,-1,-1,-1,-1,-1,-1],"loss_changes":[3.9782964E-2,4.161159E-2,4.4815976E-2,4.6936005E-2,1.7588083E-2,4.576157E-2,9.6015185E-3,0E0,0E0,0E0,0E0,0E0,0E0,0E0,0E0],"parents":[2147483647,0,0,1,1,2,2,3,3,4,4,5,5,6,6],"right_children":[2,4,6,8,10,12,14,-1,-1,-1,-1,-1,-1,-1,-1],"split_conditions":[5E-1,5E-1,5E-1,1.5E0,1.7E1,5E-1,3.05E1,3.3616398E-3,4.061628E-4,1.5991522E-2,3.3408107E-4,-2.799481E-3,3.3027746E-3,1.026679E-2,1.9420519E-3],"split_indices":[57,23,18,45,0,7,0,0,0,0,0,0,0,0,0],"split_type":[0,0,0,0,0,0,0,0,0,0,0,0,0,0,0],"sum_hessian":[2.92E2,2.18E2,7.4E1,2.15E2,3E0,6.8E1,6E0,1.02E2,1.13E2,2E0,1E0,5.3E1,1.5E1,3E0,3E0],"tree_param":{"num_deleted":"0","num_feature":"69","num_nodes":"15","size_leaf_vector":"0"}},{"base_weights":[1.2143768E-2,9.471898E-3,6.1030976E-2,4.6556797E-3,4.1852046E-2,1.6242583E-1,2.2146776E-2,1.0182441E-2,-5.1577207E-2,9.738462E-2,-2.4514426E-3,4.137032E-2,-4.9313962E-2],"categories":[],"categories_nodes":[],"categories_segments":[],"categories_sizes":[],"default_left":[true,true,true,true,true,false,true,false,false,false,false,false,false],"id":23,"left_children":[1,3,5,7,9,-1,11,-1,-1,-1,-1,-1,-1],"loss_changes":[3.769366E-2,4.3315157E-2,5.554266E-2,7.63569E-2,8.880905E-2,0E0,1.8524878E-2,0E0,0E0,0E0,0E0,0E0,0E0],"parents":[2147483647,0,0,1,1,2,2,3,3,4,4,6,6],"right_children":[2,4,6,8,10,-1,12,-1,-1,-1,-1,-1,-1],"split_conditions":[5E-1,4.5E0,2.185E2,1.05E1,1.15E1,1.6242584E-2,1.5E0,1.0182442E-3,-5.1577208E-3,9.738462E-3,-2.4514427E-4,4.137032E-3,-4.9313963E-3],"split_indices":[28,43,1,2,2,0,7,0,0,0,0,0,0],"split_type":[0,0,0,0,0,0,0,0,0,0,0,0,0],"sum_hessian":[2.92E2,2.78E2,1.4E1,2.43E2,3.5E1,3E0,1.1E1,2.22E2,2.1E1,1.5E1,2E1,9E0,2E0],"tree_param":{"num_deleted":"0","num_feature":"69","num_nodes":"13","size_leaf_vector":"0"}},{"base_weights":[1.1000401E-2,1.9977378E-2,-3.4759964E-3,3.4582313E-2,-5.99459E-3,-3.141519E-2,1.9196622E-2,1.9661212E-2,7.866764E-2,2.2470903E-4,-1.024499E-1,5.3649064E-2,-6.1927937E-2,3.555872E-2,-3.1089457E-2],"categories":[],"categories_nodes":[],"categories_segments":[],"categories_sizes":[],"default_left":[true,true,true,true,true,true,true,false,false,false,false,false,false,false,false],"id":24,"left_children":[1,3,5,7,9,11,13,-1,-1,-1,-1,-1,-1,-1,-1],"loss_changes":[3.8146045E-2,6.8864025E-2,7.2183445E-2,7.475826E-2,3.9615393E-2,1.3569513E-1,5.2941E-2,0E0,0E0,0E0,0E0,0E0,0E0,0E0,0E0],"parents":[2147483647,0,0,1,1,2,2,3,3,4,4,5,5,6,6],"right_children":[2,4,6,8,10,12,14,-1,-1,-1,-1,-1,-1,-1,-1],"split_conditions":[5E-1,5E-1,5E-1,5E-1,1.5E0,3.5E0,1.05E1,1.9661214E-3,7.866764E-3,2.2470904E-5,-1.0244991E-2,5.3649065E-3,-6.1927936E-3,3.555872E-3,-3.1089457E-3],"split_indices":[59,35,62,6,58,20,2,0,0,0,0,0,0,0,0],"split_type":[0,0,0,0,0,0,0,0,0,0,0,0,0,0,0],"sum_hessian":[2.92E2,1.8E2,1.12E2,1.15E2,6.5E1,5E1,6.2E1,8.7E1,2.8E1,6.2E1,3E0,1.3E1,3.7E1,4.7E1,1.5E1],"tree_param":{"num_deleted":"0","num_feature":"69","num_nodes":"15","size_leaf_vector":"0"}},{"base_weights":[9.897731E-3,1.1171761E-2,-8.494386E-2,3.1920172E-2,3.521301E-3,2.0222485E-2,-1.2674014E-1,2.3187255E-4,5.9076052E-2,-2.3274738E-2,1.2768225E-2],"categories":[],"categories_nodes":[],"categories_segments":[],"categories_sizes":[],"default_left":[true,true,true,true,true,false,false,false,false,false,false],"id":25,"left_children":[1,3,5,7,9,-1,-1,-1,-1,-1,-1],"loss_changes":[3.635246E-2,4.592072E-2,2.014525E-2,6.710714E-2,5.307452E-2,0E0,0E0,0E0,0E0,0E0,0E0],"parents":[2147483647,0,0,1,1,2,2,3,3,4,4],"right_children":[2,4,6,8,10,-1,-1,-1,-1,-1,-1],"split_conditions":[5E-1,1.35E1,1.25E1,5E-1,2.175E2,2.0222485E-3,-1.2674014E-2,2.3187255E-5,5.9076054E-3,-2.3274738E-3,1.2768225E-3],"split_indices":[47,0,0,36,1,0,0,0,0,0,0],"split_type":[0,0,0,0,0,0,0,0,0,0,0],"sum_hessian":[2.92E2,2.89E2,3E0,7.7E1,2.12E2,1E0,2E0,3.6E1,4.1E1,5.4E1,1.58E2],"tree_param":{"num_deleted":"0","num_feature":"69","num_nodes":"11","size_leaf_vector":"0"}},{"base_weights":[8.888251E-3,1.041193E-2,-6.57297E-2,5.482492E-3,4.7076482E-2,1.6496953E-2,-1.4549028E-2,8.957018E-2,8.814603E-3],"categories":[],"categories_nodes":[],"categories_segments":[],"categories_sizes":[],"default_left":[true,true,false,true,true,false,false,false,false],"id":26,"left_children":[1,3,-1,5,7,-1,-1,-1,-1],"loss_changes":[3.399665E-2,5.1793765E-2,0E0,5.650229E-2,5.4490693E-2,0E0,0E0,0E0,0E0],"parents":[2147483647,0,0,1,1,3,3,4,4],"right_children":[2,4,-1,6,8,-1,-1,-1,-1],"split_conditions":[5E-1,4.5E0,-6.57297E-3,5E-1,1.15E1,1.6496953E-3,-1.4549028E-3,8.957018E-3,8.814603E-4],"split_indices":[16,43,0,59,2,0,0,0,0],"split_type":[0,0,0,0,0,0,0,0,0],"sum_hessian":[2.92E2,2.87E2,5E0,2.54E2,3.3E1,1.64E2,9E1,1.5E1,1.8E1],"tree_param":{"num_deleted":"0","num_feature":"69","num_nodes":"9","size_leaf_vector":"0"}},{"base_weights":[8.011242E-3,-5.575434E-2,9.766884E-3,-9.91655E-3,-9.9113E-2,1.3345979E-2,-2.2411512E-2,3.3055145E-2,-4.958273E-2,1.4291027E-2,-1.14765584E-1,-6.213489E-2,1.8805968E-2],"categories":[],"categories_nodes":[],"categories_segments":[],"categories_sizes":[],"default_left":[true,true,true,true,false,true,true,false,false,false,false,false,false],"id":27,"left_children":[1,3,5,7,-1,9,11,-1,-1,-1,-1,-1,-1],"loss_changes":[3.334575E-2,1.4916861E-2,3.3237595E-2,1.016158E-2,0E0,3.287656E-2,4.8650134E-2,0E0,0E0,0E0,0E0,0E0,0E0],"parents":[2147483647,0,0,1,1,2,2,3,3,5,5,6,6],"right_children":[2,4,6,8,-1,10,12,-1,-1,-1,-1,-1,-1],"split_conditions":[5E-1,2E0,5E-1,1.5E0,-9.911301E-3,5E-1,1.5E0,3.3055146E-3,-4.9582734E-3,1.4291027E-3,-1.1476559E-2,-6.2134895E-3,1.8805967E-3],"split_indices":[45,68,9,53,0,47,15,0,0,0,0,0,0],"split_type":[0,0,0,0,0,0,0,0,0,0,0,0,0],"sum_hessian":[2.92E2,7E0,2.85E2,4E0,3E0,2.57E2,2.8E1,2E0,2E0,2.56E2,1E0,1.4E1,1.4E1],"tree_param":{"num_deleted":"0","num_feature":"69","num_nodes":"13","size_leaf_vector":"0"}},{"base_weights":[7.1215895E-3,-4.140123E-2,9.161137E-3,-8.0458835E-2,-1.1815071E-2,1.0632236E-1,7.380679E-3,-3.918501E-2,2.5351122E-2,8.654393E-3,-1.1226127E-1],"categories":[],"categories_nodes":[],"categories_segments":[],"categories_sizes":[],"default_left":[true,true,true,false,true,false,true,false,false,false,false],"id":28,"left_children":[1,3,5,-1,7,-1,9,-1,-1,-1,-1],"loss_changes":[2.93759E-2,1.291615E-2,4.7998853E-2,0E0,9.131275E-3,0E0,4.333588E-2,0E0,0E0,0E0,0E0],"parents":[2147483647,0,0,1,1,2,2,4,4,6,6],"right_children":[2,4,6,-1,8,-1,10,-1,-1,-1,-1],"split_conditions":[5E-1,5E-1,1.31E2,-8.045884E-3,5E-1,1.06322365E-2,5E-1,-3.918501E-3,2.5351122E-3,8.6543936E-4,-1.1226128E-2],"split_indices":[43,35,1,0,15,0,47,0,0,0,0],"split_type":[0,0,0,0,0,0,0,0,0,0,0],"sum_hessian":[2.92E2,1.1E1,2.81E2,4E0,7E0,4E0,2.77E2,4E0,3E0,2.75E2,2E0],"tree_param":{"num_deleted":"0","num_feature":"69","num_nodes":"11","size_leaf_vector":"0"}},{"base_weights":[6.3781585E-3,9.625078E-3,-2.3511905E-2,-5.010213E-2,1.16792405E-2,-6.0508847E-3,-1.06114626E-1,-6.489731E-2,3.412968E-2,1.3003515E-2,-1.04777195E-1,-1.3499679E-1,4.9467273E-3,-1.3096493E-1,-3.3566952E-3],"categories":[],"categories_nodes":[],"categories_segments":[],"categories_sizes":[],"default_left":[true,true,true,true,true,true,true,false,false,false,false,false,false,false,false],"id":29,"left_children":[1,3,5,7,9,11,13,-1,-1,-1,-1,-1,-1,-1,-1],"loss_changes":[2.8662138E-2,3.309784E-2,4.118542E-2,1.3430953E-2,4.09971E-2,3.6120217E-2,1.232823E-2,0E0,0E0,0E0,0E0,0E0,0E0,0E0,0E0],"parents":[2147483647,0,0,1,1,2,2,3,3,4,4,5,5,6,6],"right_children":[2,4,6,8,10,12,14,-1,-1,-1,-1,-1,-1,-1,-1],"split_conditions":[6.5E0,5E-1,5E-1,5E-1,5E-1,1.4772727E0,2.35E1,-6.4897314E-3,3.412968E-3,1.3003516E-3,-1.047772E-2,-1.3499679E-2,4.9467274E-4,-1.3096494E-2,-3.3566952E-4],"split_indices":[68,43,56,12,47,3,0,0,0,0,0,0,0,0,0],"split_type":[0,0,0,0,0,0,0,0,0,0,0,0,0,0,0],"sum_hessian":[2.92E2,2.64E2,2.8E1,8E0,2.56E2,2.4E1,4E0,7E0,1E0,2.54E2,2E0,1E0,2.3E1,3E0,1E0],"tree_param":{"num_deleted":"0","num_feature":"69","num_nodes":"15","size_leaf_vector":"0"}},{"base_weights":[5.6083063E-3,1.3092693E-2,-7.3334007E-3,2.5109295E-3,4.619309E-2,2.1591058E-2,-2.6800213E-2,1.44499475E-2,-3.4401212E-2,8.340082E-2,-3.0150585E-4,5.768345E-2,-1.712331E-2,-4.3266606E-2,3.6274973E-2],"categories":[],"categories_nodes":[],"categories_segments":[],"categories_sizes":[],"default_left":[true,true,true,true,true,true,true,false,false,false,false,false,false,false,false],"id":30,"left_children":[1,3,5,7,9,11,13,-1,-1,-1,-1,-1,-1,-1,-1],"loss_changes":[2.8476212E-2,6.503248E-2,6.138988E-2,6.307574E-2,7.787328E-2,6.2468674E-2,6.9079846E-2,0E0,0E0,0E0,0E0,0E0,0E0,0E0,0E0],"parents":[2147483647,0,0,1,1,2,2,3,3,4,4,5,5,6,6],"right_children":[2,4,6,8,10,12,14,-1,-1,-1,-1,-1,-1,-1,-1],"split_conditions":[5E-1,5E-1,2.1180556E0,5E-1,8.5E0,5E-1,1.5E0,1.4449948E-3,-3.4401212E-3,8.340082E-3,-3.0150584E-5,5.768345E-3,-1.712331E-3,-4.3266607E-3,3.6274975E-3],"split_indices":[35,6,3,7,2,63,48,0,0,0,0,0,0,0,0],"split_type":[0,0,0,0,0,0,0,0,0,0,0,0,0,0,0],"sum_hessian":[2.92E2,1.85E2,1.07E2,1.41E2,4.4E1,4.3E1,6.4E1,1.07E2,3.4E1,2.4E1,2E1,2.2E1,2.1E1,5.1E1,1.3E1],"tree_param":{"num_deleted":"0","num_feature":"69","num_nodes":"15","size_leaf_vector":"0"}},{"base_weights":[5.0804857E-3,2.8033191E-3,4.7097087E-2,-5.687248E-4,4.4258367E-2,1.3764496E-1,1.29897045E-2,1.4500651E-2,-1.4954003E-2,7.082194E-3,7.7411056E-2,5.0817937E-2,-2.1290166E-2],"categories":[],"categories_nodes":[],"categories_segments":[],"categories_sizes":[],"default_left":[true,true,true,true,true,false,true,false,false,false,false,false,false],"id":31,"left_children":[1,3,5,7,9,-1,11,-1,-1,-1,-1,-1,-1],"loss_changes":[2.7901864E-2,3.9026093E-2,4.45373E-2,5.6362122E-2,2.5334049E-2,0E0,1.6642885E-2,0E0,0E0,0E0,0E0,0E0,0E0],"parents":[2147483647,0,0,1,1,2,2,3,3,4,4,6,6],"right_children":[2,4,6,8,10,-1,12,-1,-1,-1,-1,-1,-1],"split_conditions":[5E-1,5E-1,2.185E2,1.5E0,3E0,1.3764496E-2,3.5E0,1.450065E-3,-1.4954003E-3,7.082194E-4,7.7411057E-3,5.0817938E-3,-2.1290167E-3],"split_indices":[28,18,1,45,68,0,43,0,0,0,0,0,0],"split_type":[0,0,0,0,0,0,0,0,0,0,0,0,0],"sum_hessian":[2.92E2,2.78E2,1.4E1,2.58E2,2E1,3E0,1.1E1,1.26E2,1.32E2,1E1,1E1,5E0,6E0],"tree_param":{"num_deleted":"0","num_feature":"69","num_nodes":"13","size_leaf_vector":"0"}},{"base_weights":[4.658186E-3,3.389605E-3,7.705053E-2,1.13852825E-2,-1.1159727E-2,1.0898522E-1,1.9432327E-2,1.7187742E-3,3.57927E-2,3.4919105E-2,-2.132841E-2],"categories":[],"categories_nodes":[],"categories_segments":[],"categories_sizes":[],"default_left":[true,true,true,true,true,false,false,false,false,false,false],"id":32,"left_children":[1,3,5,7,9,-1,-1,-1,-1,-1,-1],"loss_changes":[2.6646648E-2,3.3746935E-2,7.082261E-3,4.405824E-2,4.900656E-2,0E0,0E0,0E0,0E0,0E0,0E0],"parents":[2147483647,0,0,1,1,2,2,3,3,4,4],"right_children":[2,4,6,8,10,-1,-1,-1,-1,-1,-1],"split_conditions":[2.5E0,2.5E0,3.4818182E0,5E-1,2.035E2,1.0898522E-2,1.9432327E-3,1.7187743E-4,3.57927E-3,3.4919106E-3,-2.1328412E-3],"split_indices":[56,25,3,6,1,0,0,0,0,0,0],"split_type":[0,0,0,0,0,0,0,0,0,0,0],"sum_hessian":[2.92E2,2.88E2,4E0,1.86E2,1.02E2,2E0,2E0,1.34E2,5.2E1,1.8E1,8.4E1],"tree_param":{"num_deleted":"0","num_feature":"69","num_nodes":"11","size_leaf_vector":"0"}},{"base_weights":[4.2536254E-3,6.646212E-4,2.8320244E-2,1.0980962E-2,-1.7844737E-2,7.101107E-2,-5.955405E-3,1.8120833E-2,-3.6251877E-2,-5.1255077E-3,-6.060377E-2,9.500343E-2,-5.5713058E-3,2.2797758E-2,-3.678109E-2],"categories":[],"categories_nodes":[],"categories_segments":[],"categories_sizes":[],"default_left":[true,true,true,true,true,true,true,false,false,false,false,false,false,false,false],"id":33,"left_children":[1,3,5,7,9,11,13,-1,-1,-1,-1,-1,-1,-1,-1],"loss_changes":[2.5289109E-2,4.9078856E-2,5.6026608E-2,5.630092E-2,4.9724672E-2,3.176497E-2,2.0337919E-2,0E0,0E0,0E0,0E0,0E0,0E0,0E0,0E0],"parents":[2147483647,0,0,1,1,2,2,3,3,4,4,5,5,6,6],"right_children":[2,4,6,8,10,12,14,-1,-1,-1,-1,-1,-1,-1,-1],"split_conditions":[4.5E0,5E-1,1.15E1,5E-1,5E-1,2.25E1,5E-1,1.8120833E-3,-3.6251878E-3,-5.1255076E-4,-6.060377E-3,9.500343E-3,-5.571306E-4,2.279776E-3,-3.6781093E-3],"split_indices":[43,59,2,51,7,0,17,0,0,0,0,0,0,0,0],"split_type":[0,0,0,0,0,0,0,0,0,0,0,0,0,0,0],"sum_hessian":[2.92E2,2.55E2,3.7E1,1.64E2,9.1E1,1.6E1,2.1E1,1.43E2,2.1E1,7.1E1,2E1,1.2E1,4E0,1.1E1,1E1],"tree_param":{"num_deleted":"0","num_feature":"69","num_nodes":"15","size_leaf_vector":"0"}},{"base_weights":[3.8253828E-3,2.4904525E-3,6.726447E-2,1.2574464E-3,7.202711E-2,8.295947E-2,-5.6052804E-3,9.129408E-3,-1.2454885E-2,1.0128635E-1,1.8758833E-2,9.207086E-2,2.3256958E-2],"categories":[],"categories_nodes":[],"categories_segments":[],"categories_sizes":[],"default_left":[true,true,true,true,true,true,false,false,false,false,false,false,false],"id":34,"left_children":[1,3,5,7,9,11,-1,-1,-1,-1,-1,-1,-1],"loss_changes":[2.46457E-2,2.4602298E-2,7.327158E-3,3.0769503E-2,5.8929324E-3,5.7857484E-4,0E0,0E0,0E0,0E0,0E0,0E0,0E0],"parents":[2147483647,0,0,1,1,2,2,3,3,4,4,5,5],"right_children":[2,4,6,8,10,12,-1,-1,-1,-1,-1,-1,-1],"split_conditions":[5E-1,2.5E0,5E-1,5E-1,3.4818182E0,3.0333333E0,-5.605281E-4,9.1294077E-4,-1.2454885E-3,1.0128635E-2,1.8758833E-3,9.207087E-3,2.3256957E-3],"split_indices":[55,56,21,35,3,3,0,0,0,0,0,0,0],"split_type":[0,0,0,0,0,0,0,0,0,0,0,0,0],"sum_hessian":[2.92E2,2.87E2,5E0,2.83E2,4E0,4E0,1E0,1.8E2,1.03E2,2E0,2E0,3E0,1E0],"tree_param":{"num_deleted":"0","num_feature":"69","num_nodes":"13","size_leaf_vector":"0"}},{"base_weights":[3.5201178E-3,2.4501572E-3,8.0212235E-2,9.330784E-3,-9.4048465E-3,9.694932E-2,1.5000492E-2,2.328443E-2,-1.0361741E-2,3.6420566E-3,-4.4622105E-2],"categories":[],"categories_nodes":[],"categories_segments":[],"categories_sizes":[],"default_left":[true,true,true,true,true,false,false,false,false,false,false],"id":35,"left_children":[1,3,5,7,9,-1,-1,-1,-1,-1,-1],"loss_changes":[2.384633E-2,2.3743013E-2,2.9115304E-3,5.0801255E-2,4.932647E-2,0E0,0E0,0E0,0E0,0E0,0E0],"parents":[2147483647,0,0,1,1,2,2,3,3,4,4],"right_children":[2,4,6,8,10,-1,-1,-1,-1,-1,-1],"split_conditions":[1.5E0,5E-1,2.2E1,8.5E0,2.7571428E0,9.694932E-3,1.5000493E-3,2.328443E-3,-1.0361741E-3,3.6420565E-4,-4.4622105E-3],"split_indices":[61,35,0,2,3,0,0,0,0,0,0],"split_type":[0,0,0,0,0,0,0,0,0,0,0],"sum_hessian":[2.92E2,2.89E2,3E0,1.83E2,1.06E2,2E0,1E0,1.07E2,7.6E1,7.8E1,2.8E1],"tree_param":{"num_deleted":"0","num_feature":"69","num_nodes":"11","size_leaf_vector":"0"}},{"base_weights":[3.1967354E-3,-2.6811875E-4,2.6454786E-2,9.099647E-3,-1.706609E-2,6.5326445E-2,-4.784894E-3,1.5502271E-2,-3.3222053E-2,1.7896183E-2,-3.037882E-2,1.0930186E-1,2.3613472E-2,-1.7002791E-2,5.444634E-2],"categories":[],"categories_nodes":[],"categories_segments":[],"categories_sizes":[],"default_left":[true,true,true,true,true,true,true,false,false,false,false,false,false,false,false],"id":36,"left_children":[1,3,5,7,9,11,13,-1,-1,-1,-1,-1,-1,-1,-1],"loss_changes":[2.3618719E-2,4.043932E-2,4.6457432E-2,4.5225047E-2,4.3364454E-2,2.8602876E-2,1.6846724E-2,0E0,0E0,0E0,0E0,0E0,0E0,0E0,0E0],"parents":[2147483647,0,0,1,1,2,2,3,3,4,4,5,5,6,6],"right_children":[2,4,6,8,10,12,14,-1,-1,-1,-1,-1,-1,-1,-1],"split_conditions":[4.5E0,5E-1,1.15E1,5E-1,1.5E0,2.05E0,3.5E0,1.5502272E-3,-3.3222053E-3,1.7896183E-3,-3.037882E-3,1.0930186E-2,2.3613472E-3,-1.7002792E-3,5.4446342E-3],"split_indices":[43,59,2,51,68,3,42,0,0,0,0,0,0,0,0],"split_type":[0,0,0,0,0,0,0,0,0,0,0,0,0,0,0],"sum_hessian":[2.92E2,2.55E2,3.7E1,1.64E2,9.1E1,1.6E1,2.1E1,1.43E2,2.1E1,2.5E1,6.6E1,7E0,9E0,1.8E1,3E0],"tree_param":{"num_deleted":"0","num_feature":"69","num_nodes":"15","size_leaf_vector":"0"}},{"base_weights":[2.924906E-3,9.403416E-4,3.964281E-2,-2.0003142E-3,3.7163652E-2,-7.1775913E-3,9.417721E-2,1.0719637E-2,-1.4131393E-2,1.3025906E-2,8.3578296E-2,-2.6833994E-2,4.107988E-2,1.2834361E-1,5.840818E-3],"categories":[],"categories_nodes":[],"categories_segments":[],"categories_sizes":[],"default_left":[true,true,true,true,true,true,true,false,false,false,false,false,false,false,false],"id":37,"left_children":[1,3,5,7,9,11,13,-1,-1,-1,-1,-1,-1,-1,-1],"loss_changes":[2.1313354E-2,2.9793497E-2,3.8975805E-2,4.011693E-2,2.2438562E-2,9.639451E-3,2.0377327E-2,0E0,0E0,0E0,0E0,0E0,0E0,0E0,0E0],"parents":[2147483647,0,0,1,1,2,2,3,3,4,4,5,5,6,6],"right_children":[2,4,6,8,10,12,14,-1,-1,-1,-1,-1,-1,-1,-1],"split_conditions":[5E-1,5E-1,1.5E0,1.5E0,5E-1,1.5E0,5E-1,1.0719638E-3,-1.4131394E-3,1.3025906E-3,8.357829E-3,-2.6833995E-3,4.107988E-3,1.2834362E-2,5.840818E-4],"split_indices":[28,18,53,45,17,17,4,0,0,0,0,0,0,0,0],"split_type":[0,0,0,0,0,0,0,0,0,0,0,0,0,0,0],"sum_hessian":[2.92E2,2.78E2,1.4E1,2.58E2,2E1,8E0,6E0,1.26E2,1.32E2,1.4E1,6E0,6E0,2E0,4E0,2E0],"tree_param":{"num_deleted":"0","num_feature":"69","num_nodes":"15","size_leaf_vector":"0"}},{"base_weights":[2.7148812E-3,1.7081985E-3,7.5020656E-2,4.4845787E-4,6.1261177E-2,1.0609445E-1,2.9297909E-2,-3.061345E-3,2.4056364E-2,7.574366E-2,-5.575627E-3],"categories":[],"categories_nodes":[],"categories_segments":[],"categories_sizes":[],"default_left":[true,true,true,true,true,false,false,false,false,false,false],"id":38,"left_children":[1,3,5,7,9,-1,-1,-1,-1,-1,-1],"loss_changes":[2.1199018E-2,2.1728706E-2,2.5747716E-3,2.3688488E-2,6.2300954E-3,0E0,0E0,0E0,0E0,0E0,0E0],"parents":[2147483647,0,0,1,1,2,2,3,3,4,4],"right_children":[2,4,6,8,10,-1,-1,-1,-1,-1,-1],"split_conditions":[1.5E0,5E-1,2.325E2,4.5E0,5E-1,1.0609445E-2,2.9297909E-3,-3.0613452E-4,2.4056365E-3,7.574366E-3,-5.5756274E-4],"split_indices":[61,55,1,43,21,0,0,0,0,0,0],"split_type":[0,0,0,0,0,0,0,0,0,0,0],"sum_hessian":[2.92E2,2.89E2,3E0,2.84E2,5E0,1E0,2E0,2.48E2,3.6E1,4E0,1E0],"tree_param":{"num_deleted":"0","num_feature":"69","num_nodes":"11","size_leaf_vector":"0"}},{"base_weights":[2.5207102E-3,3.498527E-3,-6.900118E-2,-7.1693244E-3,1.1070947E-2,1.3392508E-2,-1.00929916E-1,1.3567118E-2,-3.6886416E-2,2.5181834E-2,-1.0465704E-2],"categories":[],"categories_nodes":[],"categories_segments":[],"categories_sizes":[],"default_left":[true,true,true,true,true,false,false,false,false,false,false],"id":39,"left_children":[1,3,5,7,9,-1,-1,-1,-1,-1,-1],"loss_changes":[2.0732448E-2,2.3505993E-2,1.1874611E-2,7.506388E-2,5.1926762E-2,0E0,0E0,0E0,0E0,0E0,0E0],"parents":[2147483647,0,0,1,1,2,2,3,3,4,4],"right_children":[2,4,6,8,10,-1,-1,-1,-1,-1,-1],"split_conditions":[5E-1,5E-1,1.25E1,2.1180556E0,8.5E0,1.3392508E-3,-1.0092991E-2,1.3567118E-3,-3.6886416E-3,2.5181833E-3,-1.0465704E-3],"split_indices":[47,62,0,3,2,0,0,0,0,0,0],"split_type":[0,0,0,0,0,0,0,0,0,0,0],"sum_hessian":[2.92E2,2.89E2,3E0,1.2E2,1.69E2,1E0,2E0,7.1E1,4.9E1,1.02E2,6.7E1],"tree_param":{"num_deleted":"0","num_feature":"69","num_nodes":"11","size_leaf_vector":"0"}}]},"name":"gbtree"},"learner_model_param":{"base_score":"5E-1","num_class":"0","num_feature":"69"},"objective":{"name":"reg:squarederror","reg_loss_param":{"scale_pos_weight":"1"}}},"version":[1,4,1]}